/*!
 * The following copyright notice may not be removed under any circumstances.
 * 
 * Copyright:
 * Copyright (c) 2003 by This Font is designed by Ralph Oliver du Carrois. All
 * rights reserved.
 * 
 * Trademark:
 * Colaborate Light is a trademark of This Font is designed by Ralph Oliver du
 * Carrois.
 * 
 * Description:
 * Copyright (c) 2003 by This Font is designed by Ralph Oliver du Carrois. All
 * rights reserved.
 * 
 * Manufacturer:
 * This Font is designed by Ralph Oliver du Carrois
 */
Cufon.registerFont({"w":488,"face":{"font-family":"ColaborateLight","font-weight":400,"font-stretch":"normal","units-per-em":"1000","panose-1":"2 0 5 3 4 0 0 2 0 4","ascent":"800","descent":"-200","x-height":"11","bbox":"-32 -835 1001 209","underline-thickness":"50","underline-position":"-50","unicode-range":"U+0020-U+2122"},"glyphs":{" ":{"w":244},"!":{"d":"155,-170r-66,0r0,-477r66,0r0,477xm162,0r-80,0r0,-84r80,0r0,84","w":244},"\"":{"d":"282,-647r-8,217r-50,0r-8,-217r66,0xm145,-647r-8,217r-51,0r-8,-217r67,0","w":360},"#":{"d":"475,-396r-106,0r-27,153r94,0r0,52r-103,0r-33,191r-61,0r33,-191r-111,0r-33,191r-61,0r33,-191r-87,0r0,-52r97,0r26,-153r-84,0r0,-52r94,0r35,-199r61,0r-35,199r111,0r35,-199r61,0r-35,199r96,0r0,52xm308,-396r-111,0r-26,153r110,0"},"$":{"d":"44,-489v-1,-105,71,-155,167,-167r0,-90r59,0r0,88v49,2,96,11,140,26r-25,64v-46,-19,-84,-30,-115,-32r0,238v51,19,75,31,113,62v35,28,54,71,54,132v0,105,-56,166,-167,181r0,85r-59,0r0,-81v-39,0,-94,-10,-166,-29r25,-64r76,27v21,6,39,9,65,9r0,-267v-52,-21,-72,-29,-113,-59v-35,-26,-54,-64,-54,-123xm212,-385r0,-212v-63,11,-94,47,-94,108v0,62,44,82,94,104xm363,-166v0,-68,-42,-92,-93,-117r0,235v62,-17,93,-56,93,-118"},"%":{"d":"557,-338v101,-1,127,70,127,171v0,103,-25,178,-128,178v-52,0,-88,-21,-104,-57v-16,-37,-21,-69,-21,-121v0,-114,42,-171,126,-171xm583,-629r-363,629r-63,0r362,-629r64,0xm180,-658v101,-1,127,70,127,171v0,103,-25,178,-128,178v-52,0,-88,-21,-104,-57v-16,-37,-21,-69,-21,-121v0,-114,42,-171,126,-171xm556,-26v74,0,78,-67,79,-141v0,-74,-6,-134,-78,-134v-67,0,-76,65,-76,134v0,73,4,141,75,141xm179,-346v74,0,78,-67,79,-141v0,-74,-6,-134,-78,-134v-67,0,-76,65,-76,134v0,73,4,141,75,141","w":738},"&":{"d":"249,-37v52,-2,93,-41,116,-78r0,-122r-103,0r0,-49r168,0r0,146v0,47,7,96,12,140r-58,0r-14,-54v-31,45,-73,68,-125,68v-117,0,-199,-66,-199,-187v0,-87,40,-149,119,-187v-44,-33,-99,-60,-99,-135v0,-102,51,-166,159,-166v106,0,159,52,159,157v0,38,-13,69,-38,94v-25,25,-62,48,-112,70v-73,33,-120,67,-120,165v0,76,49,141,135,138xm215,-387v53,-24,102,-48,102,-118v0,-68,-24,-105,-94,-105v-59,0,-89,38,-89,114v0,59,47,82,81,109"},"'":{"d":"155,-647r-8,217r-50,0r-8,-217r66,0","w":244},"(":{"d":"127,-254v0,177,26,253,96,382r-60,0v-75,-134,-106,-198,-106,-382v0,-192,30,-260,101,-393r60,0v-68,128,-91,207,-91,393","w":275},")":{"d":"118,-647v71,133,101,201,101,393v0,184,-31,248,-106,382r-60,0v70,-129,96,-204,96,-382v0,-186,-23,-265,-91,-393r60,0","w":275},"*":{"d":"377,-494r-143,35r-1,6r93,119r-45,32r-80,-124r-7,0r-83,124r-45,-33r94,-118r-3,-6r-144,-36r19,-55r138,52r6,-5r-7,-145r56,0r-8,147r6,4r137,-52","w":390},"+":{"d":"452,-187r-177,0r0,187r-63,0r0,-187r-176,0r0,-55r176,0r0,-182r63,0r0,182r177,0r0,55"},",":{"d":"161,-75r-81,178r-52,0r56,-178r77,0","w":244},"-":{"d":"298,-214r-269,0r0,-58r269,0r0,58","w":327},".":{"d":"161,0r-78,0r0,-83r78,0r0,83","w":244},"\/":{"d":"264,-658r-213,668r-62,0r214,-668r61,0","w":254},"0":{"d":"450,-308v2,179,-32,323,-208,323v-106,0,-163,-53,-186,-141v-17,-61,-19,-106,-19,-182v0,-207,69,-311,206,-311v105,0,164,47,187,132v17,59,20,104,20,179xm112,-308v2,134,2,267,130,267v43,0,74,-13,92,-40v19,-30,32,-53,36,-99v7,-89,10,-195,-6,-277v-13,-67,-47,-104,-121,-106v-92,-3,-118,82,-127,164v-3,26,-4,56,-4,91"},"1":{"d":"325,1r-73,0r0,-528r-115,99r-25,-59r144,-120r69,0r0,608"},"2":{"d":"226,-620v119,1,199,57,197,180v0,50,-30,110,-52,142v-57,85,-169,177,-239,240r305,0r0,58r-375,0r-24,-61r66,-59v0,0,62,-55,85,-77v42,-42,112,-108,139,-163v14,-27,21,-53,21,-76v0,-89,-40,-128,-125,-128v-66,0,-89,20,-147,46r-25,-63v64,-26,122,-39,174,-39"},"3":{"d":"264,-320v83,14,151,62,149,162v-3,122,-89,174,-214,173v-63,0,-117,-8,-164,-24r25,-63v43,14,84,32,142,31v78,0,137,-38,136,-118v-1,-112,-75,-131,-191,-133r0,-54v106,-2,176,-15,176,-114v0,-69,-37,-104,-112,-104v-33,0,-80,15,-140,44r-25,-63v49,-25,105,-37,166,-37v112,0,186,49,186,158v0,87,-57,133,-134,142"},"4":{"d":"467,-168r-96,0r0,168r-73,0r0,-168r-242,0r-26,-60r269,-379r72,0r0,383r96,0r0,56xm298,-224r0,-296r-208,296r208,0"},"5":{"d":"217,-386v139,-17,221,61,221,195v0,129,-88,207,-217,206v-67,0,-122,-7,-167,-22r24,-63v48,19,96,29,144,29v96,1,143,-57,143,-152v1,-84,-38,-138,-116,-139v-33,0,-74,13,-125,39r-55,-22r0,-292r344,0r0,56r-271,0r0,184v26,-7,45,-15,75,-19"},"6":{"d":"255,-398v123,-1,188,83,188,206v0,111,-81,209,-192,207v-165,-3,-206,-131,-206,-298v1,-124,36,-221,105,-285v65,-61,164,-61,262,-35r-24,63v-100,-43,-175,-30,-228,50v-33,49,-47,113,-47,192v23,-52,76,-99,142,-100xm252,-41v76,-1,116,-67,116,-151v0,-101,-38,-151,-115,-151v-61,0,-105,33,-131,100v0,75,11,127,32,157v21,30,54,45,98,45"},"7":{"d":"425,-552r-228,552r-81,0r243,-550r-315,0r0,-57r355,0"},"8":{"d":"436,-464v0,84,-68,125,-133,145v99,31,148,88,148,171v0,109,-70,163,-210,163v-118,0,-204,-43,-204,-163v0,-96,65,-148,146,-172v-61,-29,-124,-57,-125,-143v-2,-107,76,-158,188,-157v118,1,190,41,190,156xm242,-345v52,-11,123,-55,122,-117v-1,-75,-42,-103,-118,-103v-78,0,-117,35,-117,104v-1,63,63,100,113,116xm241,-40v78,0,137,-33,137,-109v0,-67,-45,-115,-134,-143v-72,24,-134,53,-135,143v0,74,54,110,132,109"},"9":{"d":"236,-620v165,3,206,131,206,298v-1,124,-35,221,-104,285v-65,61,-165,61,-263,35r25,-63v100,43,173,29,226,-50v33,-49,48,-113,48,-192v-23,52,-76,99,-142,100v-123,1,-187,-83,-187,-206v0,-110,81,-209,191,-207xm235,-564v-76,1,-116,67,-116,151v0,101,38,151,115,151v61,0,105,-33,131,-100v0,-75,-11,-127,-32,-157v-21,-30,-54,-45,-98,-45"},":":{"d":"161,-369r-78,0r0,-83r78,0r0,83xm161,0r-78,0r0,-83r78,0r0,83","w":244},";":{"d":"158,-369r-78,0r0,-83r78,0r0,83xm161,-75r-81,178r-52,0r52,-178r81,0","w":244},"<":{"d":"452,-21r-417,-168r0,-79r417,-169r0,70r-350,139r350,138r0,69"},"=":{"d":"452,-270r-417,0r0,-58r417,0r0,58xm452,-97r-417,0r0,-58r417,0r0,58"},">":{"d":"452,-189r-417,168r0,-69r350,-140r-350,-137r0,-70r417,169r0,79"},"?":{"d":"308,-503v-1,-72,-34,-96,-107,-97v-41,0,-85,12,-132,35r-18,-62v57,-20,107,-30,150,-30v119,0,179,51,179,154v0,104,-103,126,-146,193v-24,37,-13,91,-16,146r-69,0v2,-61,-6,-123,17,-165v31,-56,90,-78,126,-126v11,-15,16,-31,16,-48xm224,0r-80,0r0,-84r80,0r0,84","w":410},"@":{"d":"82,-320v0,-214,156,-341,368,-338v135,2,234,57,282,152v18,36,27,78,27,124v3,174,-125,257,-297,257v-125,1,-213,-70,-213,-195v0,-109,80,-195,195,-192v32,0,61,5,86,15r0,193r35,-5r20,52r-114,14r0,-213v-91,-22,-155,40,-155,134v0,96,59,147,148,147v151,0,227,-69,227,-206v0,-188,-176,-261,-351,-210v-113,34,-192,122,-191,271v2,190,115,286,300,286v69,0,140,-12,212,-36r24,55v-70,21,-150,32,-239,32v-217,2,-364,-122,-364,-337","w":841},"A":{"d":"600,0r-82,0r-69,-193r-266,0r-73,193r-77,0r263,-647r60,0xm430,-248r-108,-307r-118,307r226,0","w":632},"B":{"d":"492,-478v0,71,-47,120,-103,139v89,18,133,70,133,155v1,138,-81,184,-215,184r-209,0r0,-647r176,0v136,2,218,34,218,169xm288,-361v75,0,130,-39,129,-116v-1,-93,-46,-113,-143,-113r-103,0r0,229r117,0xm301,-57v97,-2,145,-27,145,-127v1,-96,-61,-121,-156,-121r-119,0r0,248r130,0","w":580},"C":{"d":"63,-323v0,-199,76,-334,276,-335v55,0,108,8,157,24r-25,64v-48,-21,-92,-31,-132,-31v-133,0,-200,92,-200,277v0,189,65,284,194,284v37,0,86,-12,145,-36r25,64v-55,19,-112,29,-170,29v-196,1,-270,-140,-270,-340","w":543},"D":{"d":"256,-647v230,3,309,88,309,321v0,231,-82,324,-309,326r-158,0r0,-647r158,0xm265,-57v164,-2,224,-94,224,-268v0,-191,-51,-262,-233,-265r-85,0r0,533r94,0","w":628},"E":{"d":"465,0r-367,0r0,-647r358,0r0,57r-285,0r0,227r264,0r0,57r-264,0r0,249r294,0r0,57","w":536},"F":{"d":"456,-589r-285,0r0,230r273,0r0,56r-273,0r0,303r-73,0r0,-647r358,0r0,58","w":512},"G":{"d":"139,-324v0,162,41,281,199,284v38,0,81,-13,129,-40r0,-182r-143,0r0,-58r209,0r0,281v-70,34,-106,56,-198,56v-181,0,-272,-114,-272,-341v1,-202,82,-335,281,-334v38,0,88,8,149,24r-25,64v-47,-21,-88,-31,-123,-31v-155,3,-206,107,-206,277","w":596},"H":{"d":"549,0r-73,0r0,-305r-305,0r0,305r-73,0r0,-647r73,0r0,284r305,0r0,-284r73,0r0,647","w":647},"I":{"d":"159,0r-73,0r0,-647r73,0r0,647","w":245},"J":{"d":"300,-204v-3,111,-40,183,-118,221v-55,27,-80,32,-144,47r-20,-64r57,-11v38,-8,81,-23,105,-47v30,-29,47,-75,47,-136r0,-453r73,0r0,443","w":398},"K":{"d":"573,0r-96,0r-306,-312r0,312r-73,0r0,-647r73,0r0,294r287,-294r80,0r-298,307","w":589},"L":{"d":"467,0r-369,0r0,-647r73,0r0,587r296,0r0,60","w":475},"M":{"d":"740,0r-71,0r0,-568r-221,568r-60,0r-223,-568r0,568r-67,0r0,-647r112,0r211,545r213,-545r106,0r0,647","w":838},"N":{"d":"576,0r-106,0r-305,-561r0,561r-67,0r0,-647r104,0r303,561r0,-561r71,0r0,647","w":674},"O":{"d":"343,-658v204,0,275,133,274,337v-1,200,-76,339,-275,338v-205,-1,-279,-131,-279,-338v0,-204,81,-337,280,-337xm342,-40v159,0,199,-114,199,-281v0,-169,-40,-280,-199,-280v-159,0,-203,112,-203,280v0,169,43,281,203,281","w":680},"P":{"d":"285,-647v135,1,216,50,216,184v0,127,-68,190,-205,190r-125,0r0,273r-73,0r0,-647r187,0xm288,-330v95,-1,138,-35,138,-133v0,-99,-46,-127,-143,-127r-112,0r0,260r117,0","w":555},"Q":{"d":"343,-658v204,1,275,133,274,337v-1,200,-76,339,-275,338v-205,-1,-280,-131,-279,-338v1,-200,79,-338,280,-337xm556,57r-26,57r-213,-31r27,-44xm342,-40v159,0,199,-114,199,-281v0,-169,-40,-280,-199,-280v-159,0,-203,112,-203,280v0,169,43,281,203,281","w":680},"R":{"d":"300,-647v118,1,206,51,206,174v0,116,-61,177,-182,182r218,291r-90,0r-213,-289r-68,0r0,289r-73,0r0,-647r202,0xm431,-473v0,-78,-47,-117,-126,-117r-134,0r0,244r135,0v83,0,125,-42,125,-127","w":587},"S":{"d":"295,-601v-87,0,-151,31,-152,112v0,29,11,50,31,67v42,35,197,81,229,106v48,37,75,84,75,148v0,123,-79,185,-236,185v-45,0,-103,-10,-174,-29r25,-64v64,24,114,36,150,36v106,0,179,-57,155,-164v-4,-21,-30,-44,-44,-54v-98,-68,-286,-63,-286,-231v0,-177,236,-197,388,-143r-25,64v-51,-22,-96,-33,-136,-33","w":549},"T":{"d":"482,-589r-192,0r0,589r-73,0r0,-589r-191,0r0,-58r456,0r0,58","w":508},"U":{"d":"346,-40v127,0,160,-70,161,-209r0,-398r73,0r0,410v0,168,-70,254,-234,254v-175,0,-248,-81,-248,-256r0,-408r73,0r0,398v1,149,38,209,175,209","w":678},"V":{"d":"575,-647r-236,647r-64,0r-245,-647r81,0r198,548r188,-548r78,0","w":604},"W":{"d":"843,-647r-172,647r-85,0r-146,-514r-154,514r-87,0r-163,-647r77,0r138,550r152,-523r85,0r143,524r142,-551r70,0","w":879},"X":{"d":"541,0r-89,0r-165,-278r-176,278r-79,0r216,-334r-189,-313r85,0r148,249r156,-249r79,0r-198,307","w":579},"Y":{"d":"546,-647r-225,356r0,291r-73,0r0,-287r-232,-360r83,0r189,292r181,-292r77,0","w":562},"Z":{"d":"494,-585r-370,527r362,0r0,58r-418,0r-23,-62r369,-527r-332,0r0,-58r388,0","w":539},"[":{"d":"226,127r-142,0r0,-803r142,0r0,50r-79,0r0,700r79,0r0,53","w":272},"\\":{"d":"264,10r-62,0r-213,-668r62,0","w":254},"]":{"d":"192,126r-142,0r0,-53r79,0r0,-701r-79,0r0,-49r142,0r0,803","w":272},"^":{"d":"454,-269r-69,0r-142,-299r-142,299r-66,0r181,-378r53,0"},"_":{"d":"501,102r-502,0r0,-51r502,0r0,51","w":500},"`":{"d":"189,-530r-52,0r-118,-117r74,0","w":208},"a":{"d":"246,-468v96,0,156,50,156,147v0,144,-7,156,14,321r-58,0r-17,-54v-24,34,-72,66,-128,65v-93,0,-167,-40,-166,-131v0,-51,19,-88,54,-117v39,-32,137,-44,235,-41r0,-35v0,-69,-30,-104,-91,-104v-49,0,-101,13,-156,40r-23,-56v62,-23,122,-35,180,-35xm116,-122v0,55,45,83,104,82v55,0,94,-20,117,-61r0,-128v-123,1,-221,1,-221,107","w":479},"b":{"d":"268,-468v127,0,176,108,176,237v0,134,-60,244,-193,242v-51,0,-90,-22,-119,-65r-14,54r-57,0v6,-57,9,-104,9,-140r0,-517r65,0r0,268v21,-36,77,-79,133,-79xm376,-229v0,-65,-10,-113,-32,-143v-22,-30,-51,-45,-88,-45v-51,0,-92,33,-123,98r0,209v27,47,64,70,112,70v87,0,131,-63,131,-189","w":491},"c":{"d":"47,-225v0,-147,60,-243,205,-243v43,0,90,10,141,30r-23,55v-45,-23,-85,-34,-119,-34v-91,0,-136,64,-136,192v0,123,45,185,135,185v37,0,78,-11,122,-34r23,55v-26,14,-107,30,-146,30v-139,1,-202,-95,-202,-236","w":433},"d":{"d":"230,-468v59,0,103,40,126,77r0,-266r65,0r0,517v0,30,3,77,10,140r-57,0r-15,-54v-29,43,-68,65,-119,65v-138,2,-192,-104,-193,-242v-1,-124,63,-237,183,-237xm239,-417v-87,0,-124,82,-124,188v0,126,44,189,131,189v48,0,85,-23,112,-70r0,-209v-22,-48,-50,-98,-119,-98","w":491},"e":{"d":"242,11v-161,0,-221,-160,-186,-319v19,-88,73,-161,182,-160v152,0,192,105,194,262r-315,0v3,111,48,167,133,167v46,0,93,-13,142,-39r20,54v-49,23,-106,35,-170,35xm367,-257v-3,-100,-34,-160,-128,-160v-83,0,-119,70,-123,160r251,0","w":481},"f":{"d":"279,-614v-73,4,-128,34,-130,103r0,54r104,0r0,51r-104,0r0,406r-65,0r0,-406r-69,0r0,-51r69,0v-4,-77,5,-127,54,-165v36,-29,78,-45,124,-48","w":279},"g":{"d":"247,-126v-25,0,-81,-11,-96,-21v-13,15,-37,43,-15,65v27,18,73,24,127,29v78,7,131,20,159,39v28,19,41,47,41,82v-1,95,-106,130,-210,130v-77,0,-132,-10,-165,-32v-33,-22,-49,-53,-49,-94v0,-48,52,-86,90,-95v-76,-32,-81,-101,-17,-151v-33,-38,-50,-80,-50,-125v0,-103,70,-168,183,-169v29,0,54,4,76,12v87,-7,134,-11,141,-11r-20,50r-65,0v26,21,55,68,54,116v-1,102,-70,175,-184,175xm248,-177v76,0,114,-53,115,-123v0,-75,-41,-117,-116,-117v-74,0,-117,49,-117,120v0,74,42,120,118,120xm180,-4v-37,7,-73,38,-73,75v0,24,12,43,37,57v25,14,61,20,109,20v95,0,142,-27,142,-80v0,-20,-15,-36,-47,-46v-32,-10,-88,-19,-168,-26","w":496},"h":{"d":"135,-389v21,-37,71,-79,129,-79v103,0,155,58,155,175r0,293r-65,0r0,-280v-2,-85,-16,-136,-100,-137v-58,-1,-104,54,-119,97r0,320r-65,0r0,-657r65,0r0,268","w":489},"i":{"d":"140,-569r-72,0r0,-78r72,0r0,78xm137,0r-65,0r0,-457r65,0r0,457","w":208},"j":{"d":"136,-569r-73,0r0,-78r73,0r0,78xm-26,103v63,-15,93,-31,93,-100r0,-460r65,0r0,451v-2,100,-53,140,-137,165","w":204},"k":{"d":"426,0r-79,0r-212,-239r0,239r-65,0r0,-657r65,0r0,388r194,-188r73,0r-207,198","w":441},"l":{"d":"135,0r-65,0r0,-657r65,0r0,657","w":205},"m":{"d":"542,-468v112,1,158,59,158,176r0,292r-65,0r0,-290v-1,-77,-21,-128,-100,-127v-58,0,-105,56,-120,102r0,315r-65,0r0,-290v0,-85,-33,-127,-99,-127v-53,0,-102,55,-116,96r0,321r-65,0r0,-352v0,-2,-3,-37,-9,-105r57,0r15,68v24,-34,72,-80,128,-79v81,0,113,34,140,91v27,-43,75,-91,141,-91","w":770},"n":{"d":"262,-468v116,-2,157,66,157,180r0,288r-65,0r0,-284v1,-80,-21,-133,-101,-133v-58,0,-102,54,-118,97r0,320r-65,0r0,-360v0,-26,-6,-69,-9,-97r57,0r14,68v31,-39,63,-78,130,-79","w":489},"o":{"d":"47,-231v0,-138,60,-237,202,-237v134,0,201,79,201,237v0,142,-56,242,-201,242v-145,0,-202,-99,-202,-242xm249,-40v106,-1,133,-79,133,-191v0,-111,-27,-185,-133,-186v-89,0,-134,62,-134,186v0,127,45,191,134,191","w":497},"p":{"d":"261,-468v135,-1,182,106,183,242v0,129,-58,238,-184,237v-53,0,-94,-21,-125,-63r0,232r-65,0r0,-500v0,-43,-3,-88,-9,-137r57,0r16,69v24,-36,71,-80,127,-80xm256,-40v89,0,120,-80,120,-188v0,-126,-43,-189,-128,-189v-55,0,-98,53,-114,97r0,211v26,41,59,69,122,69","w":491},"q":{"d":"234,-468v57,0,99,43,123,80r17,-69r57,0v-7,55,-10,100,-10,137r0,500r-65,0r0,-232v-31,42,-72,63,-125,63v-128,1,-184,-107,-184,-237v0,-133,55,-244,187,-242xm236,-40v63,0,95,-28,121,-69r0,-211v-16,-44,-57,-97,-113,-97v-96,0,-129,83,-129,189v0,64,11,111,33,142v22,31,51,46,88,46","w":491},"r":{"d":"330,-446r-23,55v-26,-22,-69,-37,-102,-17v-35,21,-53,73,-70,111r0,297r-65,0r0,-355v0,-37,-4,-70,-9,-102r57,0r14,93v36,-69,75,-104,116,-104v31,0,59,7,82,22","w":343},"s":{"d":"45,-339v-2,-91,78,-129,168,-129v39,0,86,10,142,31r-23,55v-36,-15,-66,-36,-118,-35v-67,0,-100,25,-100,75v0,18,8,32,24,42v52,31,156,44,198,88v17,18,34,52,34,89v0,90,-79,134,-170,134v-61,0,-113,-10,-157,-29r23,-55v58,22,69,32,136,33v59,1,99,-26,99,-82v0,-58,-62,-68,-107,-83v-46,-16,-63,-21,-100,-43v-31,-19,-48,-46,-49,-91","w":415},"t":{"d":"149,-110v2,78,47,98,123,110r-21,59v-96,-18,-167,-69,-167,-170r0,-295r-69,0r0,-51r69,0r0,-117r65,0r0,117r105,0r0,51r-105,0r0,296","w":254},"u":{"d":"412,-97v-1,22,9,80,10,97r-57,0r-15,-68v-28,37,-62,79,-126,79v-103,0,-154,-60,-154,-180r0,-288r65,0r0,284v-3,82,21,131,98,133v59,1,96,-53,114,-97r0,-320r65,0r0,360","w":483},"v":{"d":"450,-457r-176,457r-57,0r-177,-457r70,0r138,372r135,-372r67,0","w":489},"w":{"d":"674,-457r-156,457r-65,0r-98,-322r-106,322r-67,0r-144,-457r69,0r114,374r107,-330r60,0r100,328r121,-372r65,0","w":712},"x":{"d":"425,0r-79,0r-121,-186r-129,186r-71,0r164,-231r-153,-226r78,0r115,175r119,-175r69,0r-155,219","w":450},"y":{"d":"446,-457r-191,530v-29,77,-59,107,-139,136r-21,-57v47,-13,77,-34,88,-65r40,-106r-183,-438r70,0r146,363r124,-363r66,0","w":486},"z":{"d":"373,-402r-262,351r250,0r0,51r-301,0r-23,-55r263,-351r-239,0r0,-51r289,0","w":410},"{":{"d":"303,118v-79,-1,-135,-36,-153,-92v-14,-46,-25,-113,-28,-168v-3,-50,-25,-93,-74,-96r0,-55v101,-9,64,-153,92,-239v23,-71,72,-112,163,-115r0,54v-71,-2,-109,40,-116,99v-11,91,-3,199,-77,230v41,14,64,59,68,108v3,47,9,104,18,146v9,45,49,75,107,74r0,54","w":357},"|":{"d":"151,166r-59,0r0,-868r59,0r0,868","w":244},"}":{"d":"309,-238v-49,3,-71,47,-74,96v-3,55,-13,122,-27,168v-18,56,-75,91,-154,92r0,-54v58,1,96,-29,106,-74v9,-42,15,-99,18,-146v4,-49,28,-94,69,-108v-72,-30,-67,-138,-77,-230v-7,-59,-45,-101,-116,-99r0,-54v116,2,165,71,175,179v7,76,0,170,80,175r0,55","w":357},"~":{"d":"26,-185v-1,-66,49,-106,116,-105v29,0,64,12,107,38v43,26,72,39,87,39v47,0,70,-24,70,-71r56,28v2,92,-110,130,-191,86v-37,-20,-81,-59,-122,-59v-45,0,-67,24,-67,72"},"\u00a0":{"w":244},"\u00a1":{"d":"162,-563r-80,0r0,-84r80,0r0,84xm155,0r-65,0r0,-477r65,0r0,477","w":244},"\u00a2":{"d":"216,9v-115,-13,-169,-104,-169,-234v0,-147,56,-227,169,-241r0,-92r57,0r0,91v33,3,69,13,110,29r-23,55v-29,-15,-58,-25,-87,-30r0,370v29,-4,58,-14,89,-31r23,55v-28,13,-65,23,-112,28r0,90r-57,0r0,-90xm216,-45r0,-368v-67,13,-101,76,-101,188v0,107,34,167,101,180","w":423},"\u00a3":{"d":"463,0r-412,0r0,-60r68,0r0,-271r-72,0r0,-55r72,0v-2,-95,17,-165,67,-210v49,-43,118,-62,195,-75r20,64v-59,9,-99,17,-119,25v-68,27,-95,95,-90,196r174,0r0,55r-174,0r0,271r271,0r0,60"},"\u00a4":{"d":"94,-292r-1,-31v0,-17,0,-30,1,-39r-94,0r17,-58r83,0v25,-159,109,-238,253,-238v53,0,105,9,158,27r-19,64v-90,-44,-202,-52,-261,14v-27,32,-46,76,-55,133r277,0r-18,58r-265,0v-1,16,-1,50,0,70r246,0r-17,57r-224,0v16,111,53,195,172,195v56,0,102,-23,143,-39r0,73v-51,15,-98,23,-143,23v-143,0,-225,-84,-248,-252r-99,0r17,-57r77,0"},"\u00a5":{"d":"481,-647r-186,337r135,0r0,55r-146,0r0,71r146,0r0,55r-146,0r0,129r-73,0r0,-129r-145,0r0,-55r145,0r0,-71r-145,0r0,-55r132,0r-192,-337r82,0r162,290r156,-290r75,0"},"\u00a6":{"d":"153,-359r-63,0r0,-234r63,0r0,234xm153,78r-63,0r0,-234r63,0r0,234","w":244},"\u00a7":{"d":"353,-570v-37,-20,-57,-35,-108,-35v-67,0,-100,24,-100,73v0,43,50,57,89,68v77,22,163,49,164,147v0,47,-22,81,-67,101v33,22,49,55,49,98v2,90,-77,134,-168,134v-53,0,-102,-10,-147,-29r24,-58v35,15,73,34,125,34v64,0,96,-27,96,-80v0,-77,-100,-81,-162,-105v-45,-17,-90,-49,-89,-109v0,-53,23,-89,68,-109v-35,-21,-52,-50,-52,-89v-2,-92,78,-129,169,-129v39,0,83,10,132,31xm270,-248v50,-15,69,-52,52,-99v-5,-15,-37,-31,-50,-37v-6,-4,-71,-23,-78,-25v-43,7,-65,33,-65,76v-1,38,35,50,63,59","w":457},"\u00a8":{"d":"212,-574r-65,0r0,-73r65,0r0,73xm61,-574r-65,0r0,-73r65,0r0,73","w":280},"\u00a9":{"d":"360,-658v186,0,335,149,335,334v0,184,-152,334,-335,334v-183,0,-335,-151,-335,-334v0,-184,152,-334,335,-334xm360,-33v155,0,286,-137,286,-291v0,-157,-130,-291,-286,-291v-158,0,-286,134,-286,291v0,154,132,291,286,291xm186,-322v1,-119,51,-203,173,-201v33,0,67,5,100,16r-16,43v-33,-13,-61,-20,-84,-20v-82,0,-123,54,-123,161v0,111,40,166,120,166v23,0,53,-8,92,-23r15,43v-38,13,-74,19,-107,19v-119,1,-170,-84,-170,-204","w":720},"\u00aa":{"d":"142,-629v79,-29,206,-36,207,61v1,79,-5,89,9,177r-41,0r-10,-29v-38,58,-179,44,-176,-37v3,-80,76,-91,173,-89v2,-45,-8,-68,-54,-68v-32,0,-63,7,-94,21xm305,-513v-69,1,-126,-4,-128,55v0,27,19,40,58,40v31,0,54,-13,70,-38r0,-57"},"\u00ab":{"d":"333,-452r-97,180r96,180r-63,0r-93,-178r93,-182r64,0xm190,-452r-97,180r96,180r-63,0r-93,-178r93,-182r64,0","w":364},"\u00ac":{"d":"462,-108r-63,0r0,-178r-379,0r0,-55r442,0r0,233"},"\u00ad":{"d":"298,-214r-269,0r0,-58r269,0r0,58","w":327},"\u00ae":{"d":"360,-658v186,0,335,149,335,334v0,184,-152,334,-335,334v-183,0,-335,-151,-335,-334v0,-184,152,-334,335,-334xm360,-33v155,0,286,-137,286,-291v0,-157,-130,-291,-286,-291v-158,0,-286,134,-286,291v0,154,132,291,286,291xm493,-413v-2,68,-42,109,-116,111r138,173r-59,0r-135,-173r-37,0r0,173r-48,0r0,-389r127,0v73,0,132,31,130,105xm443,-413v0,-44,-26,-66,-77,-66r-82,0r0,139r83,0v51,0,76,-24,76,-73","w":720},"\u00af":{"d":"220,-566r-232,0r0,-59r232,0r0,59","w":208},"\u00b0":{"d":"195,-614v80,0,147,66,147,146v0,81,-69,142,-148,142v-80,0,-146,-61,-146,-142v0,-80,67,-146,147,-146xm194,-377v48,0,93,-43,93,-91v0,-53,-39,-95,-92,-95v-53,0,-92,42,-92,95v0,47,44,91,91,91","w":390},"\u00b1":{"d":"452,-247r-177,0r0,127r-63,0r0,-127r-176,0r0,-55r176,0r0,-122r63,0r0,122r177,0r0,55xm452,-1r-417,0r0,-58r417,0r0,58"},"\u00b2":{"d":"55,-636v93,-41,229,-30,229,79v0,61,-52,102,-88,131r-88,71r179,0r0,38r-227,0r-14,-36v56,-50,118,-87,164,-149v16,-21,24,-40,24,-55v0,-50,-25,-63,-76,-64v-26,0,-56,8,-89,25","w":332},"\u00b3":{"d":"274,-571v0,50,-36,73,-81,78v60,9,90,38,90,89v0,104,-147,107,-233,82r14,-40v33,11,61,17,86,17v55,0,83,-20,83,-59v-1,-63,-48,-69,-116,-71r0,-35v62,-2,107,-4,107,-60v0,-44,-25,-50,-69,-51v-20,0,-48,8,-84,24r-14,-40v75,-37,217,-32,217,66","w":332},"\u00b4":{"d":"189,-647r-118,117r-52,0r96,-117r74,0","w":208},"\u00b5":{"d":"236,-40v60,0,94,-60,113,-107r0,-310r66,0r0,360v0,26,6,69,9,97r-57,0r-15,-68v-27,35,-60,79,-124,79v-39,0,-69,-10,-90,-31r0,200r-66,0r0,-637r66,0r0,284v-3,82,21,133,98,133"},"\u00b6":{"d":"80,-477v0,-114,68,-170,185,-170r219,0r0,835r-63,0r0,-780r-101,0v-67,0,-108,44,-108,116v0,59,50,100,98,112r0,552r-63,0r0,-499v-105,-5,-167,-70,-167,-166","w":540},"\u00b7":{"d":"164,-240r-84,0r0,-87r84,0r0,87","w":244},"\u00b8":{"d":"124,30v41,-2,71,29,72,65v0,57,-43,89,-102,88v-22,0,-52,-3,-91,-8r18,-51v37,5,60,7,68,7v24,0,50,-10,48,-34v-3,-35,-29,-31,-80,-33r21,-79r56,0","w":208},"\u00b9":{"d":"211,-313r-50,0r0,-284r-67,54r-15,-38r86,-66r46,0r0,334","w":332},"\u00ba":{"d":"122,-527v0,-78,40,-131,123,-131v81,0,121,44,121,131v0,89,-40,133,-121,133v-84,0,-123,-52,-123,-133xm321,-527v-1,-61,-17,-96,-76,-97v-52,0,-78,32,-78,97v0,66,26,99,78,99v51,0,76,-33,76,-99"},"\u00bb":{"d":"331,-270r-93,178r-63,0r96,-180r-97,-180r64,0xm188,-270r-93,178r-63,0r96,-180r-97,-180r64,0","w":364},"\u00bc":{"d":"633,-89r-53,0r0,89r-49,0r0,-89r-145,0r-16,-37r162,-208r48,0r0,208r53,0r0,37xm541,-629r-366,629r-60,0r363,-629r63,0xm196,-313r-49,0r0,-284r-68,54r-14,-38r85,-66r46,0r0,334xm531,-126r0,-154r-119,154r119,0","w":738},"\u00bd":{"d":"434,-320v91,-39,231,-30,229,80v-1,61,-54,100,-87,132v-17,16,-73,57,-88,70r178,0r0,38r-226,0r-15,-39v57,-49,118,-86,165,-147v16,-21,24,-39,24,-54v0,-50,-25,-63,-76,-64v-27,0,-57,8,-90,25xm539,-629r-362,629r-64,0r362,-629r64,0xm195,-313r-50,0r0,-284r-67,54r-15,-38r86,-66r46,0r0,334","w":738},"\u00be":{"d":"656,-89r-53,0r0,89r-49,0r0,-89r-145,0r-16,-37r162,-208r48,0r0,208r53,0r0,37xm568,-629r-363,629r-62,0r362,-629r63,0xm53,-637v75,-36,217,-33,217,66v0,46,-27,72,-80,78v59,9,89,38,89,89v0,104,-147,107,-233,82r15,-40v33,11,61,17,86,17v55,0,82,-20,82,-59v-1,-63,-47,-69,-115,-71r0,-35v62,-2,105,-4,106,-60v1,-43,-25,-50,-68,-51v-20,0,-48,8,-84,24xm554,-126r0,-154r-119,154r119,0","w":738},"\u00bf":{"d":"286,-563r-79,0r0,-84r79,0r0,84xm123,-144v1,72,34,96,107,97v41,0,85,-12,132,-35r18,62v-57,20,-107,30,-150,30v-119,0,-179,-51,-179,-154v0,-104,102,-125,145,-192v24,-37,14,-92,17,-147r68,0v-2,61,6,123,-17,165v-31,56,-88,78,-124,126v-11,15,-17,31,-17,48","w":410},"\u00c0":{"d":"600,0r-82,0r-69,-193r-266,0r-73,193r-77,0r263,-647r60,0xm430,-248r-108,-307r-118,307r226,0xm415,-684r-52,0r-118,-117r77,0","w":632},"\u00c1":{"d":"600,0r-82,0r-69,-193r-266,0r-73,193r-77,0r263,-647r60,0xm430,-248r-108,-307r-118,307r226,0xm409,-799r-118,117r-52,0r96,-117r74,0","w":632},"\u00c2":{"d":"600,0r-82,0r-69,-193r-266,0r-73,193r-77,0r263,-647r60,0xm430,-248r-108,-307r-118,307r226,0xm440,-699r-54,0r-62,-70r-64,70r-54,0r89,-110r58,0","w":632},"\u00c3":{"d":"600,0r-82,0r-69,-193r-266,0r-73,193r-77,0r263,-647r60,0xm430,-248r-108,-307r-118,307r226,0xm282,-771v20,-1,76,37,93,37v20,0,35,-14,44,-41r44,20v-15,44,-44,66,-86,66v-22,0,-77,-39,-96,-39v-21,0,-37,14,-46,43r-44,-19v20,-45,35,-63,91,-67","w":632},"\u00c4":{"d":"600,0r-82,0r-69,-193r-266,0r-73,193r-77,0r263,-647r60,0xm430,-248r-108,-307r-118,307r226,0xm432,-689r-65,0r0,-73r65,0r0,73xm281,-689r-65,0r0,-73r65,0r0,73","w":632},"\u00c5":{"d":"600,0r-82,0r-69,-193r-266,0r-73,193r-77,0r263,-647r60,0xm430,-248r-108,-307r-118,307r226,0xm336,-835v46,0,83,36,83,82v0,45,-38,82,-83,82v-44,0,-83,-38,-83,-82v0,-45,38,-82,83,-82xm336,-705v29,0,48,-22,48,-49v0,-28,-19,-49,-48,-49v-27,0,-49,24,-49,49v0,24,23,49,49,49","w":632},"\u00c6":{"d":"829,0r-317,0r-33,-193r-257,0r-107,193r-82,0r367,-647r420,0r0,57r-340,0r41,227r278,0r0,57r-267,0r45,249r252,0r0,57xm469,-248r-52,-304r-166,304r218,0","w":900},"\u00c7":{"d":"63,-323v0,-199,76,-334,276,-335v55,0,108,8,157,24r-25,64v-48,-21,-92,-31,-132,-31v-133,0,-200,92,-200,277v0,189,65,284,194,284v37,0,86,-12,145,-36r25,64v-53,19,-105,28,-155,29r-2,13v41,-2,72,29,73,65v0,57,-43,89,-103,88v-22,0,-52,-3,-91,-8r17,-52v43,5,66,8,69,8v24,0,50,-10,48,-34v-3,-35,-29,-31,-80,-33r13,-50v-153,-17,-229,-129,-229,-337","w":543},"\u00c8":{"d":"465,0r-367,0r0,-647r358,0r0,57r-285,0r0,227r264,0r0,57r-264,0r0,249r294,0r0,57xm349,-685r-52,0r-118,-117r74,0","w":536},"\u00c9":{"d":"465,0r-367,0r0,-647r358,0r0,57r-285,0r0,227r264,0r0,57r-264,0r0,249r294,0r0,57xm377,-794r-118,117r-52,0r96,-117r74,0","w":536},"\u00ca":{"d":"465,0r-367,0r0,-647r358,0r0,57r-285,0r0,227r264,0r0,57r-264,0r0,249r294,0r0,57xm396,-689r-54,0r-62,-70r-64,70r-54,0r89,-110r58,0","w":536},"\u00cb":{"d":"465,0r-367,0r0,-647r358,0r0,57r-285,0r0,227r264,0r0,57r-264,0r0,249r294,0r0,57xm389,-689r-65,0r0,-73r65,0r0,73xm238,-689r-65,0r0,-73r65,0r0,73","w":536},"\u00cc":{"d":"161,0r-73,0r0,-647r73,0r0,647xm200,-692r-52,0r-118,-117r58,0","w":245},"\u00cd":{"d":"159,0r-73,0r0,-647r73,0r0,647xm211,-809r-118,117r-52,0r96,-117r74,0","w":245},"\u00ce":{"d":"159,0r-73,0r0,-647r73,0r0,647xm240,-697r-54,0r-62,-70r-64,70r-54,0r89,-110r58,0","w":245},"\u00cf":{"d":"160,0r-73,0r0,-647r73,0r0,647xm231,-703r-65,0r0,-73r65,0r0,73xm80,-703r-65,0r0,-73r65,0r0,73","w":245},"\u00d0":{"d":"256,-647v230,3,309,88,309,321v0,231,-82,324,-309,326r-158,0r0,-339r-69,0r0,-54r69,0r0,-254r158,0xm265,-57v164,-2,224,-94,224,-268v0,-191,-51,-262,-233,-265r-85,0r0,197r150,0r0,54r-150,0r0,282r94,0","w":628},"\u00d1":{"d":"576,0r-106,0r-305,-561r0,561r-67,0r0,-647r104,0r303,561r0,-561r71,0r0,647xm281,-769v20,-1,76,37,93,37v20,0,35,-14,44,-41r44,20v-15,44,-44,66,-86,66v-22,0,-77,-39,-96,-39v-21,0,-37,14,-46,43r-44,-19v20,-45,35,-63,91,-67","w":674},"\u00d2":{"d":"343,-658v204,0,275,133,274,337v-1,200,-76,339,-275,338v-205,-1,-279,-131,-279,-338v0,-204,81,-337,280,-337xm342,-40v159,0,199,-114,199,-281v0,-169,-40,-280,-199,-280v-159,0,-203,112,-203,280v0,169,43,281,203,281xm398,-685r-52,0r-118,-117r74,0","w":680},"\u00d3":{"d":"343,-658v204,0,275,133,274,337v-1,200,-76,339,-275,338v-205,-1,-279,-131,-279,-338v0,-204,81,-337,280,-337xm342,-40v159,0,199,-114,199,-281v0,-169,-40,-280,-199,-280v-159,0,-203,112,-203,280v0,169,43,281,203,281xm451,-799r-118,117r-52,0r96,-117r74,0","w":680},"\u00d4":{"d":"343,-658v204,0,275,133,274,337v-1,200,-76,339,-275,338v-205,-1,-279,-131,-279,-338v0,-204,81,-337,280,-337xm342,-40v159,0,199,-114,199,-281v0,-169,-40,-280,-199,-280v-159,0,-203,112,-203,280v0,169,43,281,203,281xm458,-689r-54,0r-62,-70r-64,70r-54,0r89,-110r58,0","w":680},"\u00d5":{"d":"343,-658v204,0,275,133,274,337v-1,200,-76,339,-275,338v-205,-1,-279,-131,-279,-338v0,-204,81,-337,280,-337xm342,-40v159,0,199,-114,199,-281v0,-169,-40,-280,-199,-280v-159,0,-203,112,-203,280v0,169,43,281,203,281xm296,-769v20,-1,76,37,93,37v20,0,35,-14,44,-41r44,20v-15,44,-44,66,-86,66v-22,0,-77,-39,-96,-39v-21,0,-37,14,-46,43r-44,-19v20,-45,35,-63,91,-67","w":680},"\u00d6":{"d":"343,-658v204,0,275,133,274,337v-1,200,-76,339,-275,338v-205,-1,-279,-131,-279,-338v0,-204,81,-337,280,-337xm342,-40v159,0,199,-114,199,-281v0,-169,-40,-280,-199,-280v-159,0,-203,112,-203,280v0,169,43,281,203,281xm449,-689r-65,0r0,-73r65,0r0,73xm298,-689r-65,0r0,-73r65,0r0,73","w":680},"\u00d7":{"d":"440,-74r-44,44r-151,-152r-152,152r-44,-44r152,-152r-152,-151r44,-44r152,152r151,-152r44,44r-152,151"},"\u00d8":{"d":"63,-321v-1,-204,81,-337,280,-337v77,0,138,20,182,60r79,-92r48,44r-83,98v32,54,48,130,48,227v-1,200,-76,339,-275,338v-85,0,-149,-23,-194,-70r-84,99r-48,-45r90,-106v-29,-53,-43,-125,-43,-216xm342,-601v-159,2,-201,112,-203,280v0,65,7,116,20,154r323,-380v-33,-36,-79,-54,-140,-54xm342,-40v159,-1,197,-114,199,-281v0,-69,-8,-124,-25,-165r-324,381v33,43,83,65,150,65","w":680},"\u00d9":{"d":"346,-40v127,0,160,-70,161,-209r0,-398r73,0r0,410v0,168,-70,254,-234,254v-175,0,-248,-81,-248,-256r0,-408r73,0r0,398v1,149,38,209,175,209xm405,-685r-52,0r-118,-117r74,0","w":678},"\u00da":{"d":"346,-40v127,0,160,-70,161,-209r0,-398r73,0r0,410v0,168,-70,254,-234,254v-175,0,-248,-81,-248,-256r0,-408r73,0r0,398v1,149,38,209,175,209xm440,-796r-118,117r-52,0r96,-117r74,0","w":678},"\u00db":{"d":"346,-40v127,0,160,-70,161,-209r0,-398r73,0r0,410v0,168,-70,254,-234,254v-175,0,-248,-81,-248,-256r0,-408r73,0r0,398v1,149,38,209,175,209xm454,-689r-54,0r-62,-70r-64,70r-54,0r89,-110r58,0","w":678},"\u00dc":{"d":"346,-40v127,0,160,-70,161,-209r0,-398r73,0r0,410v0,168,-70,254,-234,254v-175,0,-248,-81,-248,-256r0,-408r73,0r0,398v1,149,38,209,175,209xm452,-689r-65,0r0,-73r65,0r0,73xm301,-689r-65,0r0,-73r65,0r0,73","w":678},"\u00dd":{"d":"546,-647r-225,356r0,291r-73,0r0,-287r-232,-360r83,0r189,292r181,-292r77,0xm376,-809r-118,117r-52,0r96,-117r74,0","w":562},"\u00de":{"d":"285,-511v135,1,216,50,216,184v0,127,-68,190,-205,190r-125,0r0,137r-73,0r0,-647r73,0r0,136r114,0xm288,-194v95,-1,138,-35,138,-133v0,-99,-46,-127,-143,-127r-112,0r0,260r117,0","w":555},"\u00df":{"d":"225,-657v103,-2,184,71,154,181v-17,62,-69,93,-119,125v51,21,88,41,110,58v50,39,75,91,75,155v0,130,-81,195,-243,195r21,-56v105,0,157,-47,157,-141v0,-109,-89,-152,-176,-179r0,-53v40,-26,78,-51,102,-94v8,-15,12,-33,12,-50v3,-56,-43,-90,-93,-90v-75,0,-90,40,-90,124r0,482r-65,0r0,-471v1,-122,39,-185,155,-186","w":494},"\u00e0":{"d":"246,-468v96,0,156,50,156,147v0,144,-7,156,14,321r-58,0r-17,-54v-24,34,-72,66,-128,65v-93,0,-167,-40,-166,-131v0,-51,19,-88,54,-117v39,-32,137,-44,235,-41r0,-35v0,-69,-30,-104,-91,-104v-49,0,-101,13,-156,40r-23,-56v62,-23,122,-35,180,-35xm116,-122v0,55,45,83,104,82v55,0,94,-20,117,-61r0,-128v-123,1,-221,1,-221,107xm278,-530r-52,0r-118,-117r74,0","w":479},"\u00e1":{"d":"246,-468v96,0,156,50,156,147v0,144,-7,156,14,321r-58,0r-17,-54v-24,34,-72,66,-128,65v-93,0,-167,-40,-166,-131v0,-51,19,-88,54,-117v39,-32,137,-44,235,-41r0,-35v0,-69,-30,-104,-91,-104v-49,0,-101,13,-156,40r-23,-56v62,-23,122,-35,180,-35xm116,-122v0,55,45,83,104,82v55,0,94,-20,117,-61r0,-128v-123,1,-221,1,-221,107xm338,-647r-118,117r-52,0r96,-117r74,0","w":479},"\u00e2":{"d":"246,-468v96,0,156,50,156,147v0,144,-7,156,14,321r-58,0r-17,-54v-24,34,-72,66,-128,65v-93,0,-167,-40,-166,-131v0,-51,19,-88,54,-117v39,-32,137,-44,235,-41r0,-35v0,-69,-30,-104,-91,-104v-49,0,-101,13,-156,40r-23,-56v62,-23,122,-35,180,-35xm116,-122v0,55,45,83,104,82v55,0,94,-20,117,-61r0,-128v-123,1,-221,1,-221,107xm342,-537r-54,0r-62,-70r-64,70r-54,0r89,-110r58,0","w":479},"\u00e3":{"d":"246,-468v96,0,156,50,156,147v0,144,-7,156,14,321r-58,0r-17,-54v-24,34,-72,66,-128,65v-93,0,-167,-40,-166,-131v0,-51,19,-88,54,-117v39,-32,137,-44,235,-41r0,-35v0,-69,-30,-104,-91,-104v-49,0,-101,13,-156,40r-23,-56v62,-23,122,-35,180,-35xm116,-122v0,55,45,83,104,82v55,0,94,-20,117,-61r0,-128v-123,1,-221,1,-221,107xm180,-621v20,-1,76,37,93,37v20,0,35,-14,44,-41r44,20v-15,44,-44,66,-86,66v-22,0,-77,-39,-96,-39v-21,0,-37,14,-46,43r-44,-19v20,-45,35,-63,91,-67","w":479},"\u00e4":{"d":"246,-468v96,0,156,50,156,147v0,144,-7,156,14,321r-58,0r-17,-54v-24,34,-72,66,-128,65v-93,0,-167,-40,-166,-131v0,-51,19,-88,54,-117v39,-32,137,-44,235,-41r0,-35v0,-69,-30,-104,-91,-104v-49,0,-101,13,-156,40r-23,-56v62,-23,122,-35,180,-35xm116,-122v0,55,45,83,104,82v55,0,94,-20,117,-61r0,-128v-123,1,-221,1,-221,107xm346,-543r-66,0r0,-77r66,0r0,77xm193,-543r-65,0r0,-77r65,0r0,77","w":479},"\u00e5":{"d":"246,-468v96,0,156,50,156,147v0,144,-7,156,14,321r-58,0r-17,-54v-24,34,-72,66,-128,65v-93,0,-167,-40,-166,-131v0,-51,19,-88,54,-117v39,-32,137,-44,235,-41r0,-35v0,-69,-30,-104,-91,-104v-49,0,-101,13,-156,40r-23,-56v62,-23,122,-35,180,-35xm116,-122v0,55,45,83,104,82v55,0,94,-20,117,-61r0,-128v-123,1,-221,1,-221,107xm240,-671v46,0,83,36,83,82v0,45,-38,82,-83,82v-44,0,-83,-38,-83,-82v0,-45,38,-82,83,-82xm240,-541v29,0,48,-22,48,-49v0,-28,-19,-49,-48,-49v-27,0,-49,24,-49,49v0,24,23,49,49,49","w":479},"\u00e6":{"d":"213,11v-93,0,-167,-40,-166,-131v0,-51,19,-88,54,-117v39,-32,140,-44,238,-41r0,-35v0,-69,-31,-104,-94,-104v-49,0,-101,13,-156,40r-23,-56v62,-23,122,-35,180,-35v69,0,115,26,137,77v31,-51,79,-77,142,-77v155,1,192,102,194,262r-315,0v3,111,48,167,133,167v43,0,88,-13,137,-39r21,54v-49,23,-105,35,-166,35v-76,1,-133,-39,-157,-90v-43,60,-96,90,-159,90xm654,-257v-3,-100,-34,-160,-128,-160v-83,0,-119,70,-123,160r251,0xm220,-40v53,0,99,-37,119,-73r0,-114v-122,1,-223,-1,-223,105v0,55,45,82,104,82","w":768},"\u00e7":{"d":"114,-225v0,102,40,183,136,184v35,0,72,-12,112,-36r14,63v-32,13,-68,21,-107,24r-5,20v41,-2,71,30,72,65v0,53,-44,88,-101,87v-27,0,-57,-2,-91,-7r8,-50v43,5,69,8,78,8v24,0,52,-12,50,-36v-3,-35,-31,-32,-82,-34r15,-55v-109,-15,-166,-107,-166,-233v0,-145,65,-241,205,-241v40,0,80,8,120,25r-13,60v-35,-23,-71,-35,-108,-35v-91,0,-137,64,-137,191","w":423},"\u00e8":{"d":"242,11v-161,0,-221,-160,-186,-319v19,-88,73,-161,182,-160v152,0,192,105,194,262r-315,0v3,111,48,167,133,167v46,0,93,-13,142,-39r20,54v-49,23,-106,35,-170,35xm367,-257v-3,-100,-34,-160,-128,-160v-83,0,-119,70,-123,160r251,0xm293,-530r-52,0r-118,-117r74,0","w":481},"\u00e9":{"d":"242,11v-161,0,-221,-160,-186,-319v19,-88,73,-161,182,-160v152,0,192,105,194,262r-315,0v3,111,48,167,133,167v46,0,93,-13,142,-39r20,54v-49,23,-106,35,-170,35xm367,-257v-3,-100,-34,-160,-128,-160v-83,0,-119,70,-123,160r251,0xm338,-647r-118,117r-52,0r96,-117r74,0","w":481},"\u00ea":{"d":"242,11v-161,0,-221,-160,-186,-319v19,-88,73,-161,182,-160v152,0,192,105,194,262r-315,0v3,111,48,167,133,167v46,0,93,-13,142,-39r20,54v-49,23,-106,35,-170,35xm367,-257v-3,-100,-34,-160,-128,-160v-83,0,-119,70,-123,160r251,0xm356,-537r-54,0r-62,-70r-64,70r-54,0r89,-110r58,0","w":481},"\u00eb":{"d":"242,11v-161,0,-221,-160,-186,-319v19,-88,73,-161,182,-160v152,0,192,105,194,262r-315,0v3,111,48,167,133,167v46,0,93,-13,142,-39r20,54v-49,23,-106,35,-170,35xm367,-257v-3,-100,-34,-160,-128,-160v-83,0,-119,70,-123,160r251,0xm354,-554r-65,0r0,-73r65,0r0,73xm203,-554r-65,0r0,-73r65,0r0,73","w":481},"\u00ec":{"d":"184,-530r-52,0r-118,-117r74,0xm137,0r-65,0r0,-457r65,0r0,457","w":208},"\u00ed":{"d":"190,-647r-118,117r-52,0r96,-117r74,0xm138,0r-65,0r0,-457r65,0r0,457","w":208},"\u00ee":{"d":"221,-537r-54,0r-62,-70r-64,70r-54,0r89,-110r58,0xm136,0r-65,0r0,-457r65,0r0,457","w":208},"\u00ef":{"d":"212,-568r-65,0r0,-73r65,0r0,73xm61,-568r-65,0r0,-73r65,0r0,73xm138,0r-65,0r0,-457r65,0r0,457","w":208},"\u00f0":{"d":"232,-398v66,1,119,49,142,100v0,-123,-37,-208,-110,-255r-86,58r-53,-31r79,-53v-24,-10,-55,-18,-93,-23r-26,-65v71,8,131,24,179,47r76,-52r52,31r-76,51v84,61,126,164,126,307v0,168,-41,295,-206,298v-111,2,-191,-96,-191,-207v0,-123,64,-207,187,-206xm119,-192v0,84,40,151,116,151v107,0,129,-75,130,-202v-26,-67,-70,-100,-131,-100v-77,0,-115,50,-115,151","w":487},"\u00f1":{"d":"262,-468v116,-2,157,66,157,180r0,288r-65,0r0,-284v1,-80,-21,-133,-101,-133v-58,0,-102,54,-118,97r0,320r-65,0r0,-360v0,-26,-6,-69,-9,-97r57,0r14,68v31,-39,63,-78,130,-79xm203,-621v20,-1,76,37,93,37v20,0,35,-14,44,-41r44,20v-15,44,-44,66,-86,66v-22,0,-77,-39,-96,-39v-21,0,-37,14,-46,43r-44,-19v20,-45,35,-63,91,-67","w":489},"\u00f2":{"d":"47,-231v0,-138,60,-237,202,-237v134,0,201,79,201,237v0,142,-56,242,-201,242v-145,0,-202,-99,-202,-242xm249,-40v106,-1,133,-79,133,-191v0,-111,-27,-185,-133,-186v-89,0,-134,62,-134,186v0,127,45,191,134,191xm315,-530r-52,0r-118,-117r74,0","w":497},"\u00f3":{"d":"47,-231v0,-138,60,-237,202,-237v134,0,201,79,201,237v0,142,-56,242,-201,242v-145,0,-202,-99,-202,-242xm249,-40v106,-1,133,-79,133,-191v0,-111,-27,-185,-133,-186v-89,0,-134,62,-134,186v0,127,45,191,134,191xm345,-647r-118,117r-52,0r96,-117r74,0","w":497},"\u00f4":{"d":"47,-231v0,-138,60,-237,202,-237v134,0,201,79,201,237v0,142,-56,242,-201,242v-145,0,-202,-99,-202,-242xm249,-40v106,-1,133,-79,133,-191v0,-111,-27,-185,-133,-186v-89,0,-134,62,-134,186v0,127,45,191,134,191xm367,-537r-54,0r-62,-70r-64,70r-54,0r89,-110r58,0","w":497},"\u00f5":{"d":"47,-231v0,-138,60,-237,202,-237v134,0,201,79,201,237v0,142,-56,242,-201,242v-145,0,-202,-99,-202,-242xm249,-40v106,-1,133,-79,133,-191v0,-111,-27,-185,-133,-186v-89,0,-134,62,-134,186v0,127,45,191,134,191xm193,-621v20,-1,76,37,93,37v20,0,35,-14,44,-41r44,20v-15,44,-44,66,-86,66v-22,0,-77,-39,-96,-39v-21,0,-37,14,-46,43r-44,-19v20,-45,35,-63,91,-67","w":497},"\u00f6":{"d":"47,-231v0,-138,60,-237,202,-237v134,0,201,79,201,237v0,142,-56,242,-201,242v-145,0,-202,-99,-202,-242xm249,-40v106,-1,133,-79,133,-191v0,-111,-27,-185,-133,-186v-89,0,-134,62,-134,186v0,127,45,191,134,191xm354,-554r-65,0r0,-73r65,0r0,73xm203,-554r-65,0r0,-73r65,0r0,73","w":497},"\u00f7":{"d":"283,-349r-78,0r0,-83r78,0r0,83xm452,-191r-417,0r0,-54r417,0r0,54xm283,-16r-78,0r0,-83r78,0r0,83"},"\u00f8":{"d":"47,-231v1,-138,60,-237,202,-237v59,0,105,16,136,49r57,-61r46,44r-63,68v17,36,25,82,25,137v-1,142,-56,244,-201,242v-55,0,-99,-15,-132,-44r-57,60r-47,-45r63,-66v-19,-38,-29,-87,-29,-147xm344,-375v-21,-28,-53,-42,-95,-42v-89,0,-134,62,-134,186v0,37,4,68,12,92xm249,-40v106,-1,132,-79,133,-191v0,-33,-3,-60,-8,-81r-216,235v21,25,52,37,91,37","w":497},"\u00f9":{"d":"306,-530r-52,0r-118,-117r74,0xm412,-97v-1,22,9,80,10,97r-57,0r-15,-68v-28,37,-62,79,-126,79v-103,0,-154,-60,-154,-180r0,-288r65,0r0,284v-3,82,21,131,98,133v59,1,96,-53,114,-97r0,-320r65,0r0,360","w":483},"\u00fa":{"d":"396,-97v-1,22,9,80,10,97r-57,0r-15,-68v-28,37,-62,79,-126,79v-103,0,-154,-60,-154,-180r0,-288r65,0r0,284v-3,82,21,131,98,133v59,1,96,-53,114,-97r0,-320r65,0r0,360xm320,-647r-118,117r-52,0r96,-117r74,0","w":483},"\u00fb":{"d":"412,-97v-1,22,9,80,10,97r-57,0r-15,-68v-28,37,-62,79,-126,79v-103,0,-154,-60,-154,-180r0,-288r65,0r0,284v-3,82,21,131,98,133v59,1,96,-53,114,-97r0,-320r65,0r0,360xm359,-537r-54,0r-62,-70r-64,70r-54,0r89,-110r58,0","w":483},"\u00fc":{"d":"412,-97v-1,22,9,80,10,97r-57,0r-15,-68v-28,37,-62,79,-126,79v-103,0,-154,-60,-154,-180r0,-288r65,0r0,284v-3,82,21,131,98,133v59,1,96,-53,114,-97r0,-320r65,0r0,360xm349,-554r-65,0r0,-73r65,0r0,73xm198,-554r-65,0r0,-73r65,0r0,73","w":483},"\u00fd":{"d":"446,-457r-191,530v-29,77,-59,107,-139,136r-21,-57v47,-13,77,-34,88,-65r40,-106r-183,-438r70,0r146,363r124,-363r66,0xm340,-647r-118,117r-52,0r96,-117r74,0","w":486},"\u00fe":{"d":"268,-468v127,0,176,108,176,237v0,134,-60,244,-193,242v-51,0,-90,-22,-119,-65r-14,234r-57,0v15,-192,7,-597,9,-837r65,0r0,268v21,-36,77,-79,133,-79xm376,-229v0,-65,-10,-113,-32,-143v-22,-30,-51,-45,-88,-45v-51,0,-92,33,-123,98r0,209v27,47,64,70,112,70v87,0,131,-63,131,-189","w":491},"\u00ff":{"d":"446,-457r-191,530v-29,77,-59,107,-139,136r-21,-57v47,-13,77,-34,88,-65r40,-106r-183,-438r70,0r146,363r124,-363r66,0xm359,-561r-65,0r0,-73r65,0r0,73xm208,-561r-65,0r0,-73r65,0r0,73","w":486},"\u0152":{"d":"63,-321v0,-204,81,-334,280,-337v31,0,61,4,89,11r425,0r0,57r-331,0v48,43,74,119,79,227r231,0r0,57r-230,0v-1,116,-27,199,-77,249r337,0r0,57r-419,0v-32,11,-67,17,-105,17v-205,-1,-279,-131,-279,-338xm342,-40v156,0,189,-122,189,-281v0,-93,-14,-163,-41,-210v-27,-47,-77,-70,-148,-70v-159,2,-203,112,-203,280v0,169,43,281,203,281","w":937},"\u0153":{"d":"47,-231v0,-138,60,-237,202,-237v83,0,139,34,168,101v30,-67,81,-101,153,-101v155,1,192,102,194,262r-315,0v3,111,48,167,133,167v43,0,89,-13,138,-39r20,54v-49,23,-105,35,-166,35v-76,0,-129,-34,-158,-101v-29,67,-84,101,-167,101v-145,2,-202,-99,-202,-242xm699,-257v-3,-100,-34,-160,-128,-160v-83,0,-119,70,-123,160r251,0xm249,-40v106,-1,133,-79,133,-191v0,-111,-27,-185,-133,-186v-89,0,-134,62,-134,186v0,127,45,191,134,191","w":813},"\u0178":{"d":"546,-647r-225,356r0,291r-73,0r0,-287r-232,-360r83,0r189,292r181,-292r77,0xm396,-722r-64,0r0,-74r64,0r0,74xm247,-722r-64,0r0,-74r64,0r0,74","w":562},"\u02c6":{"d":"221,-537r-54,0r-62,-70r-64,70r-54,0r89,-110r58,0","w":208},"\u02dc":{"d":"59,-621v20,-1,76,37,93,37v20,0,35,-14,44,-41r44,20v-15,44,-44,66,-86,66v-22,0,-77,-39,-96,-39v-21,0,-37,14,-46,43r-44,-19v20,-45,35,-63,91,-67","w":208},"\u2013":{"d":"501,-210r-502,0r0,-58r502,0r0,58","w":500},"\u2014":{"d":"1001,-207r-1002,0r0,-61r1002,0r0,61","w":1000},"\u2018":{"d":"194,-648r-85,188r-64,0r99,-188r50,0","w":244},"\u2019":{"d":"197,-647r-97,188r-52,0r84,-188r65,0","w":244},"\u201a":{"d":"197,-100r-97,188r-52,0r84,-188r65,0","w":244},"\u201c":{"d":"324,-648r-85,188r-64,0r98,-188r51,0xm189,-648r-85,188r-64,0r99,-188r50,0","w":364},"\u201d":{"d":"324,-647r-99,188r-51,0r85,-188r65,0xm189,-647r-98,188r-51,0r85,-188r64,0","w":364},"\u201e":{"d":"324,-100r-99,188r-51,0r85,-188r65,0xm189,-100r-98,188r-51,0r85,-188r64,0","w":364},"\u2022":{"d":"244,-451v69,0,127,58,127,127v0,69,-58,128,-127,128v-70,0,-128,-58,-128,-128v0,-69,59,-127,128,-127"},"\u2026":{"d":"648,0r-78,0r0,-83r78,0r0,83xm404,0r-77,0r0,-83r77,0r0,83xm161,0r-78,0r0,-83r78,0r0,83","w":731},"\u2039":{"d":"199,-452r-97,180r96,180r-63,0r-93,-178r93,-182r64,0","w":244},"\u203a":{"d":"205,-270r-93,178r-63,0r96,-180r-97,-180r64,0","w":244},"\u2122":{"d":"796,-292r-45,0r0,-308r-133,308r-36,0r-133,-308r0,308r-43,0r0,-355r69,0r127,295r128,-295r66,0r0,355xm356,-611r-114,0r0,320r-47,0r0,-320r-112,0r0,-36r273,0r0,36","w":902}}});
