/*!
 * The following copyright notice may not be removed under any circumstances.
 * 
 * Copyright:
 * Copyright (c) 2003 by This Font is designed by Ralph Oliver du Carrois. All
 * rights reserved.
 * 
 * Trademark:
 * Colaborate-Medium is a trademark of This Font is designed by Ralph Oliver du
 * Carrois.
 * 
 * Description:
 * Copyright (c) 2003 by This Font is designed by Ralph Oliver du Carrois. All
 * rights reserved.
 * 
 * Manufacturer:
 * This Font is designed by Ralph Oliver du Carrois
 */
Cufon.registerFont({"w":540,"face":{"font-family":"Colaborate-Medium","font-weight":400,"font-stretch":"normal","units-per-em":"1000","panose-1":"2 0 6 3 7 0 0 2 0 4","ascent":"800","descent":"-200","x-height":"14","bbox":"-37 -835 1001 245","underline-thickness":"50","underline-position":"-50","unicode-range":"U+0020-U+2122"},"glyphs":{" ":{"w":270},"!":{"d":"191,-182r-112,0r0,-465r112,0r0,465xm195,0r-120,0r0,-110r120,0r0,110","w":270},"\"":{"d":"325,-647r-8,217r-83,0r-8,-217r99,0xm175,-647r-8,217r-84,0r-8,-217r100,0","w":400},"#":{"d":"524,-389r-110,0r-24,139r95,0r0,79r-109,0r-30,171r-94,0r30,-171r-81,0r-30,171r-94,0r30,-171r-91,0r0,-79r105,0r24,-139r-90,0r0,-79r105,0r31,-179r94,0r-31,179r81,0r31,-179r94,0r-31,179r95,0r0,79xm320,-389r-81,0r-24,139r81,0"},"$":{"d":"308,-376v94,35,175,80,176,208v0,121,-70,165,-176,182r0,84r-88,0r0,-79v-47,-1,-106,-11,-178,-31r39,-106v44,15,83,37,139,40r0,-207v-58,-23,-77,-31,-122,-64v-39,-29,-59,-69,-60,-133v-1,-109,84,-161,182,-175r0,-89r88,0r0,87v57,4,106,13,148,27r-39,106v-43,-19,-80,-31,-109,-35r0,185xm222,-411r0,-146v-40,11,-60,36,-60,75v0,27,20,51,60,71xm360,-166v0,-31,-18,-57,-54,-79r0,156v36,-13,54,-39,54,-77"},"%":{"d":"643,-338v109,0,144,62,144,172v0,111,-35,179,-145,179v-109,0,-143,-68,-143,-179v0,-115,48,-172,144,-172xm640,-629r-363,629r-97,0r362,-629r98,0xm187,-660v109,0,145,62,145,172v0,111,-37,179,-146,179v-109,0,-143,-68,-143,-179v0,-115,48,-172,144,-172xm642,-45v60,0,65,-52,65,-121v0,-70,-3,-114,-64,-114v-59,0,-63,49,-63,114v0,73,0,121,62,121xm186,-367v60,0,65,-52,65,-121v0,-70,-3,-114,-64,-114v-59,0,-63,49,-63,114v0,73,0,121,62,121","w":830},"&":{"d":"478,-140v-3,18,16,128,17,140r-106,0r-16,-45v-18,28,-77,61,-120,61v-121,-2,-207,-65,-207,-197v0,-87,36,-148,108,-185v-40,-30,-88,-60,-88,-129v0,-105,68,-168,183,-168v112,0,183,53,183,164v0,59,-58,114,-174,164v-65,28,-96,65,-96,152v0,64,33,113,103,113v33,0,66,-22,101,-67r0,-79r-88,0r0,-80r200,0r0,156xm233,-412v42,-20,86,-36,86,-88v0,-51,-24,-77,-72,-77v-61,0,-86,75,-54,123v11,16,27,30,40,42"},"'":{"d":"185,-647r-8,217r-84,0r-8,-217r100,0","w":270},"(":{"d":"167,-254v0,177,26,253,96,382r-103,0v-75,-134,-106,-198,-106,-382v0,-192,30,-260,101,-393r103,0v-68,128,-91,207,-91,393","w":315},")":{"d":"162,-647v71,133,101,201,101,393v0,184,-31,248,-106,382r-103,0v70,-129,96,-204,96,-382v0,-186,-23,-265,-91,-393r103,0","w":315},"*":{"d":"420,-473r-150,36r-1,9r98,128r-58,41r-85,-132r-10,0r-88,133r-58,-44r99,-126r-3,-9r-154,-37r23,-71r148,55r9,-7r-7,-153r70,0r-7,156r8,5r147,-54","w":430},"+":{"d":"488,-178r-170,0r0,178r-96,0r0,-178r-170,0r0,-86r170,0r0,-167r96,0r0,167r170,0r0,86"},",":{"d":"195,-75r-81,178r-86,0r47,-178r120,0","w":270},"-":{"d":"323,-178r-296,0r0,-94r296,0r0,94","w":350},".":{"d":"195,0r-120,0r0,-110r120,0r0,110","w":270},"\/":{"d":"304,-657r-211,668r-97,0r213,-668r95,0","w":300},"0":{"d":"269,-621v187,0,233,119,233,313v0,100,-13,172,-48,235v-34,59,-94,90,-186,90v-86,0,-146,-28,-180,-83v-34,-55,-50,-135,-50,-242v2,-189,53,-313,231,-313xm268,-77v109,-4,108,-117,108,-231v0,-79,-7,-134,-20,-168v-13,-34,-42,-51,-87,-51v-77,0,-97,66,-102,134v-6,88,-12,217,22,276v13,23,42,41,79,40"},"1":{"d":"392,1r-126,0r0,-488r-114,91r-38,-91r156,-120r122,0r0,608"},"2":{"d":"262,-622v135,0,226,59,222,198v-4,124,-111,205,-184,268v-27,23,-55,43,-84,62r280,0r0,94r-413,0r-35,-103r122,-90v63,-48,115,-92,159,-153v16,-22,29,-43,29,-74v0,-72,-33,-108,-98,-108v-41,0,-92,17,-155,50r-37,-103v87,-28,102,-41,194,-41"},"3":{"d":"317,-320v80,13,154,57,152,150v-2,137,-104,187,-239,187v-77,0,-140,-9,-190,-26r37,-103v31,15,106,35,156,35v62,0,110,-37,110,-94v-1,-99,-89,-102,-190,-102r0,-92v65,0,110,-5,136,-15v26,-10,39,-34,39,-71v0,-51,-30,-77,-89,-77v-38,0,-88,15,-151,46r-37,-103v35,-19,139,-37,192,-37v141,0,211,56,211,169v0,81,-63,124,-137,133"},"4":{"d":"518,-161r-96,0r0,161r-124,0r0,-161r-242,0r-41,-96r271,-350r136,0r0,351r96,0r0,95xm298,-256r0,-234r-181,234r181,0"},"5":{"d":"283,-395v127,0,206,69,206,199v0,134,-112,214,-246,213v-82,0,-147,-8,-196,-24r37,-103v55,22,108,33,160,33v81,0,121,-40,121,-121v0,-120,-131,-117,-200,-69v-9,6,-14,8,-15,9r-81,-31r0,-318r395,0r0,94r-271,0r0,133v26,-10,56,-15,90,-15"},"6":{"d":"288,-405v139,-2,206,81,206,221v0,116,-102,201,-217,201v-155,0,-232,-100,-232,-300v0,-143,49,-254,145,-309v73,-42,178,-34,267,-11r-37,103v-80,-43,-177,-38,-220,30v-25,39,-37,85,-37,139v18,-42,75,-73,125,-74xm278,-77v59,0,90,-45,90,-113v0,-71,-17,-122,-89,-121v-52,0,-88,25,-107,75v1,106,19,159,106,159"},"7":{"d":"474,-526r-215,526r-134,0r237,-513r-309,0r0,-93r382,0"},"8":{"d":"356,-319v88,24,146,62,146,164v0,115,-78,172,-234,172v-153,0,-230,-57,-230,-172v0,-88,49,-143,146,-165v-42,-16,-71,-32,-88,-49v-25,-24,-37,-53,-37,-87v2,-116,86,-167,214,-166v139,1,214,38,214,165v0,78,-65,125,-131,138xm273,-529v-64,0,-92,20,-92,77v0,40,29,70,88,90v64,-21,96,-51,96,-90v0,-56,-28,-77,-92,-77xm161,-158v0,56,42,82,107,82v74,0,111,-27,111,-82v-1,-72,-50,-95,-108,-117v-63,24,-110,40,-110,117"},"9":{"d":"263,-622v176,2,235,122,232,300v-2,143,-49,254,-145,309v-73,42,-178,34,-267,11r37,-103v80,43,177,38,220,-30v25,-39,37,-85,37,-139v-18,42,-75,73,-125,74v-139,2,-206,-80,-206,-220v0,-114,105,-203,217,-202xm172,-420v0,74,17,126,89,126v52,0,88,-25,107,-75v-1,-106,-19,-159,-106,-159v-57,0,-90,44,-90,108"},":":{"d":"195,-342r-120,0r0,-110r120,0r0,110xm195,0r-120,0r0,-110r120,0r0,110","w":270},";":{"d":"195,-342r-120,0r0,-110r120,0r0,110xm195,-75r-81,178r-86,0r47,-178r120,0","w":270},"<":{"d":"495,-37r-450,-147r0,-120r450,-149r0,109r-337,100r337,98r0,109"},"=":{"d":"495,-242r-450,0r0,-86r450,0r0,86xm495,-69r-450,0r0,-86r450,0r0,86"},">":{"d":"495,-186r-450,149r0,-109r337,-100r-337,-98r0,-109r450,147r0,120"},"?":{"d":"51,-627v91,-29,260,-51,331,12v37,33,65,127,30,185v-33,53,-94,78,-131,126v-25,31,-14,78,-17,128r-112,0v1,-57,-5,-113,16,-152v29,-54,88,-76,124,-120v11,-13,16,-27,16,-42v-1,-54,-23,-70,-81,-70v-40,0,-132,20,-158,35xm268,0r-120,0r0,-110r120,0r0,110","w":460},"@":{"d":"483,19v-233,1,-403,-109,-403,-339v0,-155,87,-262,200,-306v109,-43,276,-46,380,4v89,43,158,113,160,241v0,97,-40,167,-102,203v-60,35,-130,52,-222,52v-142,1,-234,-62,-234,-196v0,-120,79,-193,210,-190v43,0,79,5,109,14r0,153r20,0r31,82r-153,13r0,-171v-5,-3,-11,-5,-16,-5v-60,0,-90,35,-90,104v0,76,42,114,125,114v67,-1,104,-5,148,-28v44,-24,61,-73,61,-144v0,-137,-91,-193,-225,-193v-172,0,-289,77,-289,253v0,178,118,251,293,252v59,0,130,-11,213,-32r39,93v-79,17,-164,26,-255,26","w":900},"A":{"d":"652,0r-139,0r-58,-173r-231,0r-61,173r-134,0r263,-647r116,0xm423,-268r-79,-239r-85,239r164,0","w":681},"B":{"d":"438,-339v80,12,133,60,133,150v0,126,-72,189,-215,189r-262,0r0,-647r229,0v145,0,218,59,218,178v0,69,-47,115,-103,130xm337,-381v48,0,76,-35,76,-87v0,-55,-30,-82,-90,-82r-103,0r0,169r117,0xm442,-189v0,-64,-34,-96,-103,-96r-119,0r0,188r130,0v61,0,92,-31,92,-92","w":625},"C":{"d":"189,-324v0,155,37,256,187,245v49,-4,84,-23,124,-39r39,106v-59,21,-119,31,-182,31v-199,0,-298,-114,-298,-342v0,-207,91,-337,302,-337v61,0,118,9,171,26r-39,106v-55,-23,-99,-35,-132,-35v-134,2,-172,95,-172,239","w":575},"D":{"d":"305,-647v220,2,309,94,309,321v0,230,-85,323,-309,326r-211,0r0,-647r211,0xm314,-97v133,-5,169,-73,170,-228v1,-145,-36,-230,-179,-225r-85,0r0,453r94,0","w":673},"E":{"d":"487,0r-393,0r0,-647r384,0r0,97r-258,0r0,167r237,0r0,97r-237,0r0,189r267,0r0,97","w":581},"F":{"d":"478,-549r-258,0r0,170r246,0r0,96r-246,0r0,283r-126,0r0,-647r384,0r0,98","w":530},"G":{"d":"189,-324v1,151,31,243,171,246v40,0,74,-8,103,-25r0,-146r-143,0r0,-97r255,0r0,307v-69,39,-117,57,-218,58v-199,0,-298,-114,-298,-343v1,-207,97,-338,307,-336v42,0,96,9,163,26r-39,106v-53,-23,-94,-35,-123,-35v-134,0,-180,83,-178,239","w":634},"H":{"d":"598,0r-126,0r0,-285r-252,0r0,285r-126,0r0,-647r126,0r0,264r252,0r0,-264r126,0r0,647","w":692},"I":{"d":"208,0r-126,0r0,-647r126,0r0,647","w":290},"J":{"d":"349,-204v-2,92,-27,157,-77,202v-60,55,-134,81,-225,106r-33,-104r57,-11v38,-8,81,-23,105,-47v30,-29,47,-75,47,-136r0,-453r126,0r0,443","w":443},"K":{"d":"645,0r-163,0r-262,-295r0,295r-126,0r0,-647r126,0r0,273r239,-273r142,0r-264,304","w":659},"L":{"d":"489,0r-395,0r0,-647r126,0r0,547r269,0r0,100","w":495},"M":{"d":"831,0r-124,0r0,-513r-182,513r-129,0r-182,-513r0,513r-120,0r0,-647r207,0r164,478r168,-478r198,0r0,647","w":925},"N":{"d":"633,0r-189,0r-230,-498r0,498r-120,0r0,-647r187,0r228,498r0,-498r124,0r0,647","w":727},"O":{"d":"59,-321v0,-205,94,-339,306,-339v201,0,301,113,301,339v0,207,-90,340,-302,340v-203,0,-305,-113,-305,-340xm364,-78v136,0,172,-94,172,-243v0,-153,-36,-242,-172,-242v-136,0,-175,91,-175,242v0,157,35,243,175,243","w":725},"P":{"d":"550,-453v0,133,-73,200,-218,200r-112,0r0,253r-126,0r0,-647r227,0v153,0,229,65,229,194xm422,-453v1,-77,-34,-97,-103,-97r-99,0r0,200r104,0v65,0,98,-34,98,-103","w":600},"Q":{"d":"59,-321v0,-207,93,-339,306,-339v201,0,301,113,301,339v0,207,-90,340,-302,340v-203,0,-305,-113,-305,-340xm592,64r-43,83r-226,-34r43,-70xm364,-78v136,0,172,-94,172,-243v0,-153,-36,-242,-172,-242v-136,0,-175,91,-175,242v0,157,35,243,175,243","w":725},"R":{"d":"555,-460v0,106,-56,174,-160,187r204,273r-154,0r-197,-269r-28,0r0,269r-126,0r0,-647r242,0v132,1,219,53,219,187xm342,-366v56,1,85,-39,85,-94v0,-56,-29,-91,-86,-90r-121,0r0,184r122,0","w":642},"S":{"d":"312,-563v-72,-2,-120,24,-120,81v0,48,46,65,81,78r49,18v62,22,85,32,134,67v43,31,69,80,69,151v0,125,-89,187,-267,187v-53,0,-118,-10,-194,-31r39,-106v71,27,123,40,156,40v89,1,154,-22,135,-108v-15,-67,-96,-77,-156,-103v-52,-22,-78,-33,-118,-65v-35,-28,-56,-68,-56,-128v-1,-85,66,-140,132,-161v92,-29,215,-18,301,11r-39,106v-57,-25,-106,-37,-146,-37","w":594},"T":{"d":"504,-549r-178,0r0,549r-126,0r0,-549r-178,0r0,-98r482,0r0,98","w":526},"U":{"d":"220,-249v-1,122,41,171,148,171v90,0,135,-57,135,-171r0,-398r126,0r0,410v1,169,-92,256,-261,256v-183,0,-274,-86,-274,-258r0,-408r126,0r0,398","w":723},"V":{"d":"624,-647r-236,647r-116,0r-244,-647r139,0r166,492r157,-492r134,0","w":652},"W":{"d":"933,-647r-166,647r-156,0r-126,-452r-148,452r-156,0r-147,-647r133,0r108,494r142,-467r156,0r118,467r119,-494r123,0","w":967},"X":{"d":"596,0r-149,0r-134,-234r-148,234r-135,0r216,-334r-190,-313r145,0r119,203r127,-203r135,0r-198,308","w":632},"Y":{"d":"605,-647r-233,356r0,291r-126,0r0,-287r-232,-360r143,0r157,248r155,-248r136,0","w":619},"Z":{"d":"518,-545r-338,447r330,0r0,98r-434,0r-33,-102r339,-447r-302,0r0,-98r405,0","w":561},"[":{"d":"258,127r-175,0r0,-803r175,0r0,80r-79,0r0,640r79,0r0,83","w":305},"\\":{"d":"304,11r-97,0r-211,-668r95,0","w":300},"]":{"d":"232,127r-175,0r0,-83r79,0r0,-640r-79,0r0,-80r175,0r0,803","w":305},"^":{"d":"508,-269r-105,0r-134,-292r-135,292r-102,0r181,-378r110,0"},"_":{"d":"501,116r-502,0r0,-86r502,0r0,86","w":500},"`":{"d":"228,-530r-78,0r-131,-117r113,0","w":247},"a":{"d":"273,-470v101,0,173,47,173,146v0,95,-7,169,8,258r10,66r-107,0r-17,-46v-41,39,-80,59,-119,59v-105,0,-178,-37,-178,-133v0,-111,84,-167,251,-167r38,0v2,-57,-6,-96,-65,-96v-55,0,-111,13,-167,40r-39,-93v63,-23,133,-34,212,-34xm333,-121r0,-90v-93,-1,-172,7,-172,86v0,34,27,51,81,51v38,0,68,-16,91,-47","w":522},"b":{"d":"299,-470v133,-2,189,107,189,239v1,133,-73,244,-205,244v-50,0,-88,-30,-107,-59r-18,46r-104,0v8,-62,12,-109,12,-140r0,-517r113,0r0,260v35,-49,75,-73,120,-73xm278,-383v-57,0,-74,44,-101,88r0,157v20,43,49,64,88,64v71,0,107,-52,107,-155v0,-103,-31,-154,-94,-154","w":531},"c":{"d":"271,-383v-89,3,-111,56,-112,158v0,101,37,151,111,151v31,0,72,-13,121,-38r39,93v-25,14,-123,32,-161,32v-144,2,-227,-95,-226,-238v0,-150,78,-246,229,-245v39,0,126,20,154,32r-39,93v-51,-25,-89,-38,-116,-38","w":464},"d":{"d":"43,-231v-1,-130,61,-241,189,-239v45,0,85,24,120,73r0,-260r113,0r0,517v0,31,4,78,12,140r-104,0r-18,-46v-19,29,-57,59,-107,59v-144,0,-204,-103,-205,-244xm159,-229v1,102,20,155,107,155v39,0,68,-21,88,-64r0,-157v-27,-45,-44,-88,-101,-88v-63,0,-94,51,-94,154","w":531},"e":{"d":"264,13v-167,0,-252,-153,-210,-321v23,-92,88,-163,206,-162v170,3,214,103,216,285r-314,0v8,67,41,113,110,114v43,0,91,-13,143,-39r37,87v-53,24,-115,36,-188,36xm367,-266v-5,-78,-41,-117,-108,-117v-60,0,-97,45,-97,117r205,0","w":521},"f":{"d":"334,-582v-88,10,-147,30,-141,125r104,0r0,87r-104,0r0,370r-113,0r0,-370r-69,0r0,-87r69,0v-5,-114,66,-173,150,-202v25,-9,51,-14,76,-16","w":334},"g":{"d":"270,-121v-23,0,-84,-9,-100,-17v-14,7,-21,18,-21,33v0,12,9,21,27,26v18,5,54,10,110,15v87,7,145,22,177,42v49,30,64,106,27,154v-40,53,-122,69,-214,69v-86,0,-148,-11,-184,-33v-36,-22,-54,-55,-54,-96v0,-38,25,-67,74,-87v-39,-17,-58,-46,-58,-85v0,-27,18,-54,53,-80v-41,-54,-59,-101,-38,-168v14,-45,41,-83,91,-103v52,-20,118,-25,185,-10v82,-7,139,-11,172,-12r-29,76r-56,0v31,31,46,64,46,101v0,118,-83,174,-208,175xm271,-206v60,0,91,-39,91,-93v0,-57,-33,-87,-92,-86v-62,0,-93,30,-93,90v0,59,31,89,94,89xm394,69v0,-27,-69,-43,-207,-46v-22,11,-33,26,-33,45v0,15,13,26,36,36v40,17,145,17,178,4v17,-7,26,-20,26,-39","w":545},"h":{"d":"298,-471v125,-1,165,63,165,183r0,288r-113,0r0,-293v1,-56,-14,-92,-71,-91v-37,0,-71,29,-100,86r0,298r-113,0r0,-657r113,0r0,260v37,-49,76,-74,119,-74","w":529},"i":{"d":"183,-549r-119,0r0,-98r119,0r0,98xm180,0r-113,0r0,-457r113,0r0,457","w":247},"j":{"d":"180,-549r-121,0r0,-98r121,0r0,98xm-30,103v63,-15,93,-31,93,-100r0,-460r113,0r0,451v-1,119,-73,168,-167,202","w":244},"k":{"d":"475,0r-130,0r-166,-229r0,229r-113,0r0,-657r113,0r0,380r150,-180r122,0r-166,198","w":487},"l":{"d":"179,0r-113,0r0,-657r113,0r0,657","w":245},"m":{"d":"297,-471v86,1,105,22,146,74v31,-49,77,-74,140,-74v107,0,161,60,161,179r0,292r-113,0r0,-290v-1,-61,-11,-94,-65,-94v-57,0,-91,46,-107,91r0,293r-113,0r0,-290v-1,-66,-11,-93,-70,-94v-46,-1,-81,52,-97,85r0,299r-113,0r0,-352v1,-20,-11,-89,-12,-105r104,0r18,61v20,-29,72,-76,121,-75","w":810},"n":{"d":"298,-471v125,-2,165,63,165,183r0,288r-113,0r0,-293v1,-56,-14,-92,-71,-91v-39,0,-72,29,-100,86r0,298r-113,0r0,-360v1,-34,-9,-68,-12,-97r104,0r18,60v29,-33,61,-73,122,-74","w":529},"o":{"d":"269,-471v153,0,225,94,225,240v0,151,-72,243,-225,245v-152,2,-226,-100,-226,-245v0,-142,77,-240,226,-240xm269,-384v-86,0,-110,56,-110,153v0,105,37,158,110,158v73,0,109,-53,109,-158v0,-99,-20,-153,-109,-153","w":537},"p":{"d":"292,-471v138,-2,196,107,196,245v1,130,-61,242,-189,240v-48,0,-99,-28,-120,-59r0,225r-113,0r0,-497v0,-31,-4,-78,-12,-140r104,0r20,60v35,-49,73,-74,114,-74xm372,-228v-1,-101,-20,-156,-107,-156v-32,0,-61,28,-88,85r0,160v25,44,58,66,101,66v63,0,94,-52,94,-155","w":531},"q":{"d":"239,-471v52,0,96,41,114,74r20,-60r104,0v-8,62,-12,109,-12,140r0,497r-113,0r0,-225v-21,31,-72,59,-120,59v-135,0,-189,-100,-189,-240v0,-134,63,-245,196,-245xm264,-384v-86,0,-104,55,-105,156v0,103,31,155,94,155v43,0,76,-22,101,-66r0,-160v-27,-57,-57,-85,-90,-85","w":531},"r":{"d":"176,-379v19,-32,67,-92,114,-92v30,0,59,7,87,22r-39,93v-45,-41,-98,-31,-123,10v-13,22,-26,46,-36,73r0,273r-113,0r0,-355v1,-34,-7,-75,-12,-102r104,0","w":390},"s":{"d":"359,-349v-34,-15,-67,-35,-117,-35v-53,0,-79,15,-79,46v0,13,7,24,21,32v54,27,151,41,190,86v18,20,37,55,36,95v-4,104,-88,140,-197,139v-57,0,-116,-11,-175,-32r39,-93v39,13,84,39,138,38v53,0,77,-9,79,-51v1,-21,-27,-34,-43,-40v-10,-4,-25,-9,-46,-15v-48,-14,-66,-21,-104,-45v-34,-21,-54,-58,-54,-111v0,-91,65,-136,194,-136v44,0,96,10,157,29","w":451},"t":{"d":"202,-111v3,74,55,92,124,111r-30,97v-106,-27,-207,-94,-207,-217r0,-250r-76,0r0,-88r76,0r0,-122r113,0r0,122r107,0r0,88r-107,0r0,259","w":335},"u":{"d":"456,-97v-1,34,9,68,12,97r-104,0r-18,-60v-28,31,-57,74,-118,74v-119,1,-162,-67,-162,-183r0,-288r113,0r0,293v-1,55,13,92,68,91v36,0,68,-29,96,-86r0,-298r113,0r0,360","w":522},"v":{"d":"501,-457r-177,457r-111,0r-177,-457r121,0r115,324r111,-324r118,0","w":537},"w":{"d":"767,-457r-151,457r-118,0r-94,-280r-104,280r-119,0r-151,-457r120,0r101,319r101,-279r111,0r96,279r92,-319r116,0","w":797},"x":{"d":"471,0r-127,0r-98,-152r-104,152r-119,0r165,-231r-154,-226r127,0r90,143r94,-143r118,0r-156,219","w":494},"y":{"d":"494,-457r-191,530v-33,87,-82,141,-174,172r-38,-93v47,-13,77,-34,88,-65r40,-106r-183,-438r121,0r117,311r102,-311r118,0","w":530},"z":{"d":"418,-364r-262,277r246,0r0,87r-337,0r-39,-93r265,-277r-233,0r0,-87r321,0","w":444},"{":{"d":"316,118v-81,-1,-142,-36,-163,-90v-16,-44,-27,-106,-31,-159v-4,-48,-26,-88,-74,-91r0,-87v93,-4,66,-127,88,-203v15,-52,33,-91,82,-114v26,-13,59,-20,98,-21r0,87v-121,-1,-71,164,-115,242v-13,24,-30,43,-55,54v48,16,73,70,78,126v6,79,6,170,92,169r0,87","w":390},"|":{"d":"183,166r-96,0r0,-868r96,0r0,868","w":270},"}":{"d":"342,-222v-48,3,-70,43,-74,91v-4,53,-15,115,-31,159v-21,54,-82,89,-163,90r0,-87v120,0,69,-168,114,-245v14,-23,31,-41,56,-50v-69,-28,-75,-121,-84,-209v-5,-49,-30,-88,-86,-87r0,-87v104,3,159,50,180,135v15,61,5,143,40,184v11,12,27,18,48,19r0,87","w":390},"~":{"d":"354,-242v52,-1,68,-19,68,-75r89,48v0,74,-58,125,-138,125v-56,0,-114,-43,-147,-68v-19,-15,-33,-22,-41,-22v-51,1,-67,22,-67,77r-89,-48v0,-74,56,-125,136,-125v59,0,119,40,153,66v18,15,31,22,36,22"},"\u00a0":{"w":270},"\u00a1":{"d":"195,-537r-120,0r0,-110r120,0r0,110xm191,0r-112,0r0,-465r112,0r0,465","w":270},"\u00a2":{"d":"43,-225v0,-134,61,-223,178,-241r0,-94r91,0r0,94v39,6,75,15,109,28r-39,93v-23,-12,-47,-22,-70,-30r0,294v19,-5,44,-16,74,-31r39,93v-21,10,-58,19,-113,28r0,91r-91,0r0,-91v-113,-17,-178,-106,-178,-234xm221,-84r0,-291v-41,17,-62,67,-62,150v0,75,21,122,62,141","w":459},"\u00a3":{"d":"518,0r-463,0r0,-100r64,0r0,-199r-75,0r0,-87r75,0v0,-126,43,-204,131,-244v57,-26,98,-34,171,-43r33,104v-65,3,-109,10,-132,20v-53,22,-78,78,-77,163r151,0r0,87r-151,0r0,199r273,0r0,100"},"\u00a4":{"d":"238,-209v12,100,87,151,199,125v35,-8,69,-25,103,-39r0,118v-47,16,-98,24,-153,24v-159,0,-252,-76,-279,-228r-109,0r31,-97r69,0r0,-43r-100,0r31,-97r81,0v31,-143,125,-214,280,-214v61,0,118,9,171,26r-33,103v-50,-21,-96,-32,-138,-32v-80,0,-130,39,-150,117r261,0r-31,97r-242,0r0,43r229,0r-31,97r-189,0"},"\u00a5":{"d":"540,-647r-186,319r104,0r0,86r-126,0r0,51r126,0r0,86r-126,0r0,105r-126,0r0,-105r-126,0r0,-86r126,0r0,-51r-126,0r0,-86r103,0r-183,-319r140,0r134,251r134,-251r132,0"},"\u00a6":{"d":"183,-359r-96,0r0,-234r96,0r0,234xm183,78r-96,0r0,-234r96,0r0,234","w":270},"\u00a7":{"d":"353,-539v-28,-12,-65,-35,-107,-34v-53,0,-79,15,-79,46v0,36,51,46,88,57v79,23,161,55,161,156v0,43,-16,77,-49,101v19,23,29,53,29,90v0,103,-87,140,-195,139v-47,0,-100,-11,-160,-32r39,-93v34,14,72,39,123,38v54,-1,77,-8,77,-51v0,-36,-49,-48,-86,-58v-79,-21,-159,-52,-159,-153v0,-49,19,-83,56,-104v-27,-23,-40,-52,-40,-87v0,-91,65,-136,194,-136v39,0,88,10,147,29xm277,-264v23,-12,33,-50,17,-75v-10,-15,-45,-28,-62,-35v-10,-4,-24,-9,-45,-15v-31,9,-47,45,-31,75v29,27,78,34,121,50","w":451},"\u00a8":{"d":"254,-554r-102,0r0,-93r102,0r0,93xm95,-554r-102,0r0,-93r102,0r0,93","w":247},"\u00a9":{"d":"360,-658v186,0,335,149,335,334v0,184,-152,334,-335,334v-183,0,-335,-151,-335,-334v0,-184,152,-334,335,-334xm360,-53v144,0,266,-127,266,-271v0,-145,-120,-271,-266,-271v-147,0,-266,124,-266,271v0,144,122,271,266,271xm261,-323v0,89,19,146,100,148v20,0,49,-8,87,-24r23,64v-34,12,-70,18,-109,18v-119,0,-179,-68,-179,-205v0,-121,55,-204,181,-202v40,0,74,5,103,15r-24,64v-32,-14,-58,-21,-79,-21v-81,1,-103,57,-103,143","w":720},"\u00aa":{"d":"153,-631v82,-27,236,-41,236,61r0,102r11,77r-70,0r-10,-26v-25,22,-49,33,-71,33v-71,0,-107,-24,-107,-73v0,-69,69,-98,173,-94v1,-32,-5,-47,-39,-47v-35,0,-68,7,-100,22xm316,-502v-53,1,-99,-2,-101,42v0,16,15,24,46,24v22,0,40,-9,55,-28r0,-38"},"\u00ab":{"d":"388,-452r-97,180r96,180r-103,0r-93,-178r93,-182r104,0xm220,-452r-97,180r96,180r-103,0r-93,-178r93,-182r104,0","w":410},"\u00ac":{"d":"505,-88r-96,0r0,-174r-379,0r0,-86r475,0r0,260"},"\u00ad":{"d":"323,-178r-296,0r0,-94r296,0r0,94","w":350},"\u00ae":{"d":"360,-658v186,0,335,149,335,334v0,184,-152,334,-335,334v-183,0,-335,-151,-335,-334v0,-184,152,-334,335,-334xm360,-53v144,0,266,-127,266,-271v0,-145,-120,-271,-266,-271v-147,0,-266,124,-266,271v0,144,122,271,266,271xm365,-519v76,1,132,32,132,114v0,65,-32,103,-96,112r122,164r-92,0r-119,-162r-16,0r0,162r-76,0r0,-390r145,0xm369,-349v33,1,51,-23,51,-56v0,-36,-17,-54,-52,-54r-72,0r0,110r73,0","w":720},"\u00af":{"d":"253,-544r-259,0r0,-83r259,0r0,83","w":247},"\u00b0":{"d":"215,-616v92,0,170,75,170,168v0,93,-79,165,-171,165v-92,0,-169,-72,-169,-165v0,-93,78,-168,170,-168xm214,-352v50,0,97,-46,97,-96v0,-56,-41,-99,-96,-99v-55,0,-97,43,-97,99v0,50,46,96,96,96","w":430},"\u00b1":{"d":"488,-238r-170,0r0,118r-96,0r0,-118r-170,0r0,-86r170,0r0,-107r96,0r0,107r170,0r0,86xm495,0r-450,0r0,-86r450,0r0,86"},"\u00b2":{"d":"175,-660v76,1,145,31,143,109v0,31,-25,64,-42,81v-36,35,-84,67,-130,94r173,0r0,58r-253,0r-21,-61r93,-61v33,-27,95,-57,98,-109v3,-42,-22,-52,-62,-53v-26,0,-57,9,-94,27r-22,-62v49,-15,88,-23,117,-23","w":365},"\u00b3":{"d":"223,-494v46,6,94,32,92,83v-3,76,-72,103,-152,102v-46,0,-84,-5,-114,-14r22,-62v44,23,163,37,163,-27v0,-55,-52,-51,-117,-54r0,-55v39,0,66,-3,83,-9v17,-6,25,-17,25,-36v0,-24,-19,-36,-56,-36v-23,0,-54,8,-91,25r-22,-63v29,-13,67,-20,115,-20v76,0,133,24,135,93v0,46,-40,68,-83,73","w":365},"\u00b4":{"d":"228,-647r-131,117r-78,0r96,-117r113,0","w":247},"\u00b5":{"d":"465,-97v-1,34,9,68,12,97r-104,0r-18,-60v-28,31,-57,74,-118,74v-20,0,-36,-4,-49,-11r0,177r-113,0r0,-637r113,0r0,293v-1,55,13,93,68,91v54,-2,72,-51,96,-96r0,-288r113,0r0,360"},"\u00b6":{"d":"40,-453v0,-123,65,-194,191,-194r285,0r0,835r-96,0r0,-748r-100,0v-67,0,-109,49,-109,120v0,59,52,110,98,122r0,506r-96,0r0,-446v-104,-12,-173,-91,-173,-195"},"\u00b7":{"d":"190,-216r-110,0r0,-111r110,0r0,111","w":270},"\u00b8":{"d":"167,25v42,-2,69,35,70,73v2,71,-65,117,-133,117v-31,0,-65,-3,-104,-8r24,-78v43,5,68,8,75,8v32,0,48,-12,48,-37v0,-38,-28,-34,-80,-36r21,-79r89,0","w":247},"\u00b9":{"d":"245,-313r-81,0r0,-263r-63,50r-23,-55r93,-66r74,0r0,334","w":365},"\u00ba":{"d":"271,-660v89,0,139,49,139,132v0,81,-52,135,-139,135v-89,0,-139,-53,-139,-135v0,-80,53,-132,139,-132xm336,-528v0,-54,-17,-80,-65,-80v-44,0,-66,27,-66,80v0,55,22,83,66,83v43,0,65,-28,65,-83"},"\u00bb":{"d":"388,-270r-93,178r-103,0r96,-180r-97,-180r104,0xm220,-270r-93,178r-103,0r96,-180r-97,-180r104,0","w":410},"\u00bc":{"d":"728,-86r-54,0r0,86r-80,0r0,-86r-145,0r-25,-58r163,-190r87,0r0,190r54,0r0,58xm602,-629r-363,629r-97,0r362,-629r98,0xm231,-313r-81,0r0,-263r-63,50r-23,-55r93,-66r82,0xm594,-144r0,-119r-103,119r103,0","w":830},"\u00bd":{"d":"616,-342v76,1,145,31,143,109v0,31,-26,64,-43,81v-36,35,-83,67,-129,94r173,0r0,58r-253,0r-21,-61r94,-61v33,-27,94,-57,97,-109v3,-42,-22,-52,-62,-53v-26,0,-57,9,-94,27r-22,-62v49,-15,88,-23,117,-23xm597,-629r-363,629r-97,0r370,-629r90,0xm227,-313r-81,0r0,-263r-63,50r-23,-55r93,-66r81,0","w":830},"\u00be":{"d":"747,-86r-54,0r0,86r-80,0r0,-86r-145,0r-25,-58r163,-190r87,0r0,190r54,0r0,58xm635,-629r-363,629r-97,0r362,-629r98,0xm223,-494v46,6,94,32,92,83v-3,76,-72,103,-152,102v-46,0,-84,-5,-114,-14r22,-62v44,23,163,37,163,-27v0,-55,-52,-51,-117,-54r0,-55v39,0,66,-3,83,-9v17,-6,25,-17,25,-36v0,-24,-19,-36,-56,-36v-23,0,-54,8,-91,25r-22,-63v29,-13,67,-20,115,-20v76,0,133,24,135,93v0,46,-40,68,-83,73xm613,-144r0,-119r-103,119r103,0","w":830},"\u00bf":{"d":"332,-537r-120,0r0,-110r120,0r0,110xm253,-87v40,0,132,-20,158,-35r18,102v-91,29,-260,51,-331,-12v-37,-33,-65,-128,-30,-186v33,-53,94,-78,131,-126v25,-31,14,-77,17,-127r112,0v-1,57,5,114,-16,153v-29,54,-88,74,-124,118v-11,13,-16,28,-16,43v1,54,23,70,81,70","w":460},"\u00c0":{"d":"652,0r-139,0r-58,-173r-231,0r-61,173r-134,0r263,-647r116,0xm423,-268r-79,-239r-85,239r164,0xm449,-692r-78,0r-131,-117r113,0","w":681},"\u00c1":{"d":"652,0r-139,0r-58,-173r-231,0r-61,173r-134,0r263,-647r116,0xm423,-268r-79,-239r-85,239r164,0xm456,-809r-131,117r-78,0r97,-117r112,0","w":681},"\u00c2":{"d":"652,0r-139,0r-58,-173r-231,0r-61,173r-134,0r263,-647r116,0xm423,-268r-79,-239r-85,239r164,0xm483,-694r-82,0r-53,-64r-56,64r-82,0r99,-117r78,0","w":681},"\u00c3":{"d":"652,0r-139,0r-58,-173r-231,0r-61,173r-134,0r263,-647r116,0xm423,-268r-79,-239r-85,239r164,0xm400,-739v26,0,45,-26,51,-45r60,28v-13,44,-56,77,-109,81v-32,3,-79,-45,-101,-45v-25,0,-42,13,-51,39r-60,-28v23,-51,46,-70,112,-75v26,-2,78,45,98,45","w":681},"\u00c4":{"d":"652,0r-139,0r-58,-173r-231,0r-61,173r-134,0r263,-647r116,0xm423,-268r-79,-239r-85,239r164,0xm477,-676r-102,0r0,-93r102,0r0,93xm318,-676r-102,0r0,-93r102,0r0,93","w":681},"\u00c5":{"d":"652,0r-139,0r-58,-173r-231,0r-61,173r-134,0r263,-647r116,0xm423,-268r-79,-239r-85,239r164,0xm355,-835v46,0,83,36,83,82v0,45,-38,82,-83,82v-44,0,-83,-38,-83,-82v0,-45,38,-82,83,-82xm355,-712v26,0,41,-18,41,-42v0,-24,-16,-42,-41,-42v-23,0,-42,21,-42,42v0,20,20,42,42,42","w":681},"\u00c6":{"d":"894,0r-374,0r-26,-173r-228,0r-93,173r-144,0r367,-647r489,0r0,97r-334,0r27,167r286,0r0,97r-269,0r33,189r266,0r0,97xm480,-268r-35,-240r-128,240r163,0","w":988},"\u00c7":{"d":"355,-77v59,2,103,-26,145,-41r39,106v-57,21,-116,31,-177,32r-1,5v42,-3,72,36,73,73v2,72,-67,118,-136,117v-31,0,-65,-3,-104,-8r24,-79v43,5,68,8,75,8v32,0,48,-12,48,-36v0,-38,-28,-34,-80,-36r14,-52v-144,-29,-216,-141,-216,-335v0,-208,91,-337,302,-338v59,0,116,9,171,27r-39,106v-56,-24,-100,-36,-132,-36v-134,2,-172,96,-172,240v0,148,32,243,166,247","w":575},"\u00c8":{"d":"487,0r-393,0r0,-647r384,0r0,97r-258,0r0,167r237,0r0,97r-237,0r0,189r267,0r0,97xm379,-692r-78,0r-131,-117r113,0","w":581},"\u00c9":{"d":"487,0r-393,0r0,-647r384,0r0,97r-258,0r0,167r237,0r0,97r-237,0r0,189r267,0r0,97xm371,-794r-131,117r-78,0r96,-117r113,0","w":581},"\u00ca":{"d":"487,0r-393,0r0,-647r384,0r0,97r-258,0r0,167r237,0r0,97r-237,0r0,189r267,0r0,97xm421,-692r-82,0r-53,-64r-56,64r-82,0r99,-117r78,0","w":581},"\u00cb":{"d":"487,0r-393,0r0,-647r384,0r0,97r-258,0r0,167r237,0r0,97r-237,0r0,189r267,0r0,97xm427,-676r-102,0r0,-93r102,0r0,93xm268,-676r-102,0r0,-93r102,0r0,93","w":581},"\u00cc":{"d":"208,0r-126,0r0,-647r126,0r0,647xm224,-692r-78,0r-131,-117r113,0","w":290},"\u00cd":{"d":"208,0r-126,0r0,-647r126,0r0,647xm255,-809r-131,117r-78,0r96,-117r113,0","w":290},"\u00ce":{"d":"208,0r-126,0r0,-647r126,0r0,647xm282,-688r-82,0r-53,-64r-56,64r-82,0r99,-117r78,0","w":290},"\u00cf":{"d":"208,0r-126,0r0,-647r126,0r0,647xm278,-716r-102,0r0,-93r102,0r0,93xm119,-716r-102,0r0,-93r102,0r0,93","w":290},"\u00d0":{"d":"305,-647v220,2,309,94,309,321v0,230,-85,323,-309,326r-211,0r0,-319r-65,0r0,-87r65,0r0,-241r211,0xm314,-97v133,-5,169,-73,170,-228v1,-145,-36,-230,-179,-225r-85,0r0,144r101,0r0,87r-101,0r0,222r94,0","w":673},"\u00d1":{"d":"633,0r-189,0r-230,-498r0,498r-120,0r0,-647r187,0r228,498r0,-498r124,0r0,647xm413,-738v26,0,45,-26,51,-45r60,28v-13,44,-56,77,-109,81v-32,3,-79,-45,-101,-45v-25,0,-42,13,-51,39r-60,-28v23,-51,46,-70,112,-75v26,-2,78,45,98,45","w":727},"\u00d2":{"d":"59,-321v0,-205,94,-339,306,-339v201,0,301,113,301,339v0,207,-90,340,-302,340v-203,0,-305,-113,-305,-340xm364,-78v136,0,172,-94,172,-243v0,-153,-36,-242,-172,-242v-136,0,-175,91,-175,242v0,157,35,243,175,243xm427,-692r-78,0r-131,-117r113,0","w":725},"\u00d3":{"d":"59,-321v0,-205,94,-339,306,-339v201,0,301,113,301,339v0,207,-90,340,-302,340v-203,0,-305,-113,-305,-340xm364,-78v136,0,172,-94,172,-243v0,-153,-36,-242,-172,-242v-136,0,-175,91,-175,242v0,157,35,243,175,243xm474,-809r-131,117r-78,0r96,-117r113,0","w":725},"\u00d4":{"d":"59,-321v0,-205,94,-339,306,-339v201,0,301,113,301,339v0,207,-90,340,-302,340v-203,0,-305,-113,-305,-340xm364,-78v136,0,172,-94,172,-243v0,-153,-36,-242,-172,-242v-136,0,-175,91,-175,242v0,157,35,243,175,243xm497,-692r-82,0r-53,-64r-56,64r-82,0r99,-117r78,0","w":725},"\u00d5":{"d":"59,-321v0,-205,94,-339,306,-339v201,0,301,113,301,339v0,207,-90,340,-302,340v-203,0,-305,-113,-305,-340xm364,-78v136,0,172,-94,172,-243v0,-153,-36,-242,-172,-242v-136,0,-175,91,-175,242v0,157,35,243,175,243xm419,-739v26,0,45,-26,51,-45r60,28v-13,44,-56,77,-109,81v-32,3,-79,-45,-101,-45v-25,0,-42,13,-51,39r-60,-28v23,-51,46,-70,112,-75v26,-2,78,45,98,45","w":725},"\u00d6":{"d":"59,-321v0,-205,94,-339,306,-339v201,0,301,113,301,339v0,207,-90,340,-302,340v-203,0,-305,-113,-305,-340xm364,-78v136,0,172,-94,172,-243v0,-153,-36,-242,-172,-242v-136,0,-175,91,-175,242v0,157,35,243,175,243xm495,-676r-102,0r0,-93r102,0r0,93xm336,-676r-102,0r0,-93r102,0r0,93","w":725},"\u00d7":{"d":"497,-94r-68,68r-158,-158r-158,158r-68,-68r158,-158r-158,-158r68,-68r158,158r158,-158r68,68r-158,158"},"\u00d8":{"d":"59,-321v1,-205,94,-339,306,-339v71,0,131,15,178,44r74,-87r82,75r-79,93v31,53,46,124,46,214v-1,207,-90,343,-302,340v-73,0,-133,-15,-180,-44r-86,101r-82,-75r90,-106v-31,-53,-47,-125,-47,-216xm364,-563v-136,0,-174,91,-175,242v0,42,3,78,9,108r272,-318v-26,-21,-61,-32,-106,-32xm364,-78v136,0,171,-94,172,-243v0,-40,-3,-75,-9,-105r-272,318v26,20,62,30,109,30","w":725},"\u00d9":{"d":"220,-249v-1,122,41,171,148,171v90,0,135,-57,135,-171r0,-398r126,0r0,410v1,169,-92,256,-261,256v-183,0,-274,-86,-274,-258r0,-408r126,0r0,398xm427,-692r-78,0r-131,-117r113,0","w":723},"\u00da":{"d":"220,-249v-1,122,41,171,148,171v90,0,135,-57,135,-171r0,-398r126,0r0,410v1,169,-92,256,-261,256v-183,0,-274,-86,-274,-258r0,-408r126,0r0,398xm491,-794r-131,117r-78,0r96,-117r113,0","w":723},"\u00db":{"d":"220,-249v-1,122,41,171,148,171v90,0,135,-57,135,-171r0,-398r126,0r0,410v1,169,-92,256,-261,256v-183,0,-274,-86,-274,-258r0,-408r126,0r0,398xm499,-692r-82,0r-53,-64r-56,64r-82,0r99,-117r78,0","w":723},"\u00dc":{"d":"220,-249v-1,122,41,171,148,171v90,0,135,-57,135,-171r0,-398r126,0r0,410v1,169,-92,256,-261,256v-183,0,-274,-86,-274,-258r0,-408r126,0r0,398xm498,-676r-102,0r0,-93r102,0r0,93xm339,-676r-102,0r0,-93r102,0r0,93","w":723},"\u00dd":{"d":"605,-647r-233,356r0,291r-126,0r0,-287r-232,-360r143,0r157,248r155,-248r136,0xm382,-809r-131,117r-78,0r96,-117r113,0","w":619},"\u00de":{"d":"550,-332v0,133,-73,200,-218,200r-112,0r0,132r-126,0r0,-647r126,0r0,121r101,0v153,0,229,65,229,194xm422,-332v1,-77,-34,-97,-103,-97r-99,0r0,200r104,0v65,0,98,-34,98,-103","w":600},"\u00df":{"d":"432,-500v1,93,-65,132,-122,164v76,27,147,57,171,140v14,49,14,114,-7,158v-43,93,-141,131,-272,134r39,-96v117,10,172,-129,107,-218v-26,-36,-78,-52,-128,-65r0,-89v59,-40,91,-60,96,-131v3,-40,-32,-67,-71,-67v-44,0,-66,29,-66,88r0,482r-113,0r0,-471v-1,-120,63,-186,179,-186v110,0,186,44,187,157","w":537},"\u00e0":{"d":"273,-470v101,0,173,47,173,146v0,95,-7,169,8,258r10,66r-107,0r-17,-46v-41,39,-80,59,-119,59v-105,0,-178,-37,-178,-133v0,-111,84,-167,251,-167r38,0v2,-57,-6,-96,-65,-96v-55,0,-111,13,-167,40r-39,-93v63,-23,133,-34,212,-34xm333,-121r0,-90v-93,-1,-172,7,-172,86v0,34,27,51,81,51v38,0,68,-16,91,-47xm320,-530r-78,0r-131,-117r113,0","w":522},"\u00e1":{"d":"273,-470v101,0,173,47,173,146v0,95,-7,169,8,258r10,66r-107,0r-17,-46v-41,39,-80,59,-119,59v-105,0,-178,-37,-178,-133v0,-111,84,-167,251,-167r38,0v2,-57,-6,-96,-65,-96v-55,0,-111,13,-167,40r-39,-93v63,-23,133,-34,212,-34xm333,-121r0,-90v-93,-1,-172,7,-172,86v0,34,27,51,81,51v38,0,68,-16,91,-47xm364,-647r-131,117r-78,0r96,-117r113,0","w":522},"\u00e2":{"d":"273,-470v101,0,173,47,173,146v0,95,-7,169,8,258r10,66r-107,0r-17,-46v-41,39,-80,59,-119,59v-105,0,-178,-37,-178,-133v0,-111,84,-167,251,-167r38,0v2,-57,-6,-96,-65,-96v-55,0,-111,13,-167,40r-39,-93v63,-23,133,-34,212,-34xm333,-121r0,-90v-93,-1,-172,7,-172,86v0,34,27,51,81,51v38,0,68,-16,91,-47xm379,-530r-82,0r-53,-64r-56,64r-82,0r99,-117r78,0","w":522},"\u00e3":{"d":"273,-470v101,0,173,47,173,146v0,95,-7,169,8,258r10,66r-107,0r-17,-46v-41,39,-80,59,-119,59v-105,0,-178,-37,-178,-133v0,-111,84,-167,251,-167r38,0v2,-57,-6,-96,-65,-96v-55,0,-111,13,-167,40r-39,-93v63,-23,133,-34,212,-34xm295,-577v30,-2,47,-29,62,-45r49,28v-13,44,-56,77,-109,81v-32,3,-79,-45,-101,-45v-25,0,-42,13,-51,39r-60,-28v23,-51,46,-70,112,-75v26,-2,78,46,98,45xm333,-121r0,-90v-93,-1,-172,7,-172,86v0,34,27,51,81,51v38,0,68,-16,91,-47","w":522},"\u00e4":{"d":"273,-470v101,0,173,47,173,146v0,95,-7,169,8,258r10,66r-107,0r-17,-46v-41,39,-80,59,-119,59v-105,0,-178,-37,-178,-133v0,-111,84,-167,251,-167r38,0v2,-57,-6,-96,-65,-96v-55,0,-111,13,-167,40r-39,-93v63,-23,133,-34,212,-34xm333,-121r0,-90v-93,-1,-172,7,-172,86v0,34,27,51,81,51v38,0,68,-16,91,-47xm388,-528r-103,0r0,-99r103,0r0,99xm227,-528r-103,0r0,-99r103,0r0,99","w":522},"\u00e5":{"d":"273,-470v101,0,173,47,173,146v0,95,-7,169,8,258r10,66r-107,0r-17,-46v-41,39,-80,59,-119,59v-105,0,-178,-37,-178,-133v0,-111,84,-167,251,-167r38,0v2,-57,-6,-96,-65,-96v-55,0,-111,13,-167,40r-39,-93v63,-23,133,-34,212,-34xm249,-671v46,0,83,36,83,82v0,45,-38,82,-83,82v-44,0,-83,-38,-83,-82v0,-45,38,-82,83,-82xm333,-121r0,-90v-93,-1,-172,7,-172,86v0,34,27,51,81,51v38,0,68,-16,91,-47xm249,-548v26,0,41,-18,41,-42v0,-24,-16,-42,-41,-42v-23,0,-42,21,-42,42v0,20,20,42,42,42","w":522},"\u00e6":{"d":"332,-287v2,-57,-6,-96,-65,-96v-55,0,-111,13,-167,40r-39,-93v63,-23,133,-34,212,-34v56,0,101,17,134,52v39,-35,84,-52,135,-52v177,3,215,101,218,288r-314,0v9,74,46,111,110,111v41,0,88,-13,140,-39r37,87v-53,24,-114,36,-185,36v-74,0,-145,-35,-167,-83v-48,55,-101,83,-160,83v-105,0,-178,-37,-178,-133v0,-111,84,-167,251,-167r38,0xm647,-266v-5,-78,-39,-117,-104,-117v-60,0,-97,45,-97,117r201,0xm333,-131r0,-74v-93,0,-172,1,-172,80v0,34,27,51,81,51v33,0,64,-19,91,-57","w":805},"\u00e7":{"d":"271,-383v-89,3,-111,56,-112,158v0,101,37,151,111,151v28,0,67,-13,116,-38r39,93v-31,15,-76,26,-133,31r-4,15v42,-2,70,34,70,71v3,71,-64,117,-132,117v-31,0,-65,-3,-104,-8r24,-75v43,5,68,8,75,8v27,0,53,-13,51,-40v-3,-38,-30,-34,-83,-36r15,-58v-102,-22,-161,-109,-161,-231v0,-150,78,-246,229,-245v41,0,119,20,149,32r-39,93v-51,-25,-88,-38,-111,-38","w":459},"\u00e8":{"d":"264,13v-167,0,-252,-153,-210,-321v23,-92,88,-163,206,-162v170,3,214,103,216,285r-314,0v8,67,41,113,110,114v43,0,91,-13,143,-39r37,87v-53,24,-115,36,-188,36xm367,-266v-5,-78,-41,-117,-108,-117v-60,0,-97,45,-97,117r205,0xm332,-530r-78,0r-131,-117r113,0","w":521},"\u00e9":{"d":"264,13v-167,0,-252,-153,-210,-321v23,-92,88,-163,206,-162v170,3,214,103,216,285r-314,0v8,67,41,113,110,114v43,0,91,-13,143,-39r37,87v-53,24,-115,36,-188,36xm367,-266v-5,-78,-41,-117,-108,-117v-60,0,-97,45,-97,117r205,0xm394,-647r-131,117r-78,0r96,-117r113,0","w":521},"\u00ea":{"d":"264,13v-167,0,-252,-153,-210,-321v23,-92,88,-163,206,-162v170,3,214,103,216,285r-314,0v8,67,41,113,110,114v43,0,91,-13,143,-39r37,87v-53,24,-115,36,-188,36xm367,-266v-5,-78,-41,-117,-108,-117v-60,0,-97,45,-97,117r205,0xm405,-530r-82,0r-53,-64r-56,64r-82,0r99,-117r78,0","w":521},"\u00eb":{"d":"264,13v-167,0,-252,-153,-210,-321v23,-92,88,-163,206,-162v170,3,214,103,216,285r-314,0v8,67,41,113,110,114v43,0,91,-13,143,-39r37,87v-53,24,-115,36,-188,36xm367,-266v-5,-78,-41,-117,-108,-117v-60,0,-97,45,-97,117r205,0xm400,-534r-102,0r0,-93r102,0r0,93xm241,-534r-102,0r0,-93r102,0r0,93","w":521},"\u00ec":{"d":"180,0r-113,0r0,-457r113,0r0,457xm214,-530r-78,0r-131,-117r113,0","w":247},"\u00ed":{"d":"180,0r-113,0r0,-457r113,0r0,457xm227,-647r-131,117r-78,0r96,-117r113,0","w":247},"\u00ee":{"d":"180,0r-113,0r0,-457r113,0r0,457xm268,-530r-82,0r-53,-64r-56,64r-82,0r99,-117r78,0","w":247},"\u00ef":{"d":"180,0r-113,0r0,-457r113,0r0,457xm254,-557r-102,0r0,-93r102,0r0,93xm95,-557r-102,0r0,-93r102,0r0,93","w":247},"\u00f0":{"d":"252,-405v49,1,108,33,125,74v0,-97,-34,-162,-103,-196r-78,52r-79,-46r57,-39v-12,-3,-52,-3,-76,-3r-37,-103v84,1,156,13,216,35r62,-44r77,46r-58,40v91,60,137,162,137,306v0,200,-77,300,-232,300v-115,0,-217,-85,-217,-201v0,-140,67,-223,206,-221xm172,-190v-2,68,31,113,90,113v87,0,105,-53,106,-159v-19,-50,-55,-75,-107,-75v-40,0,-67,16,-77,45v-10,28,-11,40,-12,76"},"\u00f1":{"d":"298,-471v125,-2,165,63,165,183r0,288r-113,0r0,-293v1,-56,-14,-92,-71,-91v-39,0,-72,29,-100,86r0,298r-113,0r0,-360v1,-34,-9,-68,-12,-97r104,0r18,60v29,-33,61,-73,122,-74xm309,-577v23,0,46,-21,41,-45r70,28v-13,44,-56,77,-109,81v-32,3,-79,-45,-101,-45v-25,0,-42,13,-51,39r-60,-28v23,-51,46,-70,112,-75v26,-2,78,45,98,45","w":469},"\u00f2":{"d":"269,-471v153,0,225,94,225,240v0,151,-72,243,-225,245v-152,2,-226,-100,-226,-245v0,-142,77,-240,226,-240xm269,-384v-86,0,-110,56,-110,153v0,105,37,158,110,158v73,0,109,-53,109,-158v0,-99,-20,-153,-109,-153xm354,-530r-78,0r-131,-117r113,0","w":537},"\u00f3":{"d":"269,-471v153,0,225,94,225,240v0,151,-72,243,-225,245v-152,2,-226,-100,-226,-245v0,-142,77,-240,226,-240xm269,-384v-86,0,-110,56,-110,153v0,105,37,158,110,158v73,0,109,-53,109,-158v0,-99,-20,-153,-109,-153xm390,-647r-131,117r-78,0r96,-117r113,0","w":537},"\u00f4":{"d":"269,-471v153,0,225,94,225,240v0,151,-72,243,-225,245v-152,2,-226,-100,-226,-245v0,-142,77,-240,226,-240xm269,-384v-86,0,-110,56,-110,153v0,105,37,158,110,158v73,0,109,-53,109,-158v0,-99,-20,-153,-109,-153xm406,-530r-82,0r-53,-64r-56,64r-82,0r99,-117r78,0","w":537},"\u00f5":{"d":"269,-471v153,0,225,94,225,240v0,151,-72,243,-225,245v-152,2,-226,-100,-226,-245v0,-142,77,-240,226,-240xm269,-384v-86,0,-110,56,-110,153v0,105,37,158,110,158v73,0,109,-53,109,-158v0,-99,-20,-153,-109,-153xm311,-577v26,0,45,-26,51,-45r60,28v-13,44,-56,77,-109,81v-32,3,-79,-45,-101,-45v-25,0,-42,13,-51,39r-60,-28v23,-51,46,-70,112,-75v26,-2,78,45,98,45","w":537},"\u00f6":{"d":"269,-471v153,0,225,94,225,240v0,151,-72,243,-225,245v-152,2,-226,-100,-226,-245v0,-142,77,-240,226,-240xm269,-384v-86,0,-110,56,-110,153v0,105,37,158,110,158v73,0,109,-53,109,-158v0,-99,-20,-153,-109,-153xm402,-534r-102,0r0,-93r102,0r0,93xm243,-534r-102,0r0,-93r102,0r0,93","w":537},"\u00f7":{"d":"330,-322r-120,0r0,-110r120,0r0,110xm495,-182r-450,0r0,-76r450,0r0,76xm330,-8r-120,0r0,-110r120,0r0,110"},"\u00f8":{"d":"43,-231v1,-142,77,-240,226,-240v47,0,88,9,122,27r50,-54r75,73r-51,56v19,38,29,84,29,138v-2,151,-72,244,-225,245v-51,0,-93,-10,-127,-31r-51,56r-75,-73r55,-61v-19,-37,-28,-82,-28,-136xm269,-384v-99,-2,-116,85,-108,192r165,-180v-15,-8,-34,-12,-57,-12xm378,-231v0,-10,-1,-24,-2,-41r-167,182v17,11,37,17,60,17v73,0,109,-53,109,-158","w":537},"\u00f9":{"d":"338,-530r-78,0r-131,-117r113,0xm456,-97v-1,34,9,68,12,97r-104,0r-18,-60v-28,31,-57,74,-118,74v-119,1,-162,-67,-162,-183r0,-288r113,0r0,293v-1,55,13,92,68,91v36,0,68,-29,96,-86r0,-298r113,0r0,360","w":522},"\u00fa":{"d":"456,-97v-1,34,9,68,12,97r-104,0r-18,-60v-28,31,-57,74,-118,74v-119,1,-162,-67,-162,-183r0,-288r113,0r0,293v-1,55,13,92,68,91v36,0,68,-29,96,-86r0,-298r113,0r0,360xm380,-647r-131,117r-78,0r96,-117r113,0","w":522},"\u00fb":{"d":"456,-97v-1,34,9,68,12,97r-104,0r-18,-60v-28,31,-57,74,-118,74v-119,1,-162,-67,-162,-183r0,-288r113,0r0,293v-1,55,13,92,68,91v36,0,68,-29,96,-86r0,-298r113,0r0,360xm394,-530r-82,0r-53,-64r-56,64r-82,0r99,-117r78,0","w":522},"\u00fc":{"d":"456,-97v-1,34,9,68,12,97r-104,0r-18,-60v-28,31,-57,74,-118,74v-119,1,-162,-67,-162,-183r0,-288r113,0r0,293v-1,55,13,92,68,91v36,0,68,-29,96,-86r0,-298r113,0r0,360xm391,-534r-102,0r0,-93r102,0r0,93xm232,-534r-102,0r0,-93r102,0r0,93","w":522},"\u00fd":{"d":"494,-457r-191,530v-33,87,-82,141,-174,172r-38,-93v47,-13,77,-34,88,-65r40,-106r-183,-438r121,0r117,311r102,-311r118,0xm369,-647r-131,117r-78,0r96,-117r113,0","w":530},"\u00fe":{"d":"299,-470v133,-2,189,107,189,239v1,133,-73,244,-205,244v-50,0,-88,-30,-107,-59r-18,247r-104,0v19,-258,10,-582,12,-858r113,0r0,260v35,-49,75,-73,120,-73xm278,-383v-57,0,-74,44,-101,88r0,157v20,43,49,64,88,64v71,0,107,-52,107,-155v0,-103,-31,-154,-94,-154","w":531},"\u00ff":{"d":"494,-457r-191,530v-33,87,-82,141,-174,172r-38,-93v47,-13,77,-34,88,-65r40,-106r-183,-438r121,0r117,311r102,-311r118,0xm407,-534r-102,0r0,-93r102,0r0,93xm248,-534r-102,0r0,-93r102,0r0,93","w":530},"\u0152":{"d":"59,-321v0,-205,94,-342,306,-339v41,0,76,4,105,13r442,0r0,97r-307,0v27,44,44,100,49,167r237,0r0,97r-236,0v-3,77,-20,140,-49,189r315,0r0,97r-434,0v-36,13,-77,19,-123,19v-203,0,-305,-113,-305,-340xm364,-78v136,0,162,-93,162,-243v0,-87,-12,-149,-37,-186v-25,-37,-66,-56,-125,-56v-136,0,-175,91,-175,242v0,157,35,243,175,243","w":1015},"\u0153":{"d":"43,-231v0,-142,77,-240,226,-240v73,0,128,22,167,65v37,-43,87,-64,152,-64v177,3,215,101,218,288r-314,0v9,74,46,111,110,111v41,0,88,-13,140,-39r37,87v-53,24,-114,36,-185,36v-66,0,-119,-22,-158,-67v-39,45,-94,68,-167,68v-152,0,-226,-100,-226,-245xm693,-266v-5,-78,-39,-117,-104,-117v-60,0,-97,45,-97,117r201,0xm269,-384v-86,0,-110,56,-110,153v0,105,37,158,110,158v73,0,109,-53,109,-158v0,-99,-20,-153,-109,-153","w":851},"\u0178":{"d":"605,-647r-233,356r0,291r-126,0r0,-287r-232,-360r143,0r157,248r155,-248r136,0xm447,-714r-101,0r0,-95r101,0r0,95xm290,-714r-100,0r0,-95r100,0r0,95","w":619},"\u02c6":{"d":"260,-530r-82,0r-53,-64r-56,64r-82,0r99,-117r78,0","w":247},"\u02dc":{"d":"173,-577v26,0,45,-26,51,-45r60,28v-13,44,-56,77,-109,81v-32,3,-79,-45,-101,-45v-25,0,-42,13,-51,39r-60,-28v23,-51,46,-70,112,-75v26,-2,78,45,98,45","w":247},"\u2013":{"d":"501,-195r-502,0r0,-86r502,0r0,86","w":500},"\u2014":{"d":"1001,-187r-1002,0r0,-94r1002,0r0,94","w":1000},"\u2018":{"d":"220,-648r-85,188r-90,0r99,-188r76,0","w":270},"\u2019":{"d":"220,-648r-98,188r-77,0r85,-188r90,0","w":270},"\u201a":{"d":"220,-100r-98,188r-77,0r85,-188r90,0","w":270},"\u201c":{"d":"370,-648r-85,188r-90,0r98,-188r77,0xm215,-648r-85,188r-90,0r99,-188r76,0","w":410},"\u201d":{"d":"370,-648r-99,188r-76,0r85,-188r90,0xm215,-648r-98,188r-77,0r85,-188r90,0","w":410},"\u201e":{"d":"370,-100r-99,188r-76,0r85,-188r90,0xm215,-100r-98,188r-77,0r85,-188r90,0","w":410},"\u2022":{"d":"270,-467v78,0,143,65,143,143v0,78,-65,144,-143,144v-80,0,-143,-65,-143,-144v0,-78,65,-143,143,-143"},"\u2026":{"d":"735,0r-120,0r0,-110r120,0r0,110xm465,0r-120,0r0,-110r120,0r0,110xm195,0r-120,0r0,-110r120,0r0,110","w":810},"\u2039":{"d":"239,-452r-97,180r96,180r-103,0r-93,-178r93,-182r104,0","w":270},"\u203a":{"d":"239,-270r-93,178r-103,0r96,-180r-97,-180r104,0","w":270},"\u2122":{"d":"845,-291r-74,0r0,-282r-109,282r-78,0r-109,-282r0,282r-72,0r0,-356r124,0r99,263r100,-263r119,0r0,356xm357,-593r-107,0r0,302r-75,0r0,-302r-107,0r0,-54r289,0r0,54","w":925}}});
