/*!
 * The following copyright notice may not be removed under any circumstances.
 * 
 * Copyright:
 * Copyright (c) 2003 by This Font is designed by Ralph Oliver du Carrois. All
 * rights reserved.
 * 
 * Trademark:
 * Colaborate1-Thin is a trademark of This Font is designed by Ralph Oliver du
 * Carrois.
 * 
 * Description:
 * Copyright (c) 2003 by This Font is designed by Ralph Oliver du Carrois. All
 * rights reserved.
 * 
 * Manufacturer:
 * This Font is designed by Ralph Oliver du Carrois
 */
Cufon.registerFont({"w":460,"face":{"font-family":"Colaborate-Thin","font-weight":400,"font-stretch":"normal","units-per-em":"1000","panose-1":"2 0 5 6 5 0 0 2 0 4","ascent":"800","descent":"-200","x-height":"10","bbox":"-29 -835 1001 197.019","underline-thickness":"50","underline-position":"-50","unicode-range":"U+0020-U+2122"},"glyphs":{" ":{"w":230},"!":{"d":"136,-164r-42,0r0,-483r42,0r0,483xm145,0r-59,0r0,-71r59,0r0,71","w":230},"\"":{"d":"260,-647r-8,217r-33,0r-8,-217r49,0xm129,-647r-8,217r-33,0r-8,-217r49,0","w":340},"#":{"d":"449,-399r-103,0r-28,159r92,0r0,39r-99,0r-35,201r-44,0r35,-201r-126,0r-35,201r-44,0r35,-201r-86,0r0,-39r93,0r28,-159r-82,0r0,-39r89,0r37,-209r44,0r-37,209r126,0r37,-209r44,0r-37,209r96,0r0,39xm302,-399r-126,0r-28,159r126,0"},"$":{"d":"251,-355v87,33,161,69,162,187v1,111,-67,166,-162,181r0,85r-44,0r0,-82v-39,0,-93,-9,-160,-28r18,-42v50,20,80,31,142,33r0,-298v-51,-19,-70,-27,-109,-56v-33,-25,-51,-61,-51,-117v-1,-104,65,-154,160,-163r0,-91r44,0r0,89v45,1,90,10,136,25r-18,42v-35,-14,-68,-31,-118,-30r0,265xm207,-372r0,-246v-75,11,-112,53,-112,126v0,74,51,94,112,120xm251,-27v64,-15,115,-59,114,-139v-1,-83,-50,-108,-114,-136r0,275"},"%":{"d":"631,-167v2,101,-21,176,-119,177v-52,0,-86,-21,-100,-60v-14,-40,-16,-65,-16,-117v0,-114,39,-171,117,-171v52,0,87,20,101,57v14,38,17,63,17,114xm294,-486v2,101,-21,176,-119,177v-52,0,-85,-22,-99,-61v-14,-40,-17,-64,-17,-116v0,-114,39,-171,117,-171v52,0,86,20,100,57v14,38,18,63,18,114xm547,-629r-362,629r-46,0r362,-629r46,0xm430,-167v0,77,6,150,82,151v40,0,64,-16,74,-48v17,-56,17,-145,0,-201v-10,-31,-33,-47,-73,-47v-55,0,-83,48,-83,145xm93,-486v0,77,6,150,82,151v40,0,63,-17,73,-49v17,-56,19,-144,2,-200v-10,-31,-34,-47,-74,-47v-55,0,-83,48,-83,145","w":690},"&":{"d":"241,-20v53,-2,104,-45,124,-84r0,-144r-111,0r0,-33r152,0v1,120,-3,138,8,281r-33,0r-12,-58v-31,47,-74,71,-128,71v-115,1,-195,-67,-195,-182v0,-87,41,-149,124,-188v-44,-35,-104,-60,-104,-138v0,-110,49,-165,147,-165v98,0,147,51,147,153v0,39,-10,71,-31,95v-21,24,-57,46,-108,69v-79,36,-131,65,-131,172v0,84,57,154,151,151xm205,-374v58,-26,111,-56,111,-134v0,-78,-27,-119,-106,-119v-66,0,-99,44,-99,131v0,66,55,93,94,122"},"'":{"d":"140,-647r-8,217r-33,0r-8,-217r49,0","w":230},"(":{"d":"107,-254v0,177,26,253,96,382r-38,0v-75,-134,-106,-198,-106,-382v0,-192,30,-260,101,-393r38,0v-68,128,-91,207,-91,393","w":255},")":{"d":"95,-647v71,133,101,201,101,393v0,184,-31,248,-106,382r-38,0v70,-129,96,-204,96,-382v0,-186,-23,-265,-91,-393r38,0","w":255},"*":{"d":"355,-505r-139,34r-1,5r90,115r-38,27r-78,-120r-6,0r-79,120r-39,-28r91,-114r-2,-5r-139,-35r16,-47r133,51r5,-4r-7,-141r48,0r-8,143r5,3r132,-51","w":370},"+":{"d":"433,-191r-180,0r0,191r-46,0r0,-191r-180,0r0,-40r180,0r0,-190r46,0r0,190r180,0r0,40"},",":{"d":"143,-75r-81,178r-34,0r60,-178r55,0","w":230},"-":{"d":"285,-232r-255,0r0,-40r255,0r0,40","w":315},".":{"d":"143,0r-56,0r0,-69r56,0r0,69","w":230},"\/":{"d":"244,-658r-214,668r-44,0r214,-668r44,0","w":230},"0":{"d":"43,-182v-17,-200,-15,-436,186,-436v103,0,157,50,178,138v22,96,20,215,7,320v-7,56,-27,85,-53,122v-44,63,-195,68,-251,14v-39,-36,-61,-90,-67,-158xm375,-308v0,-143,-8,-274,-146,-274v-96,0,-144,91,-144,274v0,99,8,184,47,242v27,40,104,54,158,33v34,-13,54,-49,66,-81v20,-53,18,-120,19,-194"},"1":{"d":"291,1r-46,0r0,-548r-116,102r-18,-42r138,-120r42,0r0,608"},"2":{"d":"208,-619v114,0,187,55,184,170v-3,118,-90,202,-154,265r-149,145r317,0r0,39r-355,0r-18,-40v12,-13,33,-34,65,-64v32,-30,60,-58,84,-83v45,-48,110,-115,140,-176v15,-30,22,-57,22,-82v0,-143,-147,-164,-250,-109r-32,15r-18,-42v54,-25,109,-38,164,-38"},"3":{"d":"237,-320v84,15,147,65,147,168v0,117,-86,166,-201,166v-76,0,-91,-3,-150,-23r18,-42v40,14,77,29,135,29v91,0,149,-42,150,-131v1,-118,-75,-147,-192,-149r0,-34v105,-2,177,-26,177,-129v0,-87,-44,-116,-125,-118v-31,0,-75,14,-134,43r-18,-42v49,-25,100,-37,152,-37v104,0,173,48,173,152v0,90,-55,137,-132,147"},"4":{"d":"440,-171r-96,0r0,171r-46,0r0,-171r-242,0r-18,-42r268,-394r38,0r0,399r96,0r0,37xm298,-208r0,-328r-222,328r222,0"},"5":{"d":"235,-385v119,0,176,78,176,197v1,127,-74,203,-201,202v-59,0,-110,-7,-153,-21r18,-42v45,18,90,27,136,27v100,0,154,-64,154,-168v0,-92,-43,-158,-129,-159v-33,0,-74,13,-125,38r-42,-18r0,-278r317,0r0,36r-271,0r0,211v34,-8,75,-25,120,-25"},"6":{"d":"238,-395v115,-1,178,83,178,199v0,109,-68,210,-178,210v-80,0,-132,-37,-158,-94v-43,-96,-47,-252,-12,-362v28,-88,97,-177,205,-177v37,0,76,5,116,16r-18,42v-41,-15,-72,-22,-93,-22v-57,0,-103,28,-138,83v-35,55,-53,128,-53,219v27,-58,74,-113,151,-114xm239,-22v85,-1,129,-81,129,-174v0,-109,-43,-163,-128,-163v-81,0,-120,56,-144,113v0,81,11,139,34,173v23,34,60,51,109,51"},"7":{"d":"399,-565r-234,565r-54,0r247,-569r-319,0r0,-38r342,0"},"8":{"d":"409,-467v0,85,-69,127,-134,148v99,34,149,92,149,174v0,117,-83,159,-197,159v-110,0,-190,-46,-191,-159v0,-83,49,-142,147,-175v-60,-29,-124,-60,-126,-146v-3,-103,72,-153,175,-153v118,0,177,51,177,152xm228,-336v56,-10,136,-65,136,-131v0,-78,-44,-117,-132,-117v-87,0,-130,39,-130,118v0,66,74,115,126,130xm227,-21v85,0,151,-37,151,-124v0,-74,-49,-126,-148,-156v-99,28,-148,80,-148,156v-1,84,61,124,145,124"},"9":{"d":"44,-409v0,-109,68,-210,178,-210v80,0,132,37,158,94v43,96,47,251,12,361v-28,88,-97,178,-205,178v-37,0,-76,-5,-116,-16r18,-42v41,15,72,22,93,22v57,0,103,-27,138,-82v35,-55,53,-129,53,-220v-27,58,-74,113,-151,114v-115,1,-178,-83,-178,-199xm220,-246v81,0,120,-56,144,-113v0,-81,-11,-139,-34,-173v-23,-34,-60,-51,-109,-51v-85,1,-129,81,-129,174v0,109,43,163,128,163"},":":{"d":"143,-383r-56,0r0,-69r56,0r0,69xm143,0r-56,0r0,-69r56,0r0,69","w":230},";":{"d":"139,-383r-56,0r0,-69r56,0r0,69xm143,-75r-81,178r-34,0r55,-178r60,0","w":230},"<":{"d":"430,-12r-400,-179r0,-58r400,-179r0,49r-357,160r357,158r0,49"},"=":{"d":"430,-284r-400,0r0,-44r400,0r0,44xm430,-112r-400,0r0,-43r400,0r0,43"},">":{"d":"430,-191r-400,179r0,-49r357,-160r-357,-158r0,-49r400,179r0,58"},"?":{"d":"308,-510v0,-81,-40,-109,-121,-110v-32,0,-71,12,-118,35r-18,-42v57,-20,103,-30,136,-30v111,0,167,49,167,147v0,128,-152,129,-160,254r0,98r-46,0v2,-62,-8,-128,16,-171v31,-56,93,-80,128,-130v11,-15,16,-32,16,-51xm201,0r-59,0r0,-71r59,0r0,71","w":385},"@":{"d":"83,-320v0,-205,148,-339,351,-337v172,3,290,103,293,275v3,168,-116,258,-283,257v-115,1,-201,-75,-201,-194v0,-130,127,-234,261,-178r0,214r42,-7r15,36r-94,15r0,-235v-105,-24,-180,48,-180,152v0,104,59,164,159,164v146,0,237,-74,237,-223v0,-153,-104,-243,-249,-243v-185,-1,-307,114,-307,304v0,191,118,303,303,303v96,-1,135,-11,212,-38r15,36v-61,23,-138,35,-230,35v-209,0,-344,-128,-344,-336","w":810},"A":{"d":"573,0r-52,0r-75,-203r-284,0r-80,203r-47,0r263,-647r31,0xm434,-238r-123,-341r-135,341r258,0","w":608},"B":{"d":"467,-482v-2,72,-47,121,-103,143v89,21,133,74,133,158v0,70,-22,118,-63,146v-74,50,-214,31,-334,35r0,-647v171,3,372,-33,367,165xm263,-351v89,0,157,-39,156,-130v-2,-115,-51,-126,-170,-129r-103,0r0,259r117,0xm276,-37v116,-3,172,-25,172,-144v0,-111,-72,-134,-183,-134r-119,0r0,278r130,0","w":557},"C":{"d":"113,-324v0,166,45,303,208,303v43,0,91,-11,146,-33r18,42v-103,36,-236,43,-313,-18v-77,-61,-107,-157,-107,-293v0,-195,67,-332,262,-334v54,0,104,8,151,23r-18,42v-43,-19,-88,-28,-133,-28v-143,0,-214,99,-214,296","w":527},"D":{"d":"231,-647v234,3,309,85,309,321v0,231,-81,324,-309,326r-131,0r0,-647r131,0xm240,-37v181,0,252,-103,252,-288v0,-206,-56,-283,-261,-285r-85,0r0,573r94,0","w":605},"E":{"d":"453,0r-353,0r0,-647r344,0r0,37r-298,0r0,257r277,0r0,37r-277,0r0,279r307,0r0,37","w":513},"F":{"d":"444,-609r-298,0r0,260r286,0r0,36r-286,0r0,313r-46,0r0,-647r344,0r0,38","w":502},"G":{"d":"333,-620v-167,2,-219,117,-220,296v0,202,71,303,213,303v37,0,84,-16,143,-47r0,-201r-143,0r0,-37r185,0r0,267v-64,31,-104,55,-188,55v-172,0,-258,-113,-258,-340v0,-222,89,-333,267,-333v37,0,84,8,143,23r-18,42v-43,-19,-84,-28,-124,-28","w":576},"H":{"d":"524,0r-46,0r0,-315r-332,0r0,315r-46,0r0,-647r46,0r0,294r332,0r0,-294r46,0r0,647","w":624},"I":{"d":"134,0r-46,0r0,-647r46,0r0,647","w":222},"J":{"d":"275,-204v-3,76,-17,136,-59,173v-30,26,-41,35,-82,49v-41,15,-56,16,-101,26r-13,-44r57,-11v38,-8,81,-23,105,-47v30,-29,47,-75,47,-136r0,-453r46,0r0,443","w":375},"K":{"d":"536,0r-62,0r-328,-321r0,321r-46,0r0,-647r46,0r0,305r311,-305r49,0r-316,308","w":553},"L":{"d":"455,0r-355,0r0,-647r46,0r0,607r309,0r0,40","w":464},"M":{"d":"693,0r-44,0r0,-597r-240,597r-25,0r-244,-597r0,597r-40,0r0,-647r63,0r236,579r236,-579r58,0r0,647","w":793},"N":{"d":"547,0r-64,0r-343,-593r0,593r-40,0r0,-647r62,0r341,593r0,-593r44,0r0,647","w":647},"O":{"d":"331,-657v198,1,261,137,261,336v0,197,-69,337,-262,337v-200,0,-265,-135,-265,-337v0,-197,72,-337,266,-336xm330,-21v171,0,214,-128,214,-300v0,-95,-16,-169,-47,-221v-31,-52,-87,-78,-167,-78v-172,0,-217,126,-217,299v0,175,47,300,217,300","w":657},"P":{"d":"267,-647v133,1,209,49,209,179v0,123,-66,185,-198,185r-132,0r0,283r-46,0r0,-647r167,0xm270,-320v112,-2,158,-35,158,-148v0,-110,-54,-142,-163,-142r-119,0r0,290r124,0","w":532},"Q":{"d":"331,-657v198,1,261,137,261,336v0,197,-69,337,-262,337v-200,0,-265,-135,-265,-337v0,-197,72,-337,266,-336xm538,54r-18,43r-206,-30r18,-30xm330,-21v171,0,214,-128,214,-300v0,-95,-16,-169,-47,-221v-31,-52,-87,-78,-167,-78v-172,0,-217,126,-217,299v0,175,47,300,217,300","w":657},"R":{"d":"282,-647v114,1,199,49,199,167v0,120,-65,180,-194,180r225,300r-56,0r-222,-299r-88,0r0,299r-46,0r0,-647r182,0xm433,-480v0,-87,-49,-130,-146,-130r-141,0r0,274r142,0v97,0,145,-48,145,-144","w":558},"S":{"d":"70,-494v-4,-172,214,-191,363,-135r-18,42v-51,-22,-97,-33,-138,-33v-106,0,-159,42,-159,126v0,63,45,91,88,110v107,47,248,64,247,219v0,121,-73,181,-219,181v-41,0,-95,-9,-164,-28r18,-42v59,22,108,33,147,33v93,-1,174,-42,170,-142v-5,-146,-168,-139,-259,-197v-45,-29,-75,-66,-76,-134","w":526},"T":{"d":"470,-609r-198,0r0,609r-46,0r0,-609r-198,0r0,-38r442,0r0,38","w":498},"U":{"d":"334,-21v142,0,175,-74,175,-228r0,-398r46,0r0,410v-1,167,-60,253,-221,253v-173,0,-234,-80,-234,-255r0,-408r46,0r0,398v2,164,35,228,188,228","w":655},"V":{"d":"549,-647r-235,647r-38,0r-245,-647r51,0r215,577r204,-577r48,0","w":580},"W":{"d":"797,-647r-176,647r-48,0r-156,-546r-158,546r-50,0r-172,-647r48,0r153,579r158,-552r48,0r156,554r154,-581r43,0","w":834},"X":{"d":"512,0r-58,0r-180,-301r-191,301r-50,0r216,-334r-189,-313r54,0r164,273r171,-273r50,0r-199,306","w":551},"Y":{"d":"515,-647r-220,356r0,291r-46,0r0,-287r-232,-360r52,0r205,315r195,-315r46,0","w":532},"Z":{"d":"481,-605r-386,567r378,0r0,38r-409,0r-18,-42r385,-567r-348,0r0,-38r380,0","w":527},"[":{"d":"209,127r-125,0r0,-803r125,0r0,34r-79,0r0,732r79,0r0,37","w":255},"\\":{"d":"244,10r-44,0r-214,-668r44,0","w":230},"]":{"d":"171,125r-125,0r0,-37r79,0r0,-732r-79,0r0,-34r125,0r0,803","w":255},"^":{"d":"426,-269r-51,0r-145,-302r-146,302r-47,0r181,-378r23,0"},"_":{"d":"501,95r-502,0r0,-33r502,0r0,33","w":500},"`":{"d":"169,-530r-39,0r-111,-117r54,0","w":188},"a":{"d":"232,-467v93,0,147,52,147,147v0,135,-6,171,12,320r-33,0v1,-6,-16,-52,-16,-58v-23,38,-72,69,-133,68v-85,0,-160,-44,-160,-130v0,-51,19,-87,53,-114v38,-30,139,-42,236,-39r0,-42v0,-79,-35,-119,-105,-119v-46,0,-96,13,-149,39r-15,-36v62,-24,116,-36,163,-36xm209,-23v61,0,109,-32,130,-73r0,-143v-137,1,-246,-1,-246,118v0,64,47,98,116,98","w":457},"b":{"d":"250,-467v124,0,172,108,172,236v0,133,-48,242,-177,241v-56,1,-112,-34,-135,-68r-13,58r-33,0v5,-51,8,-98,8,-140r0,-517r41,0r0,272v21,-39,76,-82,137,-82xm247,-434v-75,0,-113,52,-136,103r0,232v31,51,73,76,124,76v95,0,143,-69,143,-206v0,-69,-12,-121,-35,-155v-23,-34,-55,-50,-96,-50","w":471},"c":{"d":"239,10v-135,0,-190,-96,-190,-235v0,-161,64,-242,193,-242v38,0,82,10,131,29r-15,36v-43,-21,-82,-32,-117,-32v-99,0,-148,70,-148,209v0,135,49,202,147,202v39,0,79,-11,120,-32r15,36v-27,14,-97,29,-136,29","w":415},"d":{"d":"224,-467v65,0,111,42,134,82r0,-272r41,0r0,517v0,42,3,89,8,140r-33,0r-13,-58v-24,34,-78,69,-135,68v-129,0,-177,-108,-177,-241v-1,-124,57,-236,175,-236xm228,-434v-99,0,-135,89,-135,205v0,137,48,206,143,206v51,0,93,-25,124,-76r0,-232v-21,-51,-58,-103,-132,-103","w":471},"e":{"d":"231,10v-189,0,-219,-250,-145,-394v24,-47,73,-83,143,-83v143,0,180,104,180,248r-315,0v0,131,48,196,145,196v43,0,90,-14,141,-41r12,37v-51,25,-105,37,-161,37xm369,-252v-1,-114,-33,-182,-140,-182v-96,0,-130,81,-136,182r276,0","w":461},"f":{"d":"255,-636v-86,9,-120,32,-123,112r0,67r94,0r0,33r-94,0r0,424r-41,0r0,-424r-76,0r0,-33r76,0v-2,-73,0,-135,39,-171v27,-25,64,-40,115,-44","w":235},"g":{"d":"235,-129v-26,0,-80,-13,-94,-23v-30,32,-39,63,1,84v18,8,54,16,109,22v70,7,119,20,147,40v28,20,41,45,41,74v-1,91,-98,130,-198,129v-135,0,-202,-42,-202,-125v0,-54,56,-91,100,-100v-43,-17,-64,-41,-64,-72v0,-36,18,-50,40,-71v-30,-31,-55,-68,-53,-129v4,-100,63,-167,171,-167v33,0,59,4,76,13v81,-7,123,-10,125,-10r-15,36r-70,0v30,20,59,73,58,125v-1,103,-60,174,-172,174xm236,-162v87,0,126,-56,127,-139v1,-84,-46,-133,-128,-133v-86,0,-129,58,-129,136v0,81,45,136,130,136xm241,164v86,1,154,-25,154,-96v0,-46,-46,-59,-92,-69v-29,-5,-70,-10,-125,-15v-49,8,-95,41,-95,88v0,61,53,92,158,92","w":471},"h":{"d":"248,-467v107,0,149,70,149,171r0,296r-41,0r0,-274v-2,-99,-19,-157,-115,-160v-60,-2,-117,60,-129,103r0,331r-40,0r0,-657r41,0r0,272v20,-40,76,-82,135,-82","w":469},"i":{"d":"118,-579r-48,0r0,-68r48,0r0,68xm115,0r-41,0r0,-457r41,0r0,457","w":188},"j":{"d":"113,-579r-48,0r0,-68r48,0r0,68xm-24,103v63,-15,93,-31,93,-100r0,-460r41,0r0,451v-2,91,-42,125,-122,146","w":183},"k":{"d":"400,0r-52,0r-235,-244r0,244r-41,0r0,-657r41,0r0,392r216,-192r47,0r-228,198","w":418},"l":{"d":"113,0r-41,0r0,-657r41,0r0,657","w":185},"m":{"d":"381,-366v30,-52,67,-101,142,-101v103,0,155,58,155,175r0,292r-41,0r0,-290v1,-88,-29,-144,-118,-144v-60,-1,-109,61,-126,107r0,327r-41,0r0,-290v0,-83,-35,-144,-114,-144v-59,-1,-111,56,-125,102r0,332r-41,0r0,-352v0,-9,-3,-44,-8,-105r33,0r14,72v37,-55,82,-82,133,-82v71,0,116,34,137,101","w":750},"n":{"d":"72,-360v1,-23,-7,-77,-8,-97r33,0r13,72r17,-23v28,-33,61,-59,119,-59v101,0,151,60,151,179r0,288r-41,0r0,-280v1,-92,-24,-154,-116,-154v-61,0,-111,57,-127,102r0,332r-41,0r0,-360","w":469},"o":{"d":"49,-231v0,-141,53,-236,190,-236v126,0,189,79,189,236v0,161,-63,241,-189,241v-127,0,-190,-80,-190,-241xm239,-23v118,0,145,-87,145,-208v0,-116,-30,-202,-145,-203v-109,0,-145,90,-146,203v0,139,49,208,146,208","w":477},"p":{"d":"247,-467v131,-1,174,107,175,241v1,124,-54,237,-172,236v-59,0,-105,-22,-137,-66r0,236r-41,0r0,-502v0,-48,-3,-93,-8,-135r33,0r15,73v33,-55,78,-83,135,-83xm244,-23v98,-3,134,-89,134,-205v0,-137,-46,-206,-139,-206v-60,0,-114,56,-127,103r0,234v28,38,64,76,132,74","w":471},"q":{"d":"226,-467v59,0,110,44,133,83r15,-73r33,0v-5,42,-8,87,-8,135r0,502r-41,0r0,-236v-32,44,-78,66,-137,66v-119,1,-172,-112,-172,-236v0,-129,52,-242,177,-241xm227,-23v69,0,104,-36,132,-74r0,-234v-14,-46,-68,-104,-128,-103v-101,2,-138,96,-138,206v0,68,12,120,36,154v24,34,57,51,98,51","w":471},"r":{"d":"307,-445r-15,36v-36,-29,-94,-35,-124,-3v-22,23,-42,62,-55,92r0,320r-41,0r0,-355v0,-7,-3,-41,-8,-102r33,0r13,86v26,-44,49,-96,115,-96v29,0,57,7,82,22","w":320},"s":{"d":"306,-408v-69,-39,-218,-42,-218,62v0,43,35,59,64,70v85,33,194,39,195,154v1,86,-68,133,-155,132v-61,0,-110,-9,-147,-28r15,-36v57,22,67,28,136,31v78,3,127,-64,98,-137v-9,-21,-44,-38,-64,-46v-63,-24,-141,-36,-175,-90v-7,-14,-11,-29,-11,-47v0,-90,73,-124,166,-124v28,0,71,10,129,30r-15,36v-3,-1,-10,-3,-18,-7","w":396},"t":{"d":"125,-110v2,77,48,102,123,115r-11,38v-91,-17,-153,-56,-153,-153r0,-314r-69,0r0,-33r69,0r0,-114r41,0r0,114r104,0r0,33r-104,0r0,314","w":263},"u":{"d":"390,-97v-1,23,7,77,8,97r-33,0r-13,-72v-28,42,-65,83,-137,82v-95,0,-143,-60,-143,-179r0,-288r41,0r0,280v2,94,19,154,113,154v62,0,107,-56,123,-102r0,-332r41,0r0,360","w":462},"v":{"d":"423,-457r-175,457r-29,0r-177,-457r44,0r150,396r147,-396r40,0","w":465},"w":{"d":"626,-457r-158,457r-38,0r-101,-343r-107,343r-40,0r-140,-457r43,0r120,403r111,-357r34,0r102,354r135,-400r39,0","w":668},"x":{"d":"402,0r-55,0r-133,-203r-142,203r-46,0r164,-231r-153,-226r53,0r128,191r131,-191r45,0r-155,219","w":428},"y":{"d":"422,-457r-191,530v-28,72,-48,89,-122,117r-12,-38v47,-13,77,-34,88,-65r40,-106r-183,-438r44,-1r160,392r136,-391r40,0","w":464},"z":{"d":"350,-421r-263,388r253,0r0,33r-283,0r-15,-36r264,-388r-244,0r0,-33r273,0","w":392},"{":{"d":"296,118v-77,-1,-132,-39,-149,-96v-14,-48,-22,-115,-25,-171v-3,-51,-25,-95,-74,-98r0,-37v49,-1,70,-45,72,-94v2,-56,10,-124,24,-172v17,-57,74,-96,152,-97r0,37v-79,-2,-123,40,-132,104v-12,92,4,208,-73,242v78,26,66,145,77,238v8,64,50,109,128,107r0,37","w":340},"|":{"d":"135,166r-40,0r0,-868r40,0r0,868","w":230},"}":{"d":"292,-247v-49,3,-71,47,-74,98v-3,56,-11,123,-25,171v-17,57,-72,95,-149,96r0,-37v79,2,119,-43,128,-107v11,-92,-2,-210,77,-238v-48,-19,-65,-85,-67,-149v-2,-68,-4,-132,-44,-167v-22,-19,-52,-30,-94,-30r0,-37v78,1,135,39,152,97v14,48,22,115,24,172v2,49,23,93,72,94r0,37","w":340},"~":{"d":"327,-198v42,0,70,-28,70,-69r39,18v2,60,-51,95,-108,95v-27,0,-62,-12,-105,-36v-43,-24,-74,-37,-93,-37v-45,0,-67,23,-67,70r-39,-18v-2,-62,47,-91,106,-95v40,-3,158,72,197,72"},"\u00a0":{"w":230},"\u00a1":{"d":"145,-576r-59,0r0,-71r59,0r0,71xm137,0r-42,0r0,-483r42,0r0,483","w":230},"\u00a2":{"d":"365,-19v-31,15,-68,24,-112,28r0,90r-39,0r0,-90v-110,-11,-165,-89,-165,-234v0,-149,55,-230,165,-241r0,-91r39,0r0,90v29,1,65,11,110,29r-15,36v-36,-18,-68,-28,-95,-31r0,409v29,-3,62,-14,97,-31xm214,-25r0,-407v-81,12,-121,81,-121,207v0,122,40,189,121,200","w":405},"\u00a3":{"d":"435,0r-386,0r0,-39r70,0r0,-308r-70,0r0,-39r70,0v-2,-92,11,-166,59,-209v30,-26,41,-35,82,-49v41,-15,56,-16,101,-26r13,44r-57,11v-38,8,-80,24,-105,47v-39,36,-51,102,-47,182r186,0r0,39r-186,0r0,307r270,0r0,40"},"\u00a4":{"d":"95,-406v20,-142,84,-251,239,-251v48,0,98,9,151,27r-12,45v-92,-48,-217,-52,-273,23v-29,38,-48,90,-57,156r284,0r-10,37r-278,0v-1,16,-1,67,0,84r256,0r-10,37r-243,0v15,128,52,225,185,227v33,0,79,-12,137,-35r0,49v-51,15,-97,23,-137,23v-136,0,-214,-88,-233,-264r-94,0r10,-37r81,0v-1,-16,-1,-69,0,-84r-91,0r10,-37r85,0"},"\u00a5":{"d":"451,-647r-187,346r151,0r0,39r-156,0r0,81r156,0r0,39r-156,0r0,142r-46,0r0,-142r-154,0r0,-39r154,0r0,-81r-154,0r0,-39r147,0r-197,-346r52,0r177,310r167,-310r46,0"},"\u00a6":{"d":"138,-359r-46,0r0,-234r46,0r0,234xm138,78r-46,0r0,-234r46,0r0,234","w":230},"\u00a7":{"d":"353,-586v-39,-22,-55,-34,-108,-35v-74,0,-111,29,-111,87v0,74,104,74,164,98v46,18,91,55,90,118v0,51,-35,88,-75,101v39,21,59,55,59,101v2,84,-71,133,-155,132v-53,0,-99,-9,-139,-28r15,-39v46,20,67,30,126,31v64,1,110,-32,107,-95v-5,-116,-167,-89,-228,-152v-16,-17,-26,-37,-26,-63v0,-55,24,-92,73,-111v-38,-19,-57,-49,-57,-90v-2,-85,72,-126,156,-126v38,0,79,11,124,32xm267,-240v64,-16,88,-56,68,-114v-7,-19,-36,-34,-55,-40r-82,-25v-53,7,-80,35,-80,86v0,28,28,52,48,59"},"\u00a8":{"d":"191,-584r-47,0r0,-63r47,0r0,63xm44,-584r-47,0r0,-63r47,0r0,63","w":188},"\u00a9":{"d":"360,-658v186,0,335,149,335,334v0,184,-152,334,-335,334v-183,0,-335,-151,-335,-334v0,-184,152,-334,335,-334xm360,-23v160,0,296,-142,296,-301v0,-162,-134,-301,-296,-301v-163,0,-296,139,-296,301v0,159,136,301,296,301xm187,-322v1,-117,51,-202,170,-200v31,0,64,5,98,16r-12,32v-33,-13,-61,-20,-86,-20v-89,0,-134,57,-134,171v0,117,43,176,130,176v23,0,55,-8,95,-23r11,32v-39,13,-75,19,-106,19v-116,1,-166,-86,-166,-203","w":720},"\u00aa":{"d":"137,-628v80,-31,189,-33,191,61v1,75,-4,94,8,176r-25,0r-10,-31v-34,60,-179,48,-176,-35v3,-80,77,-89,174,-87v3,-52,-12,-80,-63,-79v-29,0,-59,7,-90,21xm221,-409v34,0,66,-19,78,-43r0,-67v-76,2,-139,-3,-141,62v0,32,21,48,63,48"},"\u00ab":{"d":"305,-452r-97,180r96,180r-43,0r-93,-178r93,-182r44,0xm175,-452r-97,180r96,180r-43,0r-93,-178r93,-182r44,0","w":340},"\u00ac":{"d":"440,-118r-46,0r0,-181r-379,0r0,-39r425,0r0,220"},"\u00ad":{"d":"285,-232r-255,0r0,-40r255,0r0,40","w":315},"\u00ae":{"d":"360,-658v186,0,335,149,335,334v0,184,-152,334,-335,334v-183,0,-335,-151,-335,-334v0,-184,152,-334,335,-334xm360,-23v160,0,296,-142,296,-301v0,-162,-134,-301,-296,-301v-163,0,-296,139,-296,301v0,159,136,301,296,301xm491,-417v-2,71,-45,112,-126,110r146,178r-42,0r-144,-178r-47,0r0,178r-34,0r0,-389r118,0v71,0,130,30,129,101xm366,-335v62,1,89,-26,89,-82v0,-55,-31,-72,-90,-72r-87,0r0,154r88,0","w":720},"\u00af":{"d":"203,-578r-218,0r0,-46r218,0r0,46","w":188},"\u00b0":{"d":"185,-613v73,0,135,60,135,134v0,74,-63,131,-136,131v-73,0,-134,-57,-134,-131v0,-74,62,-134,135,-134xm184,-390v46,0,90,-42,90,-89v0,-52,-38,-92,-89,-92v-51,0,-90,40,-90,92v0,47,42,89,89,89","w":370},"\u00b1":{"d":"433,-251r-180,0r0,131r-46,0r0,-131r-180,0r0,-40r180,0r0,-130r46,0r0,130r180,0r0,40xm430,-2r-400,0r0,-43r400,0r0,43"},"\u00b2":{"d":"53,-636v84,-40,215,-28,213,76v0,43,-42,95,-66,118v-15,14,-35,32,-61,54r-50,44r181,0r0,27r-213,0r-11,-22v7,-7,23,-22,50,-45v51,-45,78,-65,114,-118v16,-23,23,-42,23,-59v0,-54,-27,-69,-83,-70v-25,0,-54,8,-87,24","w":315},"\u00b3":{"d":"57,-636v73,-37,200,-30,200,63v0,48,-26,75,-79,81v59,9,88,39,88,92v0,97,-134,103,-216,79r11,-29v33,11,60,16,81,16v60,0,90,-22,90,-66v0,-66,-47,-78,-115,-79r0,-25v62,-1,105,-9,106,-68v0,-50,-26,-58,-75,-59v-17,0,-44,8,-80,24","w":315},"\u00b4":{"d":"169,-647r-111,117r-39,0r96,-117r54,0","w":188},"\u00b5":{"d":"389,-97v-1,23,7,77,8,97r-33,0r-13,-72v-29,41,-59,82,-127,82v-50,0,-87,-14,-112,-42r0,212r-41,0r0,-637r41,0r0,280v2,94,19,154,113,154v62,0,106,-66,123,-112r0,-322r41,0r0,360"},"\u00b6":{"d":"264,-338v-100,-5,-163,-53,-163,-151v0,-105,60,-158,181,-158r185,0r0,835r-46,0r0,-796r-101,0v-67,0,-108,42,-108,114v0,60,50,92,98,106r0,576r-46,0r0,-526","w":540},"\u00b7":{"d":"150,-252r-70,0r0,-75r70,0r0,75","w":230},"\u00b8":{"d":"102,32v41,-2,72,26,73,62v0,49,-29,73,-86,73v-17,0,-45,-3,-84,-8r14,-38v37,5,59,7,65,7v24,0,50,-9,48,-32v-3,-33,-31,-30,-80,-32r21,-79r39,0","w":188},"\u00b9":{"d":"193,-313r-33,0r0,-295r-70,56r-10,-29r82,-66r31,0r0,334","w":315},"\u00ba":{"d":"344,-527v0,88,-38,132,-113,132v-76,0,-114,-44,-114,-132v0,-87,38,-130,114,-130v75,0,113,43,113,130xm148,-527v1,65,19,108,83,108v55,0,82,-36,82,-108v-1,-65,-18,-106,-82,-106v-55,0,-83,35,-83,106"},"\u00bb":{"d":"302,-270r-93,178r-43,0r96,-180r-97,-180r44,0xm172,-270r-93,178r-43,0r96,-180r-97,-180r44,0","w":340},"\u00bc":{"d":"584,-91r-53,0r0,91r-33,0r0,-91r-144,0r-12,-26r161,-217r28,0r0,217r53,0r0,26xm509,-629r-367,629r-41,0r364,-629r44,0xm178,-313r-33,0r0,-295r-70,56r-10,-29r82,-66r31,0r0,334xm498,-117r0,-172r-127,172r127,0","w":690},"\u00bd":{"d":"401,-320v83,-38,215,-27,213,76v-1,44,-42,94,-66,118v-27,26,-77,69,-111,99r181,0r0,27r-213,0r-12,-28v3,-3,25,-21,66,-56v41,-35,72,-65,92,-90v20,-25,30,-49,30,-71v0,-54,-27,-69,-83,-70v-23,0,-52,8,-87,25xm509,-629r-362,629r-46,0r362,-629r46,0xm178,-313r-33,0r0,-295r-70,56r-10,-29r82,-66r31,0r0,334","w":690},"\u00be":{"d":"609,-91r-53,0r0,91r-33,0r0,-91r-144,0r-12,-26r161,-217r28,0r0,217r53,0r0,26xm534,-629r-363,629r-45,0r362,-629r46,0xm52,-636v74,-37,200,-30,200,63v0,48,-26,75,-79,81v59,9,88,39,88,92v0,97,-134,103,-216,79r11,-29v33,11,60,16,81,16v60,0,90,-22,90,-66v0,-66,-47,-78,-115,-79r0,-25v62,-1,105,-9,106,-68v0,-50,-26,-58,-75,-59v-17,0,-44,8,-80,24xm523,-117r0,-172r-127,172r127,0","w":690},"\u00bf":{"d":"263,-576r-59,0r0,-71r59,0r0,71xm97,-137v0,81,40,109,121,110v32,0,71,-12,118,-35r18,42v-57,20,-103,30,-136,30v-111,0,-167,-49,-167,-147v0,-128,152,-129,160,-254r0,-98r46,0v-2,62,7,128,-17,171v-31,56,-91,80,-126,130v-11,15,-17,32,-17,51","w":385},"\u00c0":{"d":"573,0r-52,0r-75,-203r-284,0r-80,203r-47,0r263,-647r31,0xm434,-238r-123,-341r-135,341r258,0xm398,-681r-39,0r-111,-117r54,0","w":608},"\u00c1":{"d":"573,0r-52,0r-75,-203r-284,0r-80,203r-47,0r263,-647r31,0xm434,-238r-123,-341r-135,341r258,0xm385,-794r-111,117r-39,0r96,-117r54,0","w":608},"\u00c2":{"d":"573,0r-52,0r-75,-203r-284,0r-80,203r-47,0r263,-647r31,0xm434,-238r-123,-341r-135,341r258,0xm418,-702r-40,0r-66,-74r-68,74r-40,0r84,-107r48,0","w":608},"\u00c3":{"d":"573,0r-52,0r-75,-203r-284,0r-80,203r-47,0r263,-647r31,0xm434,-238r-123,-341r-135,341r258,0xm271,-764v16,-1,75,33,90,33v19,0,32,-13,41,-39r35,15v-14,39,-39,59,-74,59v-17,0,-75,-40,-93,-36v-21,0,-36,15,-44,45r-35,-15v20,-41,29,-58,80,-62","w":608},"\u00c4":{"d":"573,0r-52,0r-75,-203r-284,0r-80,203r-47,0r263,-647r31,0xm434,-238r-123,-341r-135,341r258,0xm410,-696r-47,0r0,-63r47,0r0,63xm263,-696r-47,0r0,-63r47,0r0,63","w":608},"\u00c5":{"d":"573,0r-52,0r-75,-203r-284,0r-80,203r-47,0r263,-647r31,0xm434,-238r-123,-341r-135,341r258,0xm312,-835v46,0,83,36,83,82v0,45,-38,82,-83,82v-44,0,-83,-38,-83,-82v0,-45,38,-82,83,-82xm312,-702v32,0,51,-22,51,-52v0,-29,-21,-52,-51,-52v-28,0,-53,26,-52,52v0,25,25,52,52,52","w":608},"\u00c6":{"d":"795,0r-287,0r-37,-203r-272,0r-114,203r-50,0r367,-647r384,0r0,37r-343,0r49,257r273,0r0,37r-265,0r51,279r244,0r0,37xm464,-238r-61,-337r-186,337r247,0","w":855},"\u00c7":{"d":"113,-324v0,166,45,303,208,303v43,0,91,-11,146,-33r18,42v-46,17,-94,26,-144,28r-3,16v41,-2,72,26,73,62v0,49,-29,73,-86,73v-17,0,-45,-3,-84,-8r14,-38v37,5,59,7,65,7v24,0,50,-9,48,-32v-3,-33,-31,-30,-80,-32r13,-49v-173,-9,-236,-150,-236,-338v0,-195,67,-332,262,-334v54,0,104,8,151,23r-18,42v-43,-19,-88,-28,-133,-28v-143,0,-214,99,-214,296","w":527},"\u00c8":{"d":"453,0r-353,0r0,-647r344,0r0,37r-298,0r0,257r277,0r0,37r-277,0r0,279r307,0r0,37xm334,-682r-39,0r-111,-117r54,0","w":513},"\u00c9":{"d":"453,0r-353,0r0,-647r344,0r0,37r-298,0r0,257r277,0r0,37r-277,0r0,279r307,0r0,37xm380,-794r-111,117r-39,0r96,-117r54,0","w":513},"\u00ca":{"d":"453,0r-353,0r0,-647r344,0r0,37r-298,0r0,257r277,0r0,37r-277,0r0,279r307,0r0,37xm384,-687r-40,0r-66,-74r-68,74r-40,0r84,-107r48,0","w":513},"\u00cb":{"d":"453,0r-353,0r0,-647r344,0r0,37r-298,0r0,257r277,0r0,37r-277,0r0,279r307,0r0,37xm370,-696r-47,0r0,-63r47,0r0,63xm223,-696r-47,0r0,-63r47,0r0,63","w":513},"\u00cc":{"d":"136,0r-46,0r0,-647r46,0r0,647xm187,-692r-39,0r-111,-117r53,0","w":222},"\u00cd":{"d":"134,0r-46,0r0,-647r46,0r0,647xm188,-809r-111,117r-39,0r96,-117r54,0","w":222},"\u00ce":{"d":"134,0r-46,0r0,-647r46,0r0,647xm218,-702r-40,0r-66,-74r-68,74r-40,0r84,-107r48,0","w":222},"\u00cf":{"d":"135,0r-46,0r0,-647r46,0r0,647xm208,-696r-47,0r0,-63r47,0r0,63xm61,-696r-47,0r0,-63r47,0r0,63","w":222},"\u00d0":{"d":"231,-647v234,3,309,85,309,321v0,231,-81,324,-309,326r-131,0r0,-349r-71,0r0,-37r71,0r0,-261r131,0xm240,-37v181,0,252,-103,252,-288v0,-206,-56,-283,-261,-285r-85,0r0,224r175,0r0,37r-175,0r0,312r94,0","w":605},"\u00d1":{"d":"547,0r-64,0r-343,-593r0,593r-40,0r0,-647r62,0r341,593r0,-593r44,0r0,647xm263,-761v16,-1,75,33,90,33v19,0,32,-13,41,-39r35,15v-14,39,-39,59,-74,59v-17,0,-75,-40,-93,-36v-21,0,-36,15,-44,45r-35,-15v20,-41,29,-58,80,-62","w":647},"\u00d2":{"d":"331,-657v198,1,261,137,261,336v0,197,-69,337,-262,337v-200,0,-265,-135,-265,-337v0,-197,72,-337,266,-336xm330,-21v171,0,214,-128,214,-300v0,-95,-16,-169,-47,-221v-31,-52,-87,-78,-167,-78v-172,0,-217,126,-217,299v0,175,47,300,217,300xm384,-682r-39,0r-111,-117r54,0","w":657},"\u00d3":{"d":"331,-657v198,1,261,137,261,336v0,197,-69,337,-262,337v-200,0,-265,-135,-265,-337v0,-197,72,-337,266,-336xm330,-21v171,0,214,-128,214,-300v0,-95,-16,-169,-47,-221v-31,-52,-87,-78,-167,-78v-172,0,-217,126,-217,299v0,175,47,300,217,300xm440,-794r-111,117r-39,0r96,-117r54,0","w":657},"\u00d4":{"d":"331,-657v198,1,261,137,261,336v0,197,-69,337,-262,337v-200,0,-265,-135,-265,-337v0,-197,72,-337,266,-336xm330,-21v171,0,214,-128,214,-300v0,-95,-16,-169,-47,-221v-31,-52,-87,-78,-167,-78v-172,0,-217,126,-217,299v0,175,47,300,217,300xm439,-687r-40,0r-66,-74r-68,74r-40,0r84,-107r48,0","w":657},"\u00d5":{"d":"331,-657v198,1,261,137,261,336v0,197,-69,337,-262,337v-200,0,-265,-135,-265,-337v0,-197,72,-337,266,-336xm330,-21v171,0,214,-128,214,-300v0,-95,-16,-169,-47,-221v-31,-52,-87,-78,-167,-78v-172,0,-217,126,-217,299v0,175,47,300,217,300xm283,-761v16,-1,75,33,90,33v19,0,32,-13,41,-39r35,15v-14,39,-39,59,-74,59v-17,0,-75,-40,-93,-36v-21,0,-36,15,-44,45r-35,-15v20,-41,29,-58,80,-62","w":657},"\u00d6":{"d":"331,-657v198,1,261,137,261,336v0,197,-69,337,-262,337v-200,0,-265,-135,-265,-337v0,-197,72,-337,266,-336xm330,-21v171,0,214,-128,214,-300v0,-95,-16,-169,-47,-221v-31,-52,-87,-78,-167,-78v-172,0,-217,126,-217,299v0,175,47,300,217,300xm427,-696r-47,0r0,-63r47,0r0,63xm280,-696r-47,0r0,-63r47,0r0,63","w":657},"\u00d7":{"d":"411,-64r-32,32r-148,-149r-148,149r-32,-32r149,-148r-149,-148r32,-32r148,149r148,-149r32,32r-149,148"},"\u00d8":{"d":"65,-321v1,-197,72,-337,266,-336v79,0,141,23,185,69r81,-96r31,29r-86,101v33,55,50,132,50,233v-1,197,-69,338,-262,337v-90,0,-157,-28,-200,-84r-83,98r-31,-29r90,-106v-27,-53,-41,-125,-41,-216xm330,-620v-172,0,-217,126,-217,299v0,73,9,132,26,177r349,-411v-35,-43,-87,-65,-158,-65xm330,-21v171,0,214,-128,214,-300v0,-85,-11,-150,-33,-196r-351,414v35,55,92,82,170,82","w":657},"\u00d9":{"d":"334,-21v142,0,175,-74,175,-228r0,-398r46,0r0,410v-1,167,-60,253,-221,253v-173,0,-234,-80,-234,-255r0,-408r46,0r0,398v2,164,35,228,188,228xm394,-682r-39,0r-111,-117r54,0","w":655},"\u00da":{"d":"334,-21v142,0,175,-74,175,-228r0,-398r46,0r0,410v-1,167,-60,253,-221,253v-173,0,-234,-80,-234,-255r0,-408r46,0r0,398v2,164,35,228,188,228xm414,-797r-111,117r-39,0r96,-117r54,0","w":655},"\u00db":{"d":"334,-21v142,0,175,-74,175,-228r0,-398r46,0r0,410v-1,167,-60,253,-221,253v-173,0,-234,-80,-234,-255r0,-408r46,0r0,398v2,164,35,228,188,228xm431,-687r-40,0r-66,-74r-68,74r-40,0r84,-107r48,0","w":655},"\u00dc":{"d":"334,-21v142,0,175,-74,175,-228r0,-398r46,0r0,410v-1,167,-60,253,-221,253v-173,0,-234,-80,-234,-255r0,-408r46,0r0,398v2,164,35,228,188,228xm430,-696r-47,0r0,-63r47,0r0,63xm283,-696r-47,0r0,-63r47,0r0,63","w":655},"\u00dd":{"d":"515,-647r-220,356r0,291r-46,0r0,-287r-232,-360r52,0r205,315r195,-315r46,0xm373,-809r-111,117r-39,0r96,-117r54,0","w":532},"\u00de":{"d":"196,-524v129,0,218,52,218,180v0,134,-96,188,-228,189r-68,0r0,155r-46,0r0,-649r46,0r0,125r78,0xm368,-344v0,-94,-55,-141,-166,-141r-84,0r0,288v104,2,199,-1,234,-71v11,-21,16,-46,16,-76"},"\u00df":{"d":"215,-657v84,-1,150,53,145,137v-5,82,-73,125,-126,162v89,38,185,88,187,213v3,135,-82,185,-219,182r11,-36v107,1,171,-39,169,-148v-2,-88,-72,-138,-132,-169v-19,-10,-37,-16,-54,-21r0,-35v82,-53,123,-103,123,-151v0,-66,-46,-101,-104,-101v-88,0,-102,44,-102,142r0,482r-41,0r0,-471v2,-123,26,-184,143,-186","w":472},"\u00e0":{"d":"232,-467v93,0,147,52,147,147v0,135,-6,171,12,320r-33,0v1,-6,-16,-52,-16,-58v-23,38,-72,69,-133,68v-85,0,-160,-44,-160,-130v0,-51,19,-87,53,-114v38,-30,139,-42,236,-39r0,-42v0,-79,-35,-119,-105,-119v-46,0,-96,13,-149,39r-15,-36v62,-24,116,-36,163,-36xm209,-23v61,0,109,-32,130,-73r0,-143v-137,1,-246,-1,-246,118v0,64,47,98,116,98xm256,-530r-39,0r-111,-117r54,0","w":457},"\u00e1":{"d":"232,-467v93,0,147,52,147,147v0,135,-6,171,12,320r-33,0v1,-6,-16,-52,-16,-58v-23,38,-72,69,-133,68v-85,0,-160,-44,-160,-130v0,-51,19,-87,53,-114v38,-30,139,-42,236,-39r0,-42v0,-79,-35,-119,-105,-119v-46,0,-96,13,-149,39r-15,-36v62,-24,116,-36,163,-36xm209,-23v61,0,109,-32,130,-73r0,-143v-137,1,-246,-1,-246,118v0,64,47,98,116,98xm325,-647r-111,117r-39,0r96,-117r54,0","w":457},"\u00e2":{"d":"232,-467v93,0,147,52,147,147v0,135,-6,171,12,320r-33,0v1,-6,-16,-52,-16,-58v-23,38,-72,69,-133,68v-85,0,-160,-44,-160,-130v0,-51,19,-87,53,-114v38,-30,139,-42,236,-39r0,-42v0,-79,-35,-119,-105,-119v-46,0,-96,13,-149,39r-15,-36v62,-24,116,-36,163,-36xm209,-23v61,0,109,-32,130,-73r0,-143v-137,1,-246,-1,-246,118v0,64,47,98,116,98xm323,-540r-40,0r-66,-74r-68,74r-40,0r84,-107r48,0","w":457},"\u00e3":{"d":"232,-467v93,0,147,52,147,147v0,135,-6,171,12,320r-33,0v1,-6,-16,-52,-16,-58v-23,38,-72,69,-133,68v-85,0,-160,-44,-160,-130v0,-51,19,-87,53,-114v38,-30,139,-42,236,-39r0,-42v0,-79,-35,-119,-105,-119v-46,0,-96,13,-149,39r-15,-36v62,-24,116,-36,163,-36xm209,-23v61,0,109,-32,130,-73r0,-143v-137,1,-246,-1,-246,118v0,64,47,98,116,98xm171,-620v16,-1,75,33,90,33v19,0,32,-13,41,-39r35,15v-14,39,-39,59,-74,59v-17,0,-75,-40,-93,-36v-21,0,-36,15,-44,45r-35,-15v20,-41,29,-58,80,-62","w":457},"\u00e4":{"d":"232,-467v93,0,147,52,147,147v0,135,-6,171,12,320r-33,0v1,-6,-16,-52,-16,-58v-23,38,-72,69,-133,68v-85,0,-160,-44,-160,-130v0,-51,19,-87,53,-114v38,-30,139,-42,236,-39r0,-42v0,-79,-35,-119,-105,-119v-46,0,-96,13,-149,39r-15,-36v62,-24,116,-36,163,-36xm209,-23v61,0,109,-32,130,-73r0,-143v-137,1,-246,-1,-246,118v0,64,47,98,116,98xm177,-550r-48,0r0,-67r48,0r0,67xm325,-550r-47,0r0,-67r47,0r0,67","w":457},"\u00e5":{"d":"232,-467v93,0,147,52,147,147v0,135,-6,171,12,320r-33,0v1,-6,-16,-52,-16,-58v-23,38,-72,69,-133,68v-85,0,-160,-44,-160,-130v0,-51,19,-87,53,-114v38,-30,139,-42,236,-39r0,-42v0,-79,-35,-119,-105,-119v-46,0,-96,13,-149,39r-15,-36v62,-24,116,-36,163,-36xm209,-23v61,0,109,-32,130,-73r0,-143v-137,1,-246,-1,-246,118v0,64,47,98,116,98xm220,-671v46,0,83,36,83,82v0,45,-38,82,-83,82v-44,0,-83,-38,-83,-82v0,-45,38,-82,83,-82xm220,-538v32,0,51,-22,51,-52v0,-29,-21,-52,-51,-52v-28,0,-53,26,-52,52v0,25,25,52,52,52","w":457},"\u00e6":{"d":"209,10v-87,0,-160,-41,-160,-130v0,-51,19,-87,53,-114v38,-31,143,-42,240,-39r0,-42v0,-79,-36,-119,-109,-119v-46,0,-96,13,-149,39r-15,-36v62,-24,116,-36,163,-36v75,0,121,30,139,90v29,-60,77,-90,145,-90v145,0,180,102,182,248r-316,0v0,131,48,196,145,196v42,0,87,-13,136,-39r12,37v-49,23,-101,35,-156,35v-72,0,-122,-31,-151,-94v-37,57,-74,94,-159,94xm657,-252v-1,-114,-33,-182,-140,-182v-96,0,-130,81,-136,182r276,0xm209,-23v59,0,114,-39,133,-80r0,-136v-137,1,-249,-2,-249,118v0,65,46,98,116,98","w":749},"\u00e7":{"d":"91,-225v0,108,44,202,149,201v37,0,73,-12,110,-35r0,47v-31,11,-62,18,-93,21r-5,23v40,-2,73,28,73,62v0,45,-34,73,-86,71v-27,0,-55,-2,-84,-6r0,-37v37,5,64,7,79,7v23,0,52,-12,50,-33v-3,-32,-33,-32,-82,-33r15,-54v-113,-10,-168,-106,-168,-234v0,-141,58,-239,192,-239v36,0,71,7,106,21r0,44v-30,-23,-65,-34,-106,-34v-112,0,-149,91,-150,208","w":405},"\u00e8":{"d":"231,10v-189,0,-219,-250,-145,-394v24,-47,73,-83,143,-83v143,0,180,104,180,248r-315,0v0,131,48,196,145,196v43,0,90,-14,141,-41r12,37v-51,25,-105,37,-161,37xm369,-252v-1,-114,-33,-182,-140,-182v-96,0,-130,81,-136,182r276,0xm273,-530r-39,0r-111,-117r54,0","w":461},"\u00e9":{"d":"231,10v-189,0,-219,-250,-145,-394v24,-47,73,-83,143,-83v143,0,180,104,180,248r-315,0v0,131,48,196,145,196v43,0,90,-14,141,-41r12,37v-51,25,-105,37,-161,37xm369,-252v-1,-114,-33,-182,-140,-182v-96,0,-130,81,-136,182r276,0xm309,-647r-111,117r-39,0r96,-117r54,0","w":461},"\u00ea":{"d":"231,10v-189,0,-219,-250,-145,-394v24,-47,73,-83,143,-83v143,0,180,104,180,248r-315,0v0,131,48,196,145,196v43,0,90,-14,141,-41r12,37v-51,25,-105,37,-161,37xm369,-252v-1,-114,-33,-182,-140,-182v-96,0,-130,81,-136,182r276,0xm331,-540r-40,0r-66,-74r-68,74r-40,0r84,-107r48,0","w":461},"\u00eb":{"d":"231,10v-189,0,-219,-250,-145,-394v24,-47,73,-83,143,-83v143,0,180,104,180,248r-315,0v0,131,48,196,145,196v43,0,90,-14,141,-41r12,37v-51,25,-105,37,-161,37xm369,-252v-1,-114,-33,-182,-140,-182v-96,0,-130,81,-136,182r276,0xm331,-564r-47,0r0,-63r47,0r0,63xm184,-564r-47,0r0,-63r47,0r0,63","w":461},"\u00ec":{"d":"168,-530r-39,0r-111,-117r54,0xm115,0r-41,0r0,-457r41,0r0,457","w":188},"\u00ed":{"d":"170,-647r-111,117r-39,0r96,-117r54,0xm115,0r-41,0r0,-457r41,0r0,457","w":188},"\u00ee":{"d":"201,-540r-40,0r-66,-74r-68,74r-40,0r84,-107r48,0xm113,0r-41,0r0,-457r41,0r0,457","w":188},"\u00ef":{"d":"191,-574r-47,0r0,-63r47,0r0,63xm44,-574r-47,0r0,-63r47,0r0,63xm116,0r-41,0r0,-457r41,0r0,457","w":188},"\u00f0":{"d":"222,-395v77,1,124,56,151,114v0,-137,-38,-232,-114,-285r-91,61r-39,-23r91,-61v-29,-14,-63,-25,-102,-33r-20,-46v65,13,118,31,159,54r83,-56r39,23r-85,57v81,61,121,164,121,307v0,85,-8,143,-35,203v-25,57,-78,93,-158,94v-110,2,-178,-101,-178,-210v0,-116,63,-200,178,-199xm92,-196v0,93,43,173,129,174v49,0,86,-17,109,-51v23,-34,34,-92,34,-173v-24,-57,-63,-113,-144,-113v-85,0,-128,54,-128,163"},"\u00f1":{"d":"72,-360v1,-23,-7,-77,-8,-97r33,0r13,72r17,-23v28,-33,61,-59,119,-59v101,0,151,60,151,179r0,288r-41,0r0,-280v1,-92,-24,-154,-116,-154v-61,0,-111,57,-127,102r0,332r-41,0r0,-360xm199,-620v16,-1,75,33,90,33v19,0,32,-13,41,-39r35,15v-14,39,-39,59,-74,59v-17,0,-75,-40,-93,-36v-21,0,-36,15,-44,45r-35,-15v20,-41,29,-58,80,-62","w":469},"\u00f2":{"d":"49,-231v0,-141,53,-236,190,-236v126,0,189,79,189,236v0,161,-63,241,-189,241v-127,0,-190,-80,-190,-241xm239,-23v118,0,145,-87,145,-208v0,-116,-30,-202,-145,-203v-109,0,-145,90,-146,203v0,139,49,208,146,208xm295,-530r-39,0r-111,-117r54,0","w":477},"\u00f3":{"d":"49,-231v0,-141,53,-236,190,-236v126,0,189,79,189,236v0,161,-63,241,-189,241v-127,0,-190,-80,-190,-241xm239,-23v118,0,145,-87,145,-208v0,-116,-30,-202,-145,-203v-109,0,-145,90,-146,203v0,139,49,208,146,208xm321,-647r-111,117r-39,0r96,-117r54,0","w":477},"\u00f4":{"d":"49,-231v0,-141,53,-236,190,-236v126,0,189,79,189,236v0,161,-63,241,-189,241v-127,0,-190,-80,-190,-241xm239,-23v118,0,145,-87,145,-208v0,-116,-30,-202,-145,-203v-109,0,-145,90,-146,203v0,139,49,208,146,208xm347,-540r-40,0r-66,-74r-68,74r-40,0r84,-107r48,0","w":477},"\u00f5":{"d":"49,-231v0,-141,53,-236,190,-236v126,0,189,79,189,236v0,161,-63,241,-189,241v-127,0,-190,-80,-190,-241xm239,-23v118,0,145,-87,145,-208v0,-116,-30,-202,-145,-203v-109,0,-145,90,-146,203v0,139,49,208,146,208xm183,-620v16,-1,75,33,90,33v19,0,32,-13,41,-39r35,15v-14,39,-39,59,-74,59v-17,0,-75,-40,-93,-36v-21,0,-36,15,-44,45r-35,-15v20,-41,29,-58,80,-62","w":477},"\u00f6":{"d":"49,-231v0,-141,53,-236,190,-236v126,0,189,79,189,236v0,161,-63,241,-189,241v-127,0,-190,-80,-190,-241xm239,-23v118,0,145,-87,145,-208v0,-116,-30,-202,-145,-203v-109,0,-145,90,-146,203v0,139,49,208,146,208xm330,-564r-47,0r0,-63r47,0r0,63xm183,-564r-47,0r0,-63r47,0r0,63","w":477},"\u00f7":{"d":"259,-363r-56,0r0,-69r56,0r0,69xm430,-196r-400,0r0,-43r400,0r0,43xm259,-20r-56,0r0,-69r56,0r0,69"},"\u00f8":{"d":"49,-231v-2,-141,53,-236,190,-236v64,0,112,20,143,61r60,-65r32,30r-69,74v15,37,23,82,23,136v0,161,-63,241,-189,241v-57,0,-102,-17,-135,-52r-60,63r-32,-30r67,-70v-20,-40,-30,-91,-30,-152xm239,-434v-109,0,-145,90,-146,203v0,47,6,87,17,119r244,-264v-23,-39,-62,-58,-115,-58xm239,-23v118,0,143,-87,145,-208v0,-40,-4,-74,-11,-101r-242,261v23,32,59,48,108,48","w":477},"\u00f9":{"d":"289,-530r-39,0r-111,-117r54,0xm390,-97v-1,23,7,77,8,97r-33,0r-13,-72v-28,42,-65,83,-137,82v-95,0,-143,-60,-143,-179r0,-288r41,0r0,280v2,94,19,154,113,154v62,0,107,-56,123,-102r0,-332r41,0r0,360","w":462},"\u00fa":{"d":"390,-97v-1,23,7,77,8,97r-33,0r-13,-72v-28,42,-65,83,-137,82v-95,0,-143,-60,-143,-179r0,-288r41,0r0,280v2,94,19,154,113,154v62,0,107,-56,123,-102r0,-332r41,0r0,360xm313,-647r-111,117r-39,0r96,-117r54,0","w":462},"\u00fb":{"d":"390,-97v-1,23,7,77,8,97r-33,0r-13,-72v-28,42,-65,83,-137,82v-95,0,-143,-60,-143,-179r0,-288r41,0r0,280v2,94,19,154,113,154v62,0,107,-56,123,-102r0,-332r41,0r0,360xm341,-540r-40,0r-66,-74r-68,74r-40,0r84,-107r48,0","w":462},"\u00fc":{"d":"390,-97v-1,23,7,77,8,97r-33,0r-13,-72v-28,42,-65,83,-137,82v-95,0,-143,-60,-143,-179r0,-288r41,0r0,280v2,94,19,154,113,154v62,0,107,-56,123,-102r0,-332r41,0r0,360xm328,-564r-47,0r0,-63r47,0r0,63xm181,-564r-47,0r0,-63r47,0r0,63","w":462},"\u00fd":{"d":"422,-457r-191,530v-28,72,-48,89,-122,117r-12,-38v47,-13,77,-34,88,-65r40,-106r-183,-438r44,-1r160,392r136,-391r40,0xm325,-647r-111,117r-39,0r96,-117r54,0","w":464},"\u00fe":{"d":"250,-467v124,0,172,108,172,236v0,133,-48,242,-177,241v-56,1,-112,-34,-135,-68r-13,238r-33,0v14,-183,6,-603,8,-837r41,0r0,272v21,-39,76,-82,137,-82xm247,-434v-75,0,-113,52,-136,103r0,232v31,51,73,76,124,76v95,0,143,-69,143,-206v0,-69,-12,-121,-35,-155v-23,-34,-55,-50,-96,-50","w":471},"\u00ff":{"d":"422,-457r-191,530v-28,72,-48,89,-122,117r-12,-38v47,-13,77,-34,88,-65r40,-106r-183,-438r44,-1r160,392r136,-391r40,0xm331,-565r-46,0r0,-62r46,0r0,62xm186,-565r-46,0r0,-62r46,0r0,62","w":464},"\u0152":{"d":"65,-321v0,-197,72,-337,266,-336v30,0,57,3,81,10r416,0r0,37r-342,0v58,45,89,130,94,257r227,0r0,37r-226,0v0,135,-31,228,-92,279r348,0r0,37r-410,0v-31,11,-63,16,-97,16v-200,1,-265,-135,-265,-337xm330,-21v168,-1,204,-131,204,-300v1,-170,-36,-298,-204,-299v-172,0,-217,126,-217,299v0,175,47,300,217,300","w":897},"\u0153":{"d":"49,-231v0,-141,53,-236,190,-236v89,0,145,40,168,120v25,-80,77,-120,154,-120v145,0,180,102,182,248r-316,0v0,131,48,196,145,196v42,0,87,-13,136,-39r12,37v-49,23,-101,35,-156,35v-81,0,-134,-39,-159,-118v-23,79,-79,118,-166,118v-127,0,-190,-80,-190,-241xm702,-252v-1,-114,-33,-182,-140,-182v-96,0,-130,81,-136,182r276,0xm239,-23v118,0,145,-87,145,-208v0,-116,-30,-202,-145,-203v-109,0,-145,90,-146,203v0,139,49,208,146,208","w":794},"\u0178":{"d":"515,-647r-220,356r0,291r-46,0r0,-287r-232,-360r52,0r205,315r195,-315r46,0xm373,-716r-47,0r0,-63r47,0r0,63xm226,-716r-47,0r0,-63r47,0r0,63","w":532},"\u02c6":{"d":"201,-540r-40,0r-66,-74r-68,74r-40,0r84,-107r48,0","w":188},"\u02dc":{"d":"51,-620v16,-1,75,33,90,33v19,0,32,-13,41,-39r35,15v-14,39,-39,59,-74,59v-17,0,-75,-40,-93,-36v-21,0,-36,15,-44,45r-35,-15v20,-41,29,-58,80,-62","w":188},"\u2013":{"d":"501,-218r-502,0r0,-44r502,0r0,44","w":500},"\u2014":{"d":"1001,-218r-1002,0r0,-44r1002,0r0,44","w":1000},"\u2018":{"d":"180,-648r-85,188r-50,0r99,-188r36,0","w":230},"\u2019":{"d":"185,-647r-97,188r-38,0r83,-188r52,0","w":230},"\u201a":{"d":"185,-100r-97,188r-38,0r83,-188r52,0","w":230},"\u201c":{"d":"300,-648r-85,188r-50,0r98,-188r37,0xm175,-648r-85,188r-50,0r99,-188r36,0","w":340},"\u201d":{"d":"300,-647r-99,188r-38,0r85,-188r52,0xm175,-647r-98,188r-37,0r85,-188r50,0","w":340},"\u201e":{"d":"300,-100r-99,188r-38,0r85,-188r52,0xm175,-100r-98,188r-37,0r85,-188r50,0","w":340},"\u2022":{"d":"230,-443v65,0,119,54,119,119v0,65,-54,120,-119,120v-65,0,-119,-55,-119,-120v0,-65,54,-119,119,-119"},"\u2026":{"d":"603,0r-56,0r0,-69r56,0r0,69xm373,0r-56,0r0,-69r56,0r0,69xm143,0r-56,0r0,-69r56,0r0,69","w":690},"\u2039":{"d":"179,-452r-97,180r96,180r-43,0r-93,-178r93,-182r44,0","w":230},"\u203a":{"d":"188,-270r-93,178r-43,0r96,-180r-97,-180r44,0","w":230},"\u2122":{"d":"770,-292r-30,0r0,-322r-144,322r-15,0r-146,-322r0,322r-28,0r0,-355r41,0r142,312r142,-312r38,0r0,355xm355,-620r-117,0r0,329r-32,0r0,-329r-116,0r0,-27r265,0r0,27","w":890}}});
