/*!
 * The following copyright notice may not be removed under any circumstances.
 * 
 * Copyright:
 * Copyright (c) 2003 by This Font is designed by Ralph Oliver du Carrois. All
 * rights reserved.
 * 
 * Trademark:
 * Colaborate-Bold is a trademark of This Font is designed by Ralph Oliver du
 * Carrois.
 * 
 * Description:
 * Copyright (c) 2003 by This Font is designed by Ralph Oliver du Carrois. All
 * rights reserved.
 * 
 * Manufacturer:
 * This Font is designed by Ralph Oliver du Carrois
 */
Cufon.registerFont({"w":566,"face":{"font-family":"Colaborate-Bold","font-weight":400,"font-stretch":"normal","units-per-em":"1000","panose-1":"2 0 8 3 2 0 0 2 0 4","ascent":"800","descent":"-200","x-height":"15","bbox":"-40 -835 1001 263","underline-thickness":"50","underline-position":"-50","unicode-range":"U+0020-U+2122"},"glyphs":{" ":{"w":283},"!":{"d":"209,-188r-135,0r0,-459r135,0r0,459xm211,0r-140,0r0,-123r140,0r0,123","w":283},"\"":{"d":"346,-647r-8,217r-99,0r-8,-217r115,0xm190,-647r-8,217r-101,0r-8,-217r117,0","w":283},"#":{"d":"549,-386r-113,0r-22,133r96,0r0,92r-113,0r-28,161r-110,0r28,-161r-66,0r-29,161r-110,0r28,-161r-92,0r0,-92r109,0r22,-133r-92,0r0,-92r110,0r29,-169r110,0r-29,169r67,0r29,-169r110,0r-29,169r95,0r0,92xm326,-386r-66,0r-23,133r66,0"},"$":{"d":"327,-383v96,37,179,83,180,215v0,123,-69,166,-180,182r0,84r-103,0r0,-78v-47,-1,-108,-11,-184,-32r46,-127v43,16,84,37,138,42r0,-177v-97,-38,-186,-76,-189,-205v-2,-109,90,-165,189,-179r0,-88r103,0r0,86v62,5,113,15,152,28r-46,127v-47,-20,-82,-32,-106,-37r0,159xm227,-424r0,-113v-29,9,-43,29,-43,58v0,21,14,39,43,55xm358,-166v0,-21,-11,-41,-34,-60r0,117v23,-11,34,-30,34,-57"},"%":{"d":"686,-338v112,1,152,58,152,172v0,116,-40,180,-153,180v-112,0,-151,-65,-152,-180v0,-115,51,-172,153,-172xm673,-629r-363,629r-114,0r362,-629r115,0xm191,-661v112,1,154,58,154,172v0,116,-42,180,-155,180v-112,0,-151,-65,-152,-180v0,-115,51,-172,153,-172xm685,-55v54,0,58,-47,58,-111v0,-66,-2,-103,-57,-103v-56,0,-57,40,-57,103v0,71,-3,111,56,111xm190,-378v54,0,58,-47,58,-111v0,-66,-2,-103,-57,-103v-56,0,-57,40,-57,103v0,71,-3,111,56,111","w":876},"&":{"d":"502,-140v-3,17,20,128,20,140r-130,0r-18,-41v-15,24,-81,58,-117,58v-60,0,-102,-14,-141,-40v-44,-29,-71,-87,-70,-162v0,-87,34,-148,103,-184r-27,-22v-28,-26,-56,-52,-56,-104v0,-107,75,-169,195,-169v118,0,195,55,195,168v0,56,-62,111,-186,164v-62,26,-82,64,-84,145v-2,78,48,117,116,96v27,-8,46,-37,64,-57r0,-57r-80,0r0,-96r216,0r0,161xm259,-561v-60,0,-74,79,-38,113r21,23v30,-15,45,-19,65,-41v9,-10,13,-20,13,-31v0,-43,-20,-64,-61,-64"},"'":{"d":"200,-647r-8,217r-101,0r-8,-217r117,0","w":283},"(":{"d":"189,-254v0,177,26,253,96,382r-125,0v-75,-134,-106,-198,-106,-382v0,-192,30,-260,101,-393r125,0v-68,128,-91,207,-91,393","w":335},")":{"d":"184,-647v71,133,101,201,101,393v0,184,-31,248,-106,382r-124,0v70,-129,96,-204,96,-382v0,-186,-23,-265,-91,-393r124,0","w":335},"*":{"d":"441,-462r-153,36r-1,11r100,132r-64,45r-87,-136r-12,0r-91,138r-64,-50r102,-129r-4,-11r-159,-37r26,-79r153,56r10,-8r-7,-157r77,0r-6,160r9,6r151,-55","w":450},"+":{"d":"506,-174r-167,0r0,174r-112,0r0,-174r-167,0r0,-101r167,0r0,-159r112,0r0,159r167,0r0,101"},",":{"d":"212,-75r-81,178r-103,0r43,-178r141,0","w":283},"-":{"d":"336,-160r-310,0r0,-112r310,0r0,112","w":362},".":{"d":"212,0r-141,0r0,-124r141,0r0,124","w":283},"\/":{"d":"324,-657r-210,668r-115,0r213,-668r112,0","w":323},"0":{"d":"282,-622v193,0,246,111,246,314v0,205,-53,326,-247,326v-193,0,-243,-121,-243,-326v0,-199,59,-314,244,-314xm356,-146v24,-54,21,-265,2,-319v-17,-48,-107,-59,-138,-18v-38,50,-30,170,-28,253v2,71,14,137,89,135v37,0,60,-17,75,-51"},"1":{"d":"425,1r-152,0r0,-468r-113,87r-45,-107r162,-120r148,0r0,608"},"2":{"d":"280,-623v141,0,236,61,234,207v-1,90,-88,182,-146,228v-37,30,-73,55,-110,76r268,0r0,112r-432,0r-41,-124r72,-46v66,-47,167,-113,213,-182v16,-24,25,-43,25,-60v0,-65,-28,-98,-85,-98v-42,0,-95,17,-159,52r-43,-123v102,-30,102,-42,204,-42"},"3":{"d":"343,-320v78,13,155,55,154,144v-2,143,-110,194,-251,194v-84,0,-152,-9,-204,-27r44,-123v21,13,121,37,163,37v71,0,115,-60,87,-123v-16,-36,-66,-41,-114,-44v-16,-1,-38,-1,-66,-1r0,-112v52,-2,116,5,150,-17v14,-9,25,-29,24,-54v0,-44,-31,-64,-77,-64v-40,0,-92,16,-156,47r-44,-123v35,-19,152,-38,206,-37v149,0,223,58,223,175v1,79,-67,120,-139,128"},"4":{"d":"544,-158r-96,0r0,158r-150,0r0,-158r-242,0r-49,-114r272,-335r169,0r0,335r96,0r0,114xm298,-272r0,-203r-167,203r167,0"},"5":{"d":"299,-398v129,0,216,66,216,199v0,136,-124,217,-261,217v-89,0,-159,-8,-210,-25r43,-123v58,23,114,35,168,35v76,1,110,-32,110,-106v0,-76,-46,-89,-114,-80v-38,5,-61,23,-88,40r-94,-35r0,-331r421,0r0,113r-271,0r0,107v16,-7,43,-11,80,-11"},"6":{"d":"188,-347v16,-38,71,-61,116,-61v144,0,216,76,216,228v0,118,-113,198,-230,198v-163,0,-245,-100,-245,-301v0,-116,36,-206,93,-267v40,-43,106,-73,187,-73v53,0,104,7,154,20r-43,123v-59,-32,-120,-42,-177,-14v-50,25,-69,78,-71,147xm291,-95v48,0,77,-30,77,-85v0,-68,-14,-115,-76,-115v-47,0,-79,21,-95,62v0,94,18,138,94,138"},"7":{"d":"499,-513r-209,513r-160,0r233,-495r-305,0r0,-111r395,0"},"8":{"d":"383,-319v89,21,145,59,145,161v0,137,-101,176,-246,176v-145,0,-242,-38,-243,-176v0,-89,48,-143,145,-162v-75,-26,-124,-55,-124,-133v0,-120,92,-172,227,-170v148,1,226,37,226,169v0,82,-63,119,-130,135xm287,-511v-59,0,-80,14,-80,64v0,50,37,61,76,76v33,-14,48,-16,69,-39v9,-10,13,-23,13,-37v3,-51,-28,-64,-78,-64xm285,-266v-58,25,-98,33,-98,104v0,45,32,68,95,68v65,0,97,-23,97,-68v0,-65,-41,-84,-94,-104"},"9":{"d":"47,-424v0,-151,184,-236,335,-182v128,46,160,217,130,381v-25,136,-106,241,-270,243v-53,0,-105,-7,-155,-20r43,-123v75,47,188,37,222,-28v17,-31,25,-63,26,-105v-16,38,-71,61,-116,61v-143,0,-215,-76,-215,-227xm275,-310v55,0,77,-23,94,-62v-1,-95,-16,-138,-93,-138v-48,0,-78,31,-78,86v0,68,15,114,77,114"},":":{"d":"212,-328r-141,0r0,-124r141,0r0,124xm212,0r-141,0r0,-124r141,0r0,124","w":283},";":{"d":"213,-328r-141,0r0,-124r141,0r0,124xm212,-75r-81,178r-103,0r44,-178r140,0","w":283},"<":{"d":"516,-45r-466,-137r0,-140r466,-139r0,129r-330,80r330,78r0,129"},"=":{"d":"516,-228r-466,0r0,-100r466,0r0,100xm516,-55r-466,0r0,-100r466,0r0,100"},">":{"d":"516,-184r-466,139r0,-129r330,-80r-330,-78r0,-129r466,136r0,141"},"?":{"d":"51,-627v94,-29,275,-53,351,11v40,33,72,132,35,194v-32,53,-94,77,-133,122v-25,29,-15,71,-17,118r-134,0v1,-55,-4,-109,16,-146v29,-53,86,-75,123,-116v11,-12,16,-25,16,-39v-1,-45,-19,-57,-68,-57v-39,0,-147,20,-171,35xm290,0r-140,0r0,-123r140,0r0,123","w":485},"@":{"d":"498,-556v-170,0,-282,65,-283,236v-1,158,98,236,289,235v51,0,123,-10,214,-30r47,112v-139,23,-300,37,-431,3v-149,-40,-254,-134,-255,-320v0,-186,109,-282,257,-322v127,-34,301,-19,389,38v69,45,126,110,126,223v0,100,-43,171,-109,205v-65,34,-134,50,-229,50v-163,0,-245,-66,-245,-197v0,-125,78,-189,218,-189v50,0,90,5,120,14r0,133r13,2r36,97r-172,12r0,-150v-9,-6,-8,-5,-18,-5v-43,0,-64,29,-64,87v0,70,39,100,114,98v57,-2,73,0,117,-11v43,-12,56,-29,72,-69v8,-20,11,-46,11,-76v0,-117,-72,-176,-217,-176","w":930},"A":{"d":"678,0r-168,0r-52,-163r-214,0r-54,163r-163,0r263,-647r144,0xm419,-278r-64,-205r-69,205r133,0","w":705},"B":{"d":"462,-339v81,8,133,57,133,147v0,135,-87,192,-215,192r-288,0r0,-647r255,0v145,0,218,61,218,182v0,69,-46,112,-103,126xm361,-391v35,-1,50,-34,50,-73v0,-40,-23,-65,-64,-66r-103,0r0,139r117,0xm374,-117v38,-1,66,-31,66,-75v0,-53,-28,-82,-77,-83r-119,0r0,158r130,0","w":647},"C":{"d":"214,-324v-1,153,36,241,182,225v44,-5,78,-24,115,-40r46,127v-61,21,-123,32,-188,32v-208,0,-312,-114,-312,-343v0,-212,99,-338,315,-338v63,0,123,9,178,27r-46,127v-57,-25,-101,-37,-132,-37v-124,3,-157,83,-158,220","w":591},"D":{"d":"329,-647v217,3,309,96,309,321v-1,231,-86,326,-309,326r-237,0r0,-647r237,0xm338,-117v122,5,143,-88,143,-208v0,-121,-24,-213,-152,-205r-85,0r0,413r94,0","w":695},"E":{"d":"498,0r-406,0r0,-647r397,0r0,117r-245,0r0,137r224,0r0,117r-224,0r0,159r254,0r0,117","w":603},"F":{"d":"489,-529r-245,0r0,140r233,0r0,116r-233,0r0,273r-152,0r0,-647r397,0r0,118","w":539},"G":{"d":"371,-97v49,0,60,-1,90,-18r0,-127r-143,0r0,-117r278,0r0,320v-69,42,-120,58,-228,59v-207,0,-311,-115,-311,-344v1,-209,106,-340,320,-337v45,0,101,9,170,27r-46,127v-36,-15,-73,-36,-123,-37v-129,-1,-165,86,-164,220v1,144,26,227,157,227","w":653},"H":{"d":"622,0r-152,0r0,-275r-226,0r0,275r-152,0r0,-647r152,0r0,254r226,0r0,-254r152,0r0,647","w":714},"I":{"d":"232,0r-152,0r0,-647r152,0r0,647","w":312},"J":{"d":"373,-204v-2,214,-151,281,-321,328r-40,-124r57,-11v38,-8,81,-23,105,-47v30,-29,47,-75,47,-136r0,-453r152,0r0,443","w":465},"K":{"d":"681,0r-196,0r-241,-286r0,286r-152,0r0,-647r152,0r0,262r216,-262r172,0r-246,303","w":694},"L":{"d":"500,0r-408,0r0,-647r152,0r0,527r256,0r0,120","w":505},"M":{"d":"877,0r-151,0r0,-485r-163,485r-163,0r-162,-485r0,485r-146,0r0,-647r255,0r140,445r145,-445r245,0r0,647","w":967},"N":{"d":"661,0r-230,0r-193,-467r0,467r-146,0r0,-647r228,0r191,467r0,-467r150,0r0,647","w":753},"O":{"d":"57,-321v0,-215,101,-339,319,-340v209,0,314,113,314,340v0,210,-97,341,-315,341v-212,0,-318,-114,-318,-341xm375,-97v125,0,158,-84,158,-224v0,-144,-34,-223,-158,-223v-126,0,-161,79,-161,223v0,152,30,224,161,224","w":747},"P":{"d":"574,-448v0,137,-75,205,-224,205r-106,0r0,243r-152,0r0,-647r247,0v157,0,235,66,235,199xm342,-360v48,-1,78,-32,78,-88v0,-58,-25,-82,-83,-82r-93,0r0,170r98,0","w":622},"Q":{"d":"57,-321v0,-215,100,-340,319,-340v209,0,314,113,314,340v0,210,-97,341,-315,341v-212,0,-318,-114,-318,-341xm610,67r-51,96r-233,-35r51,-83xm375,-97v125,0,158,-84,158,-224v0,-144,-34,-223,-158,-223v-126,0,-161,79,-161,223v0,152,30,224,161,224","w":747},"R":{"d":"579,-453v0,102,-53,171,-148,189r197,264r-187,0r-188,-259r-9,0r0,259r-152,0r0,-647r262,0v150,0,225,65,225,194xm360,-376v41,0,66,-34,65,-77v0,-51,-22,-77,-66,-77r-115,0r0,154r116,0","w":670},"S":{"d":"409,-526v-58,-27,-193,-33,-193,47v0,41,49,59,88,71v54,16,117,43,162,71v48,30,88,90,88,169v0,79,-33,132,-89,155v-119,49,-260,41,-403,1r46,-127v75,28,128,42,159,42v78,0,133,-2,133,-69v0,-47,-48,-70,-88,-85v-52,-18,-116,-46,-162,-72v-48,-27,-88,-82,-88,-156v0,-87,70,-144,138,-165v95,-29,211,-19,302,12r-46,127","w":616},"T":{"d":"515,-529r-171,0r0,529r-153,0r0,-529r-171,0r0,-118r495,0r0,118","w":535},"U":{"d":"379,-97v81,-2,122,-58,122,-152r0,-398r152,0r0,410v1,171,-102,257,-274,257v-191,0,-287,-86,-287,-259r0,-408r152,0r0,398v-1,99,39,154,135,152","w":745},"V":{"d":"649,-647r-237,647r-141,0r-244,-647r168,0r150,464r141,-464r163,0","w":676},"W":{"d":"978,-647r-163,647r-191,0r-117,-421r-144,421r-191,0r-139,-647r161,0r93,466r137,-439r192,0r105,438r107,-465r150,0","w":1011},"X":{"d":"624,0r-179,0r-119,-212r-134,212r-163,0r216,-334r-190,-313r175,0r104,180r112,-180r163,0r-197,309","w":659},"Y":{"d":"635,-647r-238,356r0,291r-152,0r0,-287r-232,-360r173,0r141,226r142,-226r166,0","w":648},"Z":{"d":"530,-525r-322,407r314,0r0,118r-442,0r-38,-122r324,-407r-287,0r0,-118r413,0","w":572},"[":{"d":"274,127r-191,0r0,-803r191,0r0,95r-79,0r0,610r79,0r0,98","w":321},"\\":{"d":"324,11r-115,0r-210,-668r112,0","w":323},"]":{"d":"252,128r-191,0r0,-99r79,0r0,-609r-79,0r0,-95r191,0r0,803","w":321},"^":{"d":"535,-269r-123,0r-130,-289r-132,289r-120,0r181,-378r139,0"},"_":{"d":"501,123r-502,0r0,-104r502,0r0,104","w":500},"`":{"d":"247,-530r-90,0r-138,-117r132,0","w":266},"a":{"d":"468,-140v-2,21,18,123,20,140r-131,0r-18,-42r-35,26v-24,16,-43,30,-79,30v-123,0,-184,-45,-184,-134v0,-115,85,-172,254,-172r35,0v4,-47,-9,-74,-52,-74v-59,0,-117,13,-173,40r-47,-112v65,-22,142,-33,229,-33v103,0,182,46,181,146r0,185xm331,-141r0,-53r-22,0v-84,0,-126,23,-126,68v0,23,23,35,70,35v22,0,48,-17,78,-50","w":543},"b":{"d":"318,-471v132,-2,192,108,192,240v0,133,-78,245,-211,245v-47,0,-86,-28,-101,-56r-20,42r-127,0v9,-65,13,-112,13,-140r0,-517r137,0r0,256v35,-47,74,-70,117,-70xm370,-229v0,-53,-7,-90,-22,-109v-21,-28,-64,-40,-94,-13v-26,23,-37,50,-55,78r0,111v19,47,45,71,76,71v63,0,95,-46,95,-138","w":551},"c":{"d":"281,-366v-83,3,-99,44,-100,141v0,89,33,134,99,134v27,0,66,-13,118,-40r47,112v-25,14,-128,33,-166,33v-147,0,-238,-95,-238,-239v0,-152,87,-248,241,-246v39,-1,130,21,158,33r-47,112v-53,-27,-91,-40,-112,-40","w":477},"d":{"d":"41,-231v-1,-130,61,-242,190,-240v44,0,84,23,119,70r0,-256r137,0r0,517v0,28,4,75,13,140r-127,0r-20,-42v-15,28,-54,57,-101,56v-149,-2,-210,-98,-211,-245xm181,-229v0,97,14,138,95,138v31,0,57,-24,76,-71r0,-111v-26,-43,-45,-69,-56,-79v-11,-9,-23,-14,-34,-14v-67,5,-81,49,-81,137","w":551},"e":{"d":"41,-224v3,-149,74,-247,227,-247v187,0,227,101,230,301r-314,0v11,55,44,83,99,83v42,0,89,-13,141,-39r45,104v-54,24,-119,36,-194,36v-142,0,-236,-102,-234,-238xm361,-271v-6,-71,-46,-106,-113,-93v-21,4,-43,18,-52,41v-6,14,-10,31,-11,52r176,0","w":541},"f":{"d":"346,-554v-77,12,-130,20,-131,97r84,0r0,105r-84,0r0,352r-137,0r0,-352r-69,0r0,-105r69,0v-2,-66,16,-112,55,-143v37,-29,92,-51,165,-65","w":334},"g":{"d":"61,-296v0,-147,137,-195,296,-167v88,-7,150,-12,187,-13r-33,89r-52,0v28,33,42,64,42,93v0,122,-88,176,-219,176v-43,0,-77,-5,-102,-15v-12,1,-18,10,-18,27v0,12,9,20,26,25v17,5,53,9,110,13v93,7,156,21,188,40v49,28,65,114,26,162v-43,54,-129,70,-224,70v-91,0,-155,-11,-193,-34v-38,-23,-57,-56,-57,-98v0,-45,29,-70,63,-83v-36,-17,-54,-46,-54,-89v0,-30,19,-58,57,-83v-29,-37,-43,-74,-43,-113xm283,-221v51,0,81,-34,81,-77v0,-47,-27,-71,-82,-71v-53,0,-85,20,-84,75v0,49,28,73,85,73xm177,67v10,48,154,45,196,33v14,-5,21,-16,21,-31v0,-24,-68,-36,-204,-37v-9,10,-13,22,-13,35","w":569},"h":{"d":"316,-472v130,-1,169,62,169,187r0,285r-137,0r0,-304v1,-41,-14,-65,-56,-64v-26,0,-53,29,-64,46v-7,10,-16,25,-27,45r0,277r-137,0r0,-657r137,0r0,256v26,-31,58,-70,115,-71","w":545},"i":{"d":"204,-539r-142,0r0,-108r142,0r0,108xm201,0r-136,0r0,-457r136,0r0,457","w":266},"j":{"d":"202,-539r-145,0r0,-108r145,0r0,108xm-32,103v63,-15,93,-31,93,-100r0,-460r137,0r0,451v-1,132,-85,182,-182,220","w":264},"k":{"d":"500,0r-156,0r-143,-224r0,224r-137,0r0,-657r137,0r0,376r128,-176r147,0r-146,198","w":510},"l":{"d":"201,0r-137,0r0,-657r137,0r0,657","w":265},"m":{"d":"604,-472v114,1,162,62,162,180r0,292r-137,0r0,-290v-1,-52,-6,-78,-47,-78v-44,0,-78,32,-101,96r0,272r-137,0r0,-290v-2,-61,-2,-78,-55,-78v-52,0,-65,54,-88,90r0,278r-137,0r0,-352v1,-21,-12,-89,-13,-105r127,0r19,57v17,-26,74,-73,119,-72v90,2,101,14,148,65v27,-43,73,-65,140,-65","w":830},"n":{"d":"317,-472v128,-2,168,62,168,184r0,288r-137,0r0,-297v2,-45,-11,-74,-56,-71v-50,3,-66,48,-91,91r0,277r-137,0r0,-360v0,-13,-4,-45,-13,-97r127,0r20,56v32,-30,58,-70,119,-71","w":549},"o":{"d":"279,-472v157,0,237,93,237,241v0,146,-83,246,-237,246v-156,0,-238,-99,-238,-246v0,-143,85,-241,238,-241xm279,-368v-78,0,-98,45,-98,137v0,95,33,142,98,142v65,0,97,-47,97,-142v0,-94,-16,-137,-97,-137","w":557},"p":{"d":"310,-472v139,-5,200,108,200,246v1,130,-63,243,-192,241v-44,-1,-98,-26,-117,-56r0,221r-137,0r0,-495v0,-25,-4,-73,-13,-142r127,0r22,56v25,-36,56,-69,110,-71xm289,-89v66,0,81,-52,81,-139v0,-98,-15,-136,-96,-140v-30,-1,-46,39,-58,56r-18,34r0,114v18,37,48,75,91,75","w":551},"q":{"d":"241,-472v54,2,86,35,110,71r22,-56r127,0v-9,69,-13,117,-13,142r0,495r-137,0r0,-221v-19,30,-74,56,-118,56v-138,0,-191,-100,-191,-241v0,-135,66,-251,200,-246xm262,-89v42,0,72,-38,90,-75r0,-114r-30,-55v-10,-15,-20,-35,-44,-35v-84,0,-96,41,-97,140v0,54,7,91,22,110v15,19,34,29,59,29","w":551},"r":{"d":"64,-355v1,-35,-8,-75,-13,-102r127,0r20,63v31,-52,64,-78,100,-78v33,0,62,4,89,12r-46,111v-22,-21,-73,-26,-95,-3v-21,22,-33,50,-45,81r0,271r-137,0r0,-355","w":402},"s":{"d":"221,-89v37,-2,70,-1,69,-36v0,-9,-8,-15,-25,-21v-69,-24,-154,-35,-192,-96v-15,-25,-25,-55,-25,-91v0,-93,68,-139,204,-139v47,0,102,9,164,28r-46,111v-34,-15,-68,-33,-117,-35v-67,-3,-86,40,-40,62v64,30,152,37,192,96v16,23,25,51,25,84v0,94,-70,141,-211,141v-53,0,-114,-11,-183,-33r47,-112v36,11,87,43,138,41","w":469},"t":{"d":"216,-101v2,70,33,79,95,100r-51,111v-55,-21,-100,-49,-132,-83v-32,-34,-48,-81,-48,-142r0,-237r-69,0r0,-106r69,0r0,-125r136,0r0,125r88,0r0,106r-88,0r0,251","w":318},"u":{"d":"201,-160v-15,72,71,93,104,41v15,-24,23,-38,36,-61r0,-277r137,0r0,360v0,13,4,45,13,97r-127,0r-20,-56v-26,27,-60,71,-115,71v-123,1,-165,-65,-165,-184r0,-288r137,0r0,297","w":542},"v":{"d":"527,-457r-178,457r-138,0r-177,-457r146,0r104,300r99,-300r144,0","w":561},"w":{"d":"814,-457r-149,457r-145,0r-91,-259r-103,259r-145,0r-155,-457r145,0r95,291r98,-253r136,0r94,254r78,-292r142,0","w":840},"x":{"d":"494,0r-151,0r-86,-135r-92,135r-143,0r165,-231r-154,-226r151,0r78,127r82,-127r142,0r-157,219","w":516},"y":{"d":"518,-457r-201,530v-36,96,-100,159,-191,190r-47,-111v47,-13,77,-34,88,-65r40,-106r-173,-438r146,0r94,284r100,-284r144,0","w":552},"z":{"d":"440,-345r-259,240r241,0r0,105r-354,0r-47,-112r263,-240r-227,0r0,-105r337,0","w":461},"{":{"d":"323,118v-104,-2,-161,-47,-183,-130v-20,-77,3,-194,-92,-202r0,-103v93,-4,67,-122,90,-197v16,-51,35,-90,85,-112v27,-13,60,-20,100,-21r0,103v-75,0,-69,87,-79,154v-7,54,-33,107,-80,126v48,16,75,66,81,120v8,69,2,158,78,159r0,103","w":406},"|":{"d":"199,166r-115,0r0,-868r115,0r0,868","w":283},"}":{"d":"358,-214v-48,3,-70,42,-74,89v-4,52,-15,113,-32,156v-22,54,-86,86,-168,87r0,-103v75,-1,69,-90,77,-159v6,-54,33,-105,81,-120v-69,-28,-80,-111,-88,-198v-4,-44,-22,-82,-70,-82r0,-103v105,3,162,49,184,133v20,76,-5,190,90,197r0,103","w":406},"~":{"d":"363,-257v55,-2,66,-16,67,-76r106,57v-1,79,-59,138,-148,135v-70,-2,-120,-46,-160,-80v-12,-10,-20,-15,-25,-15v-54,2,-66,19,-67,79r-105,-58v1,-78,60,-137,146,-135v75,2,128,40,167,78v11,10,17,15,19,15"},"\u00a0":{"w":283},"\u00a1":{"d":"211,-524r-140,0r0,-123r140,0r0,123xm209,0r-135,0r0,-459r135,0r0,459","w":283},"\u00a2":{"d":"41,-225v0,-133,66,-222,182,-241r0,-95r108,0r0,95v48,9,84,18,109,28r-47,112v-34,-17,-55,-27,-62,-30r0,256v18,-7,40,-18,67,-31r47,112v-21,11,-59,20,-114,28r0,91r-108,0r0,-91v-113,-19,-182,-106,-182,-234xm223,-103r0,-253v-28,20,-42,64,-42,131v0,55,14,95,42,122","w":477},"\u00a3":{"d":"545,0r-488,0r0,-120r62,0r0,-163r-77,0r0,-103r77,0v-4,-194,127,-277,322,-288r39,124v-103,-1,-177,9,-200,88v-6,21,-11,46,-11,76r142,0r0,103r-140,0r0,163r274,0r0,120"},"\u00a5":{"d":"569,-647r-185,310r88,0r0,102r-116,0r0,41r116,0r0,101r-116,0r0,93r-152,0r0,-93r-117,0r0,-101r117,0r0,-41r-117,0r0,-102r88,0r-178,-310r169,0r120,232r123,-232r160,0"},"\u00a6":{"d":"198,-359r-113,0r0,-234r113,0r0,234xm198,78r-113,0r0,-234r113,0r0,234","w":283},"\u00a7":{"d":"353,-523v-31,-12,-63,-34,-107,-34v-69,0,-90,39,-42,61v65,30,154,40,196,99v37,52,32,147,-15,185v13,24,19,53,19,87v0,94,-69,141,-208,141v-44,0,-100,-11,-167,-33r47,-111v34,15,71,41,122,40v36,-1,70,0,67,-36v-2,-25,-36,-32,-63,-39v-90,-23,-180,-56,-179,-171v0,-47,17,-81,50,-102v-23,-24,-34,-53,-34,-86v0,-93,69,-139,206,-139v41,0,93,9,155,28xm289,-312v0,-24,-35,-46,-106,-67v-23,8,-34,52,-9,67v30,18,71,27,106,40v9,-8,10,-23,9,-40","w":448},"\u00a8":{"d":"275,-544r-120,0r0,-103r120,0r0,103xm112,-544r-120,0r0,-103r120,0r0,103","w":266},"\u00a9":{"d":"360,-658v186,0,335,149,335,334v0,184,-152,334,-335,334v-183,0,-335,-151,-335,-334v0,-184,152,-334,335,-334xm360,-63v139,0,256,-122,256,-261v0,-140,-116,-261,-256,-261v-142,0,-256,119,-256,261v0,139,117,261,256,261xm274,-323v0,92,21,146,108,138v22,-2,47,-17,66,-24r27,75v-33,12,-69,18,-110,18v-122,0,-183,-69,-183,-206v0,-135,61,-203,184,-203v41,0,76,5,105,15r-28,75v-33,-15,-59,-22,-77,-22v-73,2,-91,51,-92,134","w":720},"\u00aa":{"d":"409,-468v0,24,10,55,12,77r-85,0r-10,-24v-28,21,-51,31,-68,31v-73,0,-110,-24,-110,-73v0,-70,68,-100,172,-96v3,-27,-6,-38,-31,-37v-34,0,-68,8,-103,23r-28,-65v78,-25,250,-43,251,61r0,103xm322,-496v-45,1,-85,-2,-88,35v-1,14,20,17,40,16v17,0,33,-8,48,-23r0,-28"},"\u00ab":{"d":"415,-452r-97,180r96,180r-122,0r-93,-178r93,-182r123,0xm235,-452r-97,180r96,180r-123,0r-93,-178r93,-182r124,0","w":433},"\u00ac":{"d":"526,-78r-112,0r0,-172r-379,0r0,-101r491,0r0,273"},"\u00ad":{"d":"336,-160r-310,0r0,-112r310,0r0,112","w":362},"\u00ae":{"d":"360,-658v186,0,335,149,335,334v0,184,-152,334,-335,334v-183,0,-335,-151,-335,-334v0,-184,152,-334,335,-334xm360,-63v139,0,256,-122,256,-261v0,-140,-116,-261,-256,-261v-142,0,-256,119,-256,261v0,139,117,261,256,261xm527,-129r-109,0r-110,-157r-6,0r0,157r-90,0r0,-390r154,0v89,0,133,39,133,118v0,62,-29,100,-86,113xm370,-354v24,0,39,-21,38,-47v0,-27,-13,-48,-39,-48r-67,0r0,95r68,0","w":720},"\u00af":{"d":"269,-533r-272,0r0,-95r272,0r0,95","w":266},"\u00b0":{"d":"225,-617v98,0,181,80,181,179v0,99,-83,176,-182,176v-98,0,-181,-77,-181,-176v0,-99,84,-179,182,-179xm224,-339v51,0,99,-48,99,-99v0,-57,-41,-101,-98,-101v-57,0,-99,44,-99,101v0,51,47,99,98,99","w":450},"\u00b1":{"d":"506,-234r-167,0r0,114r-112,0r0,-114r-167,0r0,-101r167,0r0,-99r112,0r0,99r167,0r0,101xm516,1r-466,0r0,-101r466,0r0,101"},"\u00b2":{"d":"183,-661v84,0,151,28,152,113v0,29,-18,58,-53,86v-35,28,-74,53,-117,75r170,0r0,69r-266,0r-24,-74r100,-58v34,-22,65,-40,85,-72v21,-34,-3,-70,-48,-70v-25,0,-57,9,-96,28r-26,-73v60,-17,63,-24,123,-24","w":381},"\u00b3":{"d":"238,-495v45,6,93,31,93,80v0,123,-184,116,-282,91r25,-73v13,8,74,20,99,20v31,0,62,-15,62,-39v0,-19,-9,-32,-28,-38v-19,-6,-49,-8,-90,-8r0,-65v41,0,69,-3,85,-7v16,-4,24,-14,24,-30v0,-19,-17,-28,-50,-28v-26,0,-58,8,-95,25r-25,-74v21,-10,91,-20,123,-20v80,0,143,25,143,96v0,45,-41,65,-84,70","w":381},"\u00b4":{"d":"247,-647r-137,117r-91,0r96,-117r132,0","w":266},"\u00b5":{"d":"213,-160v-15,72,71,93,104,41v15,-24,23,-38,36,-61r0,-277r137,0r0,360v0,13,4,45,13,97r-127,0r-20,-56v-26,27,-60,71,-115,71r-28,0r0,165r-137,0r0,-637r137,0r0,297"},"\u00b6":{"d":"20,-441v0,-127,64,-206,194,-206r318,0r0,835r-112,0r0,-732r-100,0v-67,0,-109,51,-109,122v0,58,53,116,98,127r0,483r-113,0r0,-420v-102,-22,-176,-92,-176,-209","w":540},"\u00b7":{"d":"203,-204r-123,0r0,-123r123,0r0,123","w":283},"\u00b8":{"d":"188,23v41,-3,68,39,69,76v3,80,-74,132,-148,132v-35,0,-72,-3,-111,-8r28,-91v43,5,69,8,78,8v32,0,48,-13,48,-39v0,-41,-26,-34,-80,-37r21,-79r105,0","w":266},"\u00b9":{"d":"262,-313r-97,0r0,-252r-60,48r-28,-64r97,-66r88,0r0,334","w":381},"\u00ba":{"d":"284,-661v92,0,148,49,148,133v0,82,-59,136,-148,136v-91,0,-147,-53,-147,-136v0,-81,58,-133,147,-133xm284,-600v-43,0,-61,22,-60,72v0,49,20,74,60,74v40,0,60,-25,60,-74v0,-51,-15,-72,-60,-72"},"\u00bb":{"d":"416,-270r-93,178r-122,0r96,-180r-97,-180r123,0xm236,-270r-93,178r-123,0r96,-180r-97,-180r124,0","w":433},"\u00bc":{"d":"776,-84r-55,0r0,84r-95,0r0,-84r-146,0r-29,-69r164,-181r106,0r0,181r55,0r0,69xm633,-629r-362,629r-115,0r361,-629r116,0xm248,-313r-96,0r0,-252r-61,48r-27,-64r96,-66r88,0r0,334xm626,-153r0,-101r-95,101r95,0","w":876},"\u00bd":{"d":"655,-343v79,0,152,31,152,114v0,49,-57,103,-171,161r171,0r0,68r-266,0r-24,-72r99,-58v36,-23,63,-43,86,-74v5,-8,7,-15,7,-22v1,-39,-20,-47,-55,-48v-25,0,-58,9,-97,28r-26,-73v61,-17,63,-24,124,-24xm626,-629r-363,629r-114,0r362,-629r115,0xm243,-313r-97,0r0,-252r-60,48r-28,-64r97,-66r88,0r0,334","w":876},"\u00be":{"d":"793,-84r-55,0r0,84r-95,0r0,-84r-146,0r-29,-69r164,-181r106,0r0,181r55,0r0,69xm668,-629r-363,629r-114,0r362,-629r115,0xm239,-495v46,6,96,30,94,80v-3,79,-77,107,-161,106v-49,0,-90,-5,-122,-15r26,-73v13,8,73,20,98,20v31,0,62,-15,62,-39v0,-19,-9,-32,-28,-38v-19,-6,-48,-8,-89,-8r0,-65v41,0,69,-3,85,-7v16,-4,23,-14,23,-30v0,-19,-16,-28,-49,-28v-26,0,-58,8,-95,25r-26,-74v21,-10,91,-20,123,-20v80,0,143,25,144,96v1,45,-42,65,-85,70xm643,-153r0,-101r-95,101r95,0","w":876},"\u00bf":{"d":"355,-524r-140,0r0,-123r140,0r0,123xm265,-107v39,0,147,-20,171,-35r18,122v-94,29,-275,52,-351,-12v-40,-33,-72,-130,-35,-192v32,-53,94,-78,133,-123v25,-29,15,-71,17,-118r133,0v-1,55,4,110,-16,147v-29,53,-85,74,-122,115v-11,12,-16,25,-16,39v1,45,19,57,68,57","w":485},"\u00c0":{"d":"678,0r-168,0r-52,-163r-214,0r-54,163r-163,0r263,-647r144,0xm419,-278r-64,-205r-69,205r133,0xm465,-695r-90,0r-138,-117r132,0","w":705},"\u00c1":{"d":"678,0r-168,0r-52,-163r-214,0r-54,163r-163,0r263,-647r144,0xm419,-278r-64,-205r-69,205r133,0xm479,-813r-137,117r-91,0r96,-117r132,0","w":705},"\u00c2":{"d":"678,0r-168,0r-52,-163r-214,0r-54,163r-163,0r263,-647r144,0xm419,-278r-64,-205r-69,205r133,0xm505,-692r-95,0r-49,-60r-52,60r-96,0r104,-120r88,0","w":705},"\u00c3":{"d":"678,0r-168,0r-52,-163r-214,0r-54,163r-163,0r263,-647r144,0xm419,-278r-64,-205r-69,205r133,0xm414,-741v27,0,48,-27,54,-47r68,33v-16,69,-118,120,-183,64v-19,-16,-33,-24,-41,-24v-27,0,-44,12,-53,37r-69,-32v25,-55,52,-75,123,-80v28,-2,79,49,101,49","w":705},"\u00c4":{"d":"678,0r-168,0r-52,-163r-214,0r-54,163r-163,0r263,-647r144,0xm419,-278r-64,-205r-69,205r133,0xm499,-669r-120,0r0,-103r120,0r0,103xm336,-669r-120,0r0,-103r120,0r0,103","w":705},"\u00c5":{"d":"678,0r-168,0r-52,-163r-214,0r-54,163r-163,0r263,-647r144,0xm419,-278r-64,-205r-69,205r133,0xm370,-835v46,0,83,36,83,82v0,45,-38,82,-83,82v-44,0,-83,-38,-83,-82v0,-45,38,-82,83,-82xm370,-715v23,0,38,-17,38,-39v0,-21,-16,-39,-38,-39v-21,0,-39,19,-39,39v0,19,19,39,39,39","w":705},"\u00c6":{"d":"927,0r-403,0r-22,-163r-214,0r-86,163r-175,0r367,-647r524,0r0,117r-331,0r19,137r291,0r0,117r-271,0r27,159r274,0r0,117xm485,-278r-26,-208r-109,208r135,0","w":1032},"\u00c7":{"d":"366,-95v58,2,104,-28,145,-44r46,127v-63,22,-125,33,-188,33r0,2v42,-3,71,40,73,76v3,79,-80,132,-153,132v-35,0,-72,-3,-111,-8r28,-93v48,6,74,9,78,9v32,0,48,-13,48,-38v0,-41,-26,-34,-80,-37r14,-53v-139,-36,-209,-147,-209,-334v0,-212,98,-339,315,-339v61,0,121,9,178,28r-46,127v-39,-16,-77,-39,-132,-39v-124,0,-158,85,-158,222v0,143,25,226,152,229","w":591},"\u00c8":{"d":"498,0r-406,0r0,-647r397,0r0,117r-245,0r0,137r224,0r0,117r-224,0r0,159r254,0r0,117xm393,-695r-90,0r-138,-117r132,0","w":603},"\u00c9":{"d":"498,0r-406,0r0,-647r397,0r0,117r-245,0r0,137r224,0r0,117r-224,0r0,159r254,0r0,117xm368,-794r-137,117r-91,0r96,-117r132,0","w":603},"\u00ca":{"d":"498,0r-406,0r0,-647r397,0r0,117r-245,0r0,137r224,0r0,117r-224,0r0,159r254,0r0,117xm432,-693r-95,0r-49,-60r-52,60r-96,0r104,-120r88,0","w":603},"\u00cb":{"d":"498,0r-406,0r0,-647r397,0r0,117r-245,0r0,137r224,0r0,117r-224,0r0,159r254,0r0,117xm446,-669r-120,0r0,-103r120,0r0,103xm283,-669r-120,0r0,-103r120,0r0,103","w":603},"\u00cc":{"d":"232,0r-152,0r0,-647r152,0r0,647xm277,-692r-90,0r-138,-117r132,0","w":312},"\u00cd":{"d":"231,0r-152,0r0,-647r152,0r0,647xm276,-809r-137,117r-91,0r96,-117r132,0","w":312},"\u00ce":{"d":"232,0r-152,0r0,-647r152,0r0,647xm302,-684r-95,0r-49,-60r-52,60r-96,0r104,-120r88,0","w":312},"\u00cf":{"d":"228,0r-152,0r0,-647r152,0r0,647xm298,-722r-120,0r0,-103r120,0r0,103xm135,-722r-120,0r0,-103r120,0r0,103","w":312},"\u00d0":{"d":"329,-647v217,3,309,96,309,321v-1,231,-86,326,-309,326r-237,0r0,-309r-63,0r0,-104r63,0r0,-234r237,0xm338,-117v122,5,143,-88,143,-208v0,-121,-24,-213,-152,-205r-85,0r0,117r77,0r0,104r-77,0r0,192r94,0","w":695},"\u00d1":{"d":"661,0r-230,0r-193,-467r0,467r-146,0r0,-647r228,0r191,467r0,-467r150,0r0,647xm433,-742v27,0,48,-27,54,-47r68,33v-16,69,-118,120,-183,64v-19,-16,-33,-24,-41,-24v-27,0,-44,12,-53,37r-69,-32v25,-55,52,-75,123,-80v28,-2,79,49,101,49","w":753},"\u00d2":{"d":"57,-321v0,-215,101,-339,319,-340v209,0,314,113,314,340v0,210,-97,341,-315,341v-212,0,-318,-114,-318,-341xm375,-97v125,0,158,-84,158,-224v0,-144,-34,-223,-158,-223v-126,0,-161,79,-161,223v0,152,30,224,161,224xm441,-695r-90,0r-138,-117r132,0","w":747},"\u00d3":{"d":"57,-321v0,-215,101,-339,319,-340v209,0,314,113,314,340v0,210,-97,341,-315,341v-212,0,-318,-114,-318,-341xm375,-97v125,0,158,-84,158,-224v0,-144,-34,-223,-158,-223v-126,0,-161,79,-161,223v0,152,30,224,161,224xm484,-813r-137,117r-91,0r96,-117r132,0","w":747},"\u00d4":{"d":"57,-321v0,-215,101,-339,319,-340v209,0,314,113,314,340v0,210,-97,341,-315,341v-212,0,-318,-114,-318,-341xm375,-97v125,0,158,-84,158,-224v0,-144,-34,-223,-158,-223v-126,0,-161,79,-161,223v0,152,30,224,161,224xm516,-693r-95,0r-49,-60r-52,60r-96,0r104,-120r88,0","w":747},"\u00d5":{"d":"57,-321v0,-215,101,-339,319,-340v209,0,314,113,314,340v0,210,-97,341,-315,341v-212,0,-318,-114,-318,-341xm375,-97v125,0,158,-84,158,-224v0,-144,-34,-223,-158,-223v-126,0,-161,79,-161,223v0,152,30,224,161,224xm434,-742v27,0,48,-27,54,-47r68,33v-16,69,-118,120,-183,64v-19,-16,-33,-24,-41,-24v-27,0,-44,12,-53,37r-69,-32v25,-55,52,-75,123,-80v28,-2,79,49,101,49","w":747},"\u00d6":{"d":"57,-321v0,-215,101,-339,319,-340v209,0,314,113,314,340v0,210,-97,341,-315,341v-212,0,-318,-114,-318,-341xm375,-97v125,0,158,-84,158,-224v0,-144,-34,-223,-158,-223v-126,0,-161,79,-161,223v0,152,30,224,161,224xm517,-669r-120,0r0,-103r120,0r0,103xm354,-669r-120,0r0,-103r120,0r0,103","w":747},"\u00d7":{"d":"525,-104r-80,80r-161,-161r-161,161r-80,-80r161,-161r-161,-161r80,-80r161,161r161,-161r80,80r-161,161"},"\u00d8":{"d":"57,-321v2,-215,101,-339,319,-340v69,0,128,12,176,36r72,-84r98,90r-76,90v29,53,44,122,44,208v-2,210,-97,341,-315,341v-68,0,-126,-10,-173,-31r-87,102r-99,-90r90,-106v-33,-54,-49,-126,-49,-216xm375,-544v-126,0,-161,79,-161,223v0,33,1,61,3,85r247,-287v-23,-14,-53,-21,-89,-21xm375,-97v151,3,164,-136,157,-299r-246,286v20,9,50,13,89,13","w":747},"\u00d9":{"d":"379,-97v81,-2,122,-58,122,-152r0,-398r152,0r0,410v1,171,-102,257,-274,257v-191,0,-287,-86,-287,-259r0,-408r152,0r0,398v-1,99,39,154,135,152xm438,-695r-90,0r-138,-117r132,0","w":745},"\u00da":{"d":"379,-97v81,-2,122,-58,122,-152r0,-398r152,0r0,410v1,171,-102,257,-274,257v-191,0,-287,-86,-287,-259r0,-408r152,0r0,398v-1,99,39,154,135,152xm516,-793r-137,117r-91,0r96,-117r132,0","w":745},"\u00db":{"d":"379,-97v81,-2,122,-58,122,-152r0,-398r152,0r0,410v1,171,-102,257,-274,257v-191,0,-287,-86,-287,-259r0,-408r152,0r0,398v-1,99,39,154,135,152xm521,-693r-95,0r-49,-60r-52,60r-96,0r104,-120r88,0","w":745},"\u00dc":{"d":"379,-97v81,-2,122,-58,122,-152r0,-398r152,0r0,410v1,171,-102,257,-274,257v-191,0,-287,-86,-287,-259r0,-408r152,0r0,398v-1,99,39,154,135,152xm520,-669r-120,0r0,-103r120,0r0,103xm357,-669r-120,0r0,-103r120,0r0,103","w":745},"\u00dd":{"d":"635,-647r-238,356r0,291r-152,0r0,-287r-232,-360r173,0r141,226r142,-226r166,0xm384,-809r-137,117r-91,0r96,-117r132,0","w":648},"\u00de":{"d":"574,-333v0,137,-75,205,-224,205r-106,0r0,128r-152,0r0,-647r152,0r0,115r95,0v157,0,235,66,235,199xm342,-245v48,-1,78,-32,78,-88v0,-58,-25,-82,-83,-82r-93,0r0,170r98,0","w":622},"\u00df":{"d":"64,-471v-2,-119,75,-186,191,-186v160,0,230,91,191,227v-16,55,-63,77,-111,101v76,25,146,53,169,137v16,60,13,135,-17,182v-52,84,-156,122,-285,125r48,-115v93,4,140,-84,116,-174v-17,-63,-77,-76,-138,-91r0,-107r32,-22v32,-24,53,-50,55,-102v1,-33,-27,-57,-60,-56v-34,1,-54,25,-54,70r0,482r-137,0r0,-471","w":558},"\u00e0":{"d":"468,-140v-2,21,18,123,20,140r-131,0r-18,-42r-35,26v-24,16,-43,30,-79,30v-123,0,-184,-45,-184,-134v0,-115,85,-172,254,-172r35,0v4,-47,-9,-74,-52,-74v-59,0,-117,13,-173,40r-47,-112v65,-22,142,-33,229,-33v103,0,182,46,181,146r0,185xm341,-530r-90,0r-138,-117r132,0xm331,-141r0,-53r-22,0v-84,0,-126,23,-126,68v0,23,23,35,70,35v22,0,48,-17,78,-50","w":543},"\u00e1":{"d":"468,-140v-2,21,18,123,20,140r-131,0r-18,-42r-35,26v-24,16,-43,30,-79,30v-123,0,-184,-45,-184,-134v0,-115,85,-172,254,-172r35,0v4,-47,-9,-74,-52,-74v-59,0,-117,13,-173,40r-47,-112v65,-22,142,-33,229,-33v103,0,182,46,181,146r0,185xm377,-647r-137,117r-91,0r96,-117r132,0xm331,-141r0,-53r-22,0v-84,0,-126,23,-126,68v0,23,23,35,70,35v22,0,48,-17,78,-50","w":543},"\u00e2":{"d":"468,-140v-2,21,18,123,20,140r-131,0r-18,-42r-35,26v-24,16,-43,30,-79,30v-123,0,-184,-45,-184,-134v0,-115,85,-172,254,-172r35,0v4,-47,-9,-74,-52,-74v-59,0,-117,13,-173,40r-47,-112v65,-22,142,-33,229,-33v103,0,182,46,181,146r0,185xm397,-527r-95,0r-49,-60r-52,60r-96,0r104,-120r88,0xm331,-141r0,-53r-22,0v-84,0,-126,23,-126,68v0,23,23,35,70,35v22,0,48,-17,78,-50","w":543},"\u00e3":{"d":"468,-140v-2,21,18,123,20,140r-131,0r-18,-42r-35,26v-24,16,-43,30,-79,30v-123,0,-184,-45,-184,-134v0,-115,85,-172,254,-172r35,0v4,-47,-9,-74,-52,-74v-59,0,-117,13,-173,40r-47,-112v65,-22,142,-33,229,-33v103,0,182,46,181,146r0,185xm307,-574v27,0,48,-27,54,-47r68,33v-16,69,-118,120,-183,64v-19,-16,-33,-24,-41,-24v-27,0,-44,12,-53,37r-69,-32v25,-55,52,-75,123,-80v28,-2,79,49,101,49xm331,-141r0,-53r-22,0v-84,0,-126,23,-126,68v0,23,23,35,70,35v22,0,48,-17,78,-50","w":543},"\u00e4":{"d":"468,-140v-2,21,18,123,20,140r-131,0r-18,-42r-35,26v-24,16,-43,30,-79,30v-123,0,-184,-45,-184,-134v0,-115,85,-172,254,-172r35,0v4,-47,-9,-74,-52,-74v-59,0,-117,13,-173,40r-47,-112v65,-22,142,-33,229,-33v103,0,182,46,181,146r0,185xm244,-521r-121,0r0,-109r121,0r0,109xm408,-521r-121,0r0,-109r121,0r0,109xm331,-141r0,-53r-22,0v-84,0,-126,23,-126,68v0,23,23,35,70,35v22,0,48,-17,78,-50","w":543},"\u00e5":{"d":"468,-140v-2,21,18,123,20,140r-131,0r-18,-42r-35,26v-24,16,-43,30,-79,30v-123,0,-184,-45,-184,-134v0,-115,85,-172,254,-172r35,0v4,-47,-9,-74,-52,-74v-59,0,-117,13,-173,40r-47,-112v65,-22,142,-33,229,-33v103,0,182,46,181,146r0,185xm259,-671v46,0,83,36,83,82v0,45,-38,82,-83,82v-44,0,-83,-38,-83,-82v0,-45,38,-82,83,-82xm331,-141r0,-53r-22,0v-84,0,-126,23,-126,68v0,23,23,35,70,35v22,0,48,-17,78,-50xm259,-551v23,0,38,-17,38,-39v0,-21,-16,-39,-38,-39v-21,0,-39,19,-39,39v0,19,19,39,39,39","w":543},"\u00e6":{"d":"329,-292v4,-46,-8,-74,-51,-74v-59,0,-117,13,-173,40r-47,-112v62,-22,138,-33,229,-33v46,0,90,13,132,39v90,-64,259,-46,311,31v32,48,50,124,50,231r-313,0v11,55,44,83,99,83v42,0,89,-13,141,-39r45,104v-54,24,-119,36,-194,36v-74,0,-151,-33,-173,-79v-53,53,-106,79,-160,79v-123,0,-184,-45,-184,-134v0,-115,85,-172,254,-172r34,0xm644,-271v-2,-83,-74,-116,-140,-81v-23,12,-36,44,-37,81r177,0xm330,-140r0,-54r-21,0v-84,0,-126,23,-126,68v-8,31,67,45,103,27v18,-9,31,-27,44,-41","w":823},"\u00e7":{"d":"281,-367v-83,3,-99,45,-100,142v0,90,33,135,99,135v24,0,63,-13,118,-39r52,108v-29,15,-77,26,-146,34r-4,12v42,-2,68,37,69,74v3,82,-72,132,-147,132v-35,0,-72,-3,-111,-8r32,-88v48,6,73,9,74,9v26,0,53,-16,51,-43v-3,-39,-30,-35,-83,-37r15,-59v-99,-25,-159,-110,-159,-230v0,-154,83,-249,241,-247v41,0,133,23,163,36r-51,109v-26,-9,-76,-41,-113,-40","w":477},"\u00e8":{"d":"41,-224v3,-149,74,-247,227,-247v187,0,227,101,230,301r-314,0v11,55,44,83,99,83v42,0,89,-13,141,-39r45,104v-54,24,-119,36,-194,36v-142,0,-236,-102,-234,-238xm361,-271v-6,-71,-46,-106,-113,-93v-21,4,-43,18,-52,41v-6,14,-10,31,-11,52r176,0xm351,-530r-90,0r-138,-117r132,0","w":541},"\u00e9":{"d":"41,-224v3,-149,74,-247,227,-247v187,0,227,101,230,301r-314,0v11,55,44,83,99,83v42,0,89,-13,141,-39r45,104v-54,24,-119,36,-194,36v-142,0,-236,-102,-234,-238xm361,-271v-6,-71,-46,-106,-113,-93v-21,4,-43,18,-52,41v-6,14,-10,31,-11,52r176,0xm421,-647r-137,117r-91,0r96,-117r132,0","w":541},"\u00ea":{"d":"41,-224v3,-149,74,-247,227,-247v187,0,227,101,230,301r-314,0v11,55,44,83,99,83v42,0,89,-13,141,-39r45,104v-54,24,-119,36,-194,36v-142,0,-236,-102,-234,-238xm361,-271v-6,-71,-46,-106,-113,-93v-21,4,-43,18,-52,41v-6,14,-10,31,-11,52r176,0xm429,-527r-95,0r-49,-60r-52,60r-96,0r104,-120r88,0","w":541},"\u00eb":{"d":"41,-224v3,-149,74,-247,227,-247v187,0,227,101,230,301r-314,0v11,55,44,83,99,83v42,0,89,-13,141,-39r45,104v-54,24,-119,36,-194,36v-142,0,-236,-102,-234,-238xm361,-271v-6,-71,-46,-106,-113,-93v-21,4,-43,18,-52,41v-6,14,-10,31,-11,52r176,0xm423,-524r-120,0r0,-103r120,0r0,103xm260,-524r-120,0r0,-103r120,0r0,103","w":541},"\u00ec":{"d":"249,-530r-90,0r-138,-117r132,0xm221,0r-136,0r0,-457r136,0r0,457","w":266},"\u00ed":{"d":"245,-647r-137,117r-91,0r96,-117r132,0xm201,0r-136,0r0,-457r136,0r0,457","w":266},"\u00ee":{"d":"279,-527r-95,0r-49,-60r-52,60r-96,0r104,-120r88,0xm201,0r-136,0r0,-457r136,0r0,457","w":266},"\u00ef":{"d":"275,-551r-120,0r0,-103r120,0r0,103xm112,-551r-120,0r0,-103r120,0r0,103xm201,0r-136,0r0,-457r136,0r0,457","w":266},"\u00f0":{"d":"262,-408v49,0,97,26,116,61v0,-84,-39,-143,-99,-167r-74,49r-92,-54r46,-31v-24,0,-44,2,-68,6r-42,-121v91,-1,173,7,235,28r55,-40r89,54r-49,34v95,59,142,161,142,306v0,201,-81,301,-244,301v-117,0,-230,-80,-230,-198v0,-152,72,-228,215,-228xm198,-180v0,55,29,85,78,85v76,0,93,-43,93,-138v-17,-39,-39,-62,-94,-62v-62,0,-77,46,-77,115"},"\u00f1":{"d":"317,-472v128,-2,168,62,168,184r0,288r-137,0r0,-297v2,-45,-11,-74,-56,-71v-50,3,-66,48,-91,91r0,277r-137,0r0,-360v0,-13,-4,-45,-13,-97r127,0r20,56v32,-30,58,-70,119,-71xm316,-574v27,0,48,-27,54,-47r68,33v-16,69,-118,120,-183,64v-19,-16,-33,-24,-41,-24v-27,0,-44,12,-53,37r-69,-32v25,-55,52,-75,123,-80v28,-2,79,49,101,49","w":549},"\u00f2":{"d":"279,-472v157,0,237,93,237,241v0,146,-83,246,-237,246v-156,0,-238,-99,-238,-246v0,-143,85,-241,238,-241xm279,-368v-78,0,-98,45,-98,137v0,95,33,142,98,142v65,0,97,-47,97,-142v0,-94,-16,-137,-97,-137xm373,-530r-90,0r-138,-117r132,0","w":557},"\u00f3":{"d":"279,-472v157,0,237,93,237,241v0,146,-83,246,-237,246v-156,0,-238,-99,-238,-246v0,-143,85,-241,238,-241xm279,-368v-78,0,-98,45,-98,137v0,95,33,142,98,142v65,0,97,-47,97,-142v0,-94,-16,-137,-97,-137xm413,-647r-137,117r-91,0r96,-117r132,0","w":557},"\u00f4":{"d":"279,-472v157,0,237,93,237,241v0,146,-83,246,-237,246v-156,0,-238,-99,-238,-246v0,-143,85,-241,238,-241xm279,-368v-78,0,-98,45,-98,137v0,95,33,142,98,142v65,0,97,-47,97,-142v0,-94,-16,-137,-97,-137xm425,-527r-95,0r-49,-60r-52,60r-96,0r104,-120r88,0","w":557},"\u00f5":{"d":"279,-472v157,0,237,93,237,241v0,146,-83,246,-237,246v-156,0,-238,-99,-238,-246v0,-143,85,-241,238,-241xm279,-368v-78,0,-98,45,-98,137v0,95,33,142,98,142v65,0,97,-47,97,-142v0,-94,-16,-137,-97,-137xm324,-574v27,0,48,-27,54,-47r68,33v-16,69,-118,120,-183,64v-19,-16,-33,-24,-41,-24v-27,0,-44,12,-53,37r-69,-32v25,-55,52,-75,123,-80v28,-2,79,49,101,49","w":557},"\u00f6":{"d":"279,-472v157,0,237,93,237,241v0,146,-83,246,-237,246v-156,0,-238,-99,-238,-246v0,-143,85,-241,238,-241xm279,-368v-78,0,-98,45,-98,137v0,95,33,142,98,142v65,0,97,-47,97,-142v0,-94,-16,-137,-97,-137xm426,-524r-120,0r0,-103r120,0r0,103xm263,-524r-120,0r0,-103r120,0r0,103","w":557},"\u00f7":{"d":"353,-308r-141,0r0,-124r141,0r0,124xm516,-177r-466,0r0,-87r466,0r0,87xm353,-4r-141,0r0,-124r141,0r0,124"},"\u00f8":{"d":"41,-231v1,-143,85,-241,238,-241v47,0,85,5,115,15r47,-50r89,87r-45,50v21,37,31,83,31,139v-1,146,-83,246,-237,246v-47,0,-88,-8,-124,-24r-48,54r-90,-87r51,-58v-18,-37,-27,-80,-27,-131xm279,-368v-78,3,-98,45,-98,137v0,3,-1,8,-3,13r139,-153xm377,-252r-142,156v89,26,144,-20,141,-135v0,-9,0,-16,1,-21","w":557},"\u00f9":{"d":"354,-530r-90,0r-138,-117r132,0xm201,-160v-15,72,71,93,104,41v15,-24,23,-38,36,-61r0,-277r137,0r0,360v0,13,4,45,13,97r-127,0r-20,-56v-26,27,-60,71,-115,71v-123,1,-165,-65,-165,-184r0,-288r137,0r0,297","w":542},"\u00fa":{"d":"201,-160v-15,72,71,93,104,41v15,-24,23,-38,36,-61r0,-277r137,0r0,360v0,13,4,45,13,97r-127,0r-20,-56v-26,27,-60,71,-115,71v-123,1,-165,-65,-165,-184r0,-288r137,0r0,297xm402,-647r-137,117r-91,0r96,-117r132,0","w":542},"\u00fb":{"d":"201,-160v-15,72,71,93,104,41v15,-24,23,-38,36,-61r0,-277r137,0r0,360v0,13,4,45,13,97r-127,0r-20,-56v-26,27,-60,71,-115,71v-123,1,-165,-65,-165,-184r0,-288r137,0r0,297xm411,-527r-95,0r-49,-60r-52,60r-96,0r104,-120r88,0","w":542},"\u00fc":{"d":"201,-160v-15,72,71,93,104,41v15,-24,23,-38,36,-61r0,-277r137,0r0,360v0,13,4,45,13,97r-127,0r-20,-56v-26,27,-60,71,-115,71v-123,1,-165,-65,-165,-184r0,-288r137,0r0,297xm412,-524r-120,0r0,-103r120,0r0,103xm249,-524r-120,0r0,-103r120,0r0,103","w":542},"\u00fd":{"d":"518,-457r-201,530v-36,96,-100,159,-191,190r-47,-111v47,-13,77,-34,88,-65r40,-106r-173,-438r146,0r94,284r100,-284r144,0xm383,-647r-137,117r-91,0r96,-117r132,0","w":552},"\u00fe":{"d":"318,-471v132,-2,192,108,192,240v0,133,-78,245,-211,245v-47,0,-86,-28,-101,-56r-23,223r-127,0v24,-250,14,-566,16,-838r137,0r0,256v35,-47,74,-70,117,-70xm370,-229v0,-53,-7,-90,-22,-109v-21,-28,-64,-40,-94,-13v-26,23,-37,50,-55,78r0,111v19,47,45,71,76,71v63,0,95,-46,95,-138","w":551},"\u00ff":{"d":"518,-457r-201,530v-36,96,-100,159,-191,190r-47,-111v47,-13,77,-34,88,-65r40,-106r-173,-438r146,0r94,284r100,-284r144,0xm432,-521r-120,0r0,-103r120,0r0,103xm269,-521r-120,0r0,-103r120,0r0,103"},"\u0152":{"d":"57,-321v0,-215,101,-339,319,-340v42,0,80,5,113,14r451,0r0,117r-296,0v18,51,29,96,34,137r241,0r0,117r-240,0v-3,54,-15,107,-34,159r304,0r0,117r-442,0v-37,13,-81,20,-132,20v-212,0,-318,-114,-318,-341xm375,-97v127,0,148,-81,148,-224v0,-84,-12,-143,-35,-175v-23,-32,-60,-48,-113,-48v-126,0,-161,79,-161,223v0,152,30,224,161,224","w":1054},"\u0153":{"d":"41,-231v0,-143,85,-241,238,-241v68,0,124,16,167,47v40,-31,90,-46,151,-46v187,0,227,101,230,301r-314,0v11,55,44,83,99,83v42,0,89,-13,141,-39r45,104v-99,43,-269,58,-352,-14v-44,34,-100,51,-167,51v-156,0,-238,-99,-238,-246xm690,-271v-6,-71,-47,-106,-114,-93v-21,4,-42,18,-51,41v-6,14,-10,31,-11,52r176,0xm279,-368v-78,0,-98,45,-98,137v0,95,33,142,98,142v65,0,97,-47,97,-142v0,-94,-16,-137,-97,-137","w":870},"\u0178":{"d":"635,-647r-238,356r0,291r-152,0r0,-287r-232,-360r173,0r141,226r142,-226r166,0xm473,-710r-119,0r0,-105r119,0r0,105xm312,-710r-118,0r0,-105r118,0r0,105","w":648},"\u02c6":{"d":"279,-527r-95,0r-49,-60r-52,60r-96,0r104,-120r88,0","w":266},"\u02dc":{"d":"184,-574v27,0,48,-27,54,-47r68,33v-16,69,-118,120,-183,64v-19,-16,-33,-24,-41,-24v-27,0,-44,12,-53,37r-69,-32v25,-55,52,-75,123,-80v28,-2,79,49,101,49","w":266},"\u2013":{"d":"501,-187r-502,0r0,-100r502,0r0,100","w":500},"\u2014":{"d":"1001,-177r-1002,0r0,-110r1002,0r0,110","w":1000},"\u2018":{"d":"233,-648r-85,188r-103,0r99,-188r89,0","w":283},"\u2019":{"d":"232,-648r-99,188r-90,0r86,-188r103,0","w":283},"\u201a":{"d":"232,-100r-99,188r-90,0r86,-188r103,0","w":283},"\u201c":{"d":"393,-648r-85,188r-103,0r98,-188r90,0xm228,-648r-85,188r-103,0r99,-188r89,0","w":433},"\u201d":{"d":"393,-648r-99,188r-88,0r85,-188r102,0xm228,-648r-98,188r-90,0r85,-188r103,0","w":433},"\u201e":{"d":"393,-100r-99,188r-88,0r85,-188r102,0xm228,-100r-98,188r-90,0r85,-188r103,0","w":433},"\u2022":{"d":"283,-475v82,0,151,69,151,151v0,82,-69,152,-151,152v-83,0,-151,-69,-151,-152v0,-83,69,-151,151,-151"},"\u2026":{"d":"779,0r-142,0r0,-124r142,0r0,124xm495,0r-141,0r0,-124r141,0r0,124xm212,0r-141,0r0,-124r141,0r0,124","w":850},"\u2039":{"d":"259,-452r-97,180r96,180r-123,0r-93,-178r93,-182r124,0","w":283},"\u203a":{"d":"256,-270r-93,178r-123,0r96,-180r-97,-180r124,0","w":283},"\u20ac":{"d":"240,-196v15,78,73,108,166,96v46,-6,93,-31,129,-45r0,141v-42,16,-95,24,-158,24v-166,0,-264,-72,-294,-216r-114,0r38,-117r65,0r0,-29r-103,0r38,-117r79,0v35,-135,133,-202,294,-202v65,0,124,9,177,26r-40,122v-51,-21,-96,-31,-137,-31v-73,0,-118,28,-137,85r254,0r-38,117r-230,0r0,29r220,0r-38,117r-171,0","w":540},"\u2122":{"d":"870,-291r-89,0r0,-268r-97,268r-99,0r-97,-268r0,268r-86,0r0,-356r151,0r85,247r86,-247r146,0r0,356xm358,-584r-104,0r0,293r-89,0r0,-293r-104,0r0,-63r297,0r0,63","w":937}}});
