/*!
 * The following copyright notice may not be removed under any circumstances.
 * 
 * Copyright:
 * Copyright (c) 2003 by This Font is designed by Ralph Oliver du Carrois. All
 * rights reserved.
 * 
 * Trademark:
 * Colaborate-Regular is a trademark of This Font is designed by Ralph Oliver du
 * Carrois.
 * 
 * Description:
 * Copyright (c) 2003 by This Font is designed by Ralph Oliver du Carrois. All
 * rights reserved.
 * 
 * Manufacturer:
 * This Font is designed by Ralph Oliver du Carrois
 */
Cufon.registerFont({"w":514,"face":{"font-family":"Colaborate-Regular","font-weight":400,"font-stretch":"normal","units-per-em":"1000","panose-1":"2 0 5 3 6 0 0 2 0 4","ascent":"800","descent":"-200","x-height":"13","bbox":"-34 -835 1001 227","underline-thickness":"50","underline-position":"-50","unicode-range":"U+0020-U+2122"},"glyphs":{" ":{"w":257},"!":{"d":"173,-176r-89,0r0,-471r89,0r0,471xm179,0r-100,0r0,-97r100,0r0,97","w":257},"\"":{"d":"304,-647r-8,217r-67,0r-8,-217r83,0xm160,-647r-8,217r-67,0r-8,-217r83,0","w":380},"#":{"d":"499,-392r-107,0r-26,145r94,0r0,66r-105,0r-32,181r-78,0r32,-181r-96,0r-31,181r-78,0r32,-181r-90,0r0,-66r101,0r26,-145r-88,0r0,-66r100,0r33,-189r78,0r-33,189r95,0r33,-189r78,0r-33,189r95,0r0,66xm314,-392r-96,0r-25,145r96,0"},"$":{"d":"289,-369v91,35,171,76,172,201v0,106,-57,167,-172,182r0,84r-73,0r0,-80v-41,-1,-99,-11,-172,-30r32,-85r68,25v24,8,43,12,72,13r0,-237v-90,-34,-173,-69,-175,-189v-2,-106,78,-159,175,-171r0,-90r73,0r0,88v57,4,105,13,144,26r-32,85v-43,-19,-80,-30,-112,-33r0,211xm217,-398r0,-179v-51,11,-77,42,-77,92v0,51,36,68,77,87xm362,-166v0,-40,-25,-73,-74,-98r0,195v49,-15,74,-47,74,-97"},"%":{"d":"600,-338v106,0,136,66,136,172v0,107,-30,179,-137,178v-106,0,-134,-71,-134,-178v0,-115,45,-172,135,-172xm612,-629r-363,629r-80,0r362,-629r81,0xm184,-658v106,0,135,65,135,171v0,108,-29,179,-136,179v-106,0,-134,-72,-134,-179v0,-114,45,-171,135,-171xm599,-35v67,0,72,-56,72,-131v0,-75,-3,-125,-71,-125v-62,0,-69,58,-69,125v0,69,1,131,68,131xm183,-356v67,0,72,-56,72,-131v0,-75,-3,-124,-71,-124v-62,0,-70,57,-70,124v0,76,2,131,69,131","w":784},"&":{"d":"454,-140v-2,20,13,127,14,140r-82,0r-14,-49v-20,32,-73,64,-123,64v-119,-1,-203,-66,-203,-192v0,-86,38,-148,113,-186v-42,-32,-93,-61,-93,-132v0,-103,60,-167,171,-167v108,0,172,52,171,160v0,64,-54,119,-162,164v-68,30,-108,68,-108,159v0,70,41,125,119,125v41,0,77,-24,109,-72r0,-101r-96,0r0,-64r184,0r0,151xm224,-399v47,-22,94,-44,94,-104v0,-60,-28,-90,-83,-90v-60,0,-91,58,-73,123v9,31,39,52,62,71"},"'":{"d":"170,-647r-8,217r-67,0r-8,-217r83,0","w":257},"(":{"d":"147,-254v0,177,26,253,96,382r-81,0v-75,-134,-106,-198,-106,-382v0,-192,30,-260,101,-393r81,0v-68,128,-91,207,-91,393","w":295},")":{"d":"140,-647v71,133,101,201,101,393v0,184,-31,248,-106,382r-82,0v70,-129,96,-204,96,-382v0,-186,-23,-265,-91,-393r82,0","w":295},"*":{"d":"399,-484r-147,36r-1,7r96,124r-52,37r-83,-128r-8,0r-85,128r-52,-38r96,-123r-2,-7r-149,-37r20,-63r143,54r8,-6r-7,-149r63,0r-8,152r7,4r143,-53","w":410},"+":{"d":"470,-182r-173,0r0,182r-80,0r0,-182r-173,0r0,-71r173,0r0,-175r80,0r0,175r173,0r0,71"},",":{"d":"178,-75r-81,178r-69,0r51,-178r99,0","w":257},"-":{"d":"310,-196r-282,0r0,-76r282,0r0,76","w":338},".":{"d":"178,0r-99,0r0,-96r99,0r0,96","w":257},"\/":{"d":"284,-657r-212,668r-79,0r213,-668r78,0","w":277},"0":{"d":"367,-597v115,55,122,254,100,416v-10,74,-42,142,-100,173v-57,31,-166,31,-223,0v-57,-31,-85,-99,-98,-172v-6,-36,-8,-79,-8,-128v0,-208,73,-312,218,-312v44,0,81,9,111,23xm138,-308v1,125,-2,249,117,249v58,0,89,-27,103,-75v26,-85,24,-221,8,-317v-10,-60,-43,-91,-110,-94v-84,-2,-106,75,-114,149v-2,24,-4,53,-4,88"},"1":{"d":"359,1r-100,0r0,-508r-115,95r-31,-75r150,-120r96,0r0,608"},"2":{"d":"244,-621v124,0,213,58,210,189v-1,59,-41,124,-70,161v-54,69,-142,143,-210,195r292,0r0,76r-394,0r-29,-82r123,-100v55,-50,136,-114,170,-186v12,-22,17,-42,17,-60v1,-82,-35,-117,-111,-118v-39,0,-89,16,-151,48r-31,-83v75,-27,101,-40,184,-40"},"3":{"d":"291,-320v81,14,152,59,150,156v-2,131,-98,180,-227,180v-69,0,-128,-8,-176,-25r30,-83v53,22,103,33,149,33v70,1,126,-38,124,-106v-3,-102,-79,-120,-191,-118r0,-72v61,0,106,-6,134,-19v28,-13,42,-41,42,-82v0,-60,-34,-90,-101,-90v-36,0,-85,15,-146,45r-30,-83v37,-20,124,-37,178,-37v133,0,199,54,199,163v0,84,-60,129,-135,138"},"4":{"d":"492,-164r-96,0r0,164r-98,0r0,-164r-242,0r-33,-78r270,-365r103,0r0,367r96,0r0,76xm298,-240r0,-265r-195,265r195,0"},"5":{"d":"267,-392v123,0,196,73,196,199v0,132,-99,210,-231,209v-75,0,-135,-8,-182,-23r31,-83v51,21,102,31,152,31v88,0,132,-45,132,-136v0,-96,-67,-139,-156,-113v-36,9,-46,19,-72,33r-68,-27r0,-305r369,0r0,75r-271,0r0,159v39,-13,73,-19,100,-19"},"6":{"d":"272,-402v131,-2,196,81,196,214v0,113,-91,204,-204,204v-146,0,-219,-100,-219,-299v0,-125,37,-221,109,-285v69,-62,179,-62,281,-35r-31,83v-86,-43,-178,-33,-224,40v-28,44,-42,98,-42,165v20,-45,77,-86,134,-87xm265,-59v66,0,103,-55,103,-129v0,-80,-21,-140,-102,-139v-57,0,-96,29,-119,88v1,116,21,180,118,180"},"7":{"d":"449,-539r-221,539r-108,0r241,-531r-313,0r0,-75r369,0"},"8":{"d":"329,-319v86,26,147,66,147,167v0,112,-74,168,-222,168v-145,0,-217,-56,-217,-168v0,-86,49,-142,147,-168r-40,-18v-47,-25,-86,-53,-86,-121v0,-112,82,-163,201,-162v129,1,202,40,202,161v0,77,-67,128,-132,141xm255,-353v49,-14,110,-46,110,-104v0,-66,-36,-90,-106,-90v-70,0,-103,24,-104,90v-1,58,54,89,100,104xm254,-58v73,0,124,-29,125,-96v0,-61,-41,-104,-122,-130v-66,24,-122,47,-122,130v0,65,48,96,119,96"},"9":{"d":"249,-621v172,2,220,128,220,299v0,141,-47,252,-139,308v-68,42,-166,34,-251,12r31,-83v86,44,177,34,224,-39v28,-44,42,-99,42,-166v-20,45,-77,86,-134,87v-131,2,-197,-80,-197,-213v0,-112,93,-206,204,-205xm146,-416v0,79,21,138,101,138v57,0,97,-29,120,-88v-1,-116,-22,-180,-119,-180v-66,0,-102,56,-102,130"},":":{"d":"178,-356r-99,0r0,-96r99,0r0,96xm178,0r-99,0r0,-96r99,0r0,96","w":257},";":{"d":"177,-356r-99,0r0,-96r99,0r0,96xm178,-75r-81,178r-69,0r50,-178r100,0","w":257},"<":{"d":"474,-29r-434,-157r0,-100r434,-159r0,89r-344,120r344,118r0,89"},"=":{"d":"474,-256r-434,0r0,-72r434,0r0,72xm474,-83r-434,0r0,-72r434,0r0,72"},">":{"d":"474,-188r-434,159r0,-89r344,-120r-344,-118r0,-89r434,158r0,99"},"?":{"d":"214,-580v-40,0,-117,20,-145,35r-18,-82v98,-34,205,-43,290,-3v54,26,84,129,46,194v-32,54,-93,79,-129,129v-25,34,-14,84,-17,137r-90,0v2,-53,-6,-111,11,-150v28,-64,96,-84,134,-138v8,-12,12,-25,12,-39v-1,-63,-28,-82,-94,-83xm246,0r-100,0r0,-97r100,0r0,97","w":435},"@":{"d":"81,-320v0,-221,166,-340,385,-339v86,1,157,26,214,63v62,39,109,116,109,215v-2,183,-128,253,-310,255v-134,2,-223,-65,-223,-195v0,-115,79,-194,202,-191v35,0,68,5,98,14r0,173r27,-2r26,67r-134,14r0,-192v-5,-3,-13,-5,-23,-5v-69,2,-107,42,-107,121v0,88,52,130,136,130v140,0,218,-44,218,-188v0,-171,-141,-234,-310,-203v-128,23,-218,107,-218,263v0,157,89,239,219,262v104,18,183,2,290,-27r31,74v-72,19,-154,29,-246,29v-225,1,-384,-115,-384,-338","w":870},"A":{"d":"626,0r-110,0r-64,-183r-248,0r-68,183r-105,0r263,-647r88,0xm427,-258r-94,-273r-101,273r195,0","w":657},"B":{"d":"414,-339v79,14,133,63,133,153v0,124,-72,186,-215,186r-236,0r0,-647r203,0v133,2,219,40,218,174v0,70,-47,116,-103,134xm313,-371v61,0,103,-37,102,-101v-1,-72,-38,-98,-116,-98r-103,0r0,199r117,0xm326,-77v77,-1,119,-28,118,-109v0,-73,-43,-109,-129,-109r-119,0r0,218r130,0","w":603},"C":{"d":"164,-324v0,154,37,262,180,265v34,0,82,-13,145,-38r32,85v-57,20,-115,30,-176,30v-189,0,-284,-114,-284,-341v0,-204,83,-335,289,-336v58,0,113,8,164,25r-32,85v-51,-22,-95,-33,-132,-33v-124,0,-186,86,-186,258","w":559},"D":{"d":"281,-647v225,3,309,91,309,321v0,230,-83,324,-309,326r-185,0r0,-647r185,0xm290,-77v148,-4,197,-83,197,-248v0,-161,-47,-250,-206,-245r-85,0r0,493r94,0","w":651},"E":{"d":"476,0r-380,0r0,-647r371,0r0,77r-271,0r0,197r250,0r0,77r-250,0r0,219r280,0r0,77","w":559},"F":{"d":"467,-569r-271,0r0,200r259,0r0,76r-259,0r0,293r-100,0r0,-647r371,0r0,78","w":521},"G":{"d":"164,-324v1,158,34,263,185,265v39,0,78,-11,116,-32r0,-165r-143,0r0,-77r232,0r0,294v-69,36,-111,56,-208,57v-190,0,-285,-114,-285,-342v1,-205,89,-336,294,-335v40,0,92,8,156,25r-32,85v-51,-22,-92,-33,-123,-33v-144,4,-193,95,-192,258","w":615},"H":{"d":"574,0r-100,0r0,-295r-278,0r0,295r-100,0r0,-647r100,0r0,274r278,0r0,-274r100,0r0,647","w":670},"I":{"d":"184,0r-100,0r0,-647r100,0r0,647","w":268},"J":{"d":"325,-204v2,191,-129,252,-283,288r-26,-84r57,-11v38,-8,81,-23,105,-47v30,-29,47,-75,47,-136r0,-453r100,0r0,443","w":421},"K":{"d":"609,0r-130,0r-283,-304r0,304r-100,0r0,-647r100,0r0,284r262,-284r112,0r-282,305","w":624},"L":{"d":"478,0r-382,0r0,-647r100,0r0,567r282,0r0,80","w":485},"M":{"d":"785,0r-97,0r0,-541r-201,541r-95,0r-202,-541r0,541r-94,0r0,-647r159,0r188,511r191,-511r151,0r0,647","w":881},"N":{"d":"605,0r-148,0r-267,-529r0,529r-94,0r0,-647r146,0r265,529r0,-529r98,0r0,647","w":701},"O":{"d":"61,-321v0,-203,87,-338,293,-338v192,0,288,113,288,338v0,204,-83,339,-289,339v-195,0,-292,-113,-292,-339xm353,-59v148,0,186,-105,186,-262v0,-160,-39,-261,-186,-261v-148,0,-189,101,-189,261v0,163,39,262,189,262","w":703},"P":{"d":"526,-458v0,130,-71,195,-212,195r-118,0r0,263r-100,0r0,-647r207,0v149,0,223,63,223,189xm306,-340v80,-1,118,-34,118,-118v0,-87,-40,-112,-123,-112r-105,0r0,230r110,0","w":578},"Q":{"d":"61,-321v0,-204,86,-338,293,-338v192,0,288,113,288,338v0,204,-83,339,-289,339v-195,0,-292,-113,-292,-339xm574,61r-35,70r-219,-33r35,-57xm353,-59v148,0,186,-105,186,-262v0,-160,-39,-261,-186,-261v-148,0,-189,101,-189,261v0,163,39,262,189,262","w":703},"R":{"d":"531,-467v-1,110,-60,177,-172,185r211,282r-121,0r-206,-279r-47,0r0,279r-100,0r0,-647r222,0v126,2,214,50,213,180xm324,-356v71,1,105,-42,105,-111v0,-66,-38,-104,-106,-103r-127,0r0,214r128,0","w":614},"S":{"d":"506,-168v0,124,-85,186,-256,186v-49,0,-111,-10,-184,-30r32,-85v67,25,118,38,153,38v102,0,153,-36,153,-107v-1,-65,-57,-90,-104,-110v-103,-44,-234,-65,-234,-209v0,-124,104,-174,233,-174v58,0,114,9,167,27r-32,85v-41,-16,-78,-35,-136,-35v-87,0,-130,32,-130,97v0,37,34,67,60,78v53,23,176,66,203,88v48,39,75,86,75,151","w":572},"T":{"d":"493,-569r-185,0r0,569r-99,0r0,-569r-185,0r0,-78r469,0r0,78","w":517},"U":{"d":"357,-59v111,0,148,-67,148,-190r0,-398r100,0r0,410v0,170,-83,255,-248,255v-179,0,-260,-80,-261,-257r0,-408r100,0r0,398v0,136,38,190,161,190","w":701},"V":{"d":"599,-647r-235,647r-91,0r-244,-647r110,0r182,520r173,-520r105,0","w":628},"W":{"d":"888,-647r-169,647r-121,0r-135,-483r-152,483r-121,0r-155,-647r105,0r123,522r147,-495r120,0r131,496r131,-523r96,0","w":923},"X":{"d":"568,0r-119,0r-149,-256r-162,256r-107,0r216,-334r-190,-313r115,0r134,226r142,-226r107,0r-199,307","w":605},"Y":{"d":"575,-647r-228,356r0,291r-100,0r0,-287r-232,-360r113,0r173,270r168,-270r106,0","w":590},"Z":{"d":"506,-565r-354,487r346,0r0,78r-426,0r-28,-82r354,-487r-317,0r0,-78r397,0","w":550},"[":{"d":"242,127r-159,0r0,-803r159,0r0,65r-79,0r0,670r79,0r0,68","w":289},"\\":{"d":"284,11r-79,0r-212,-668r78,0","w":277},"]":{"d":"212,126r-159,0r0,-67r79,0r0,-671r-79,0r0,-65r159,0r0,803","w":289},"^":{"d":"481,-269r-87,0r-138,-295r-138,295r-84,0r181,-378r81,0"},"_":{"d":"501,109r-502,0r0,-68r502,0r0,68","w":500},"`":{"d":"209,-530r-66,0r-124,-117r94,0","w":228},"a":{"d":"424,-140v0,43,12,100,16,140r-83,0r-16,-50v-35,41,-77,62,-124,62v-98,0,-172,-39,-172,-132v0,-51,19,-90,55,-120v40,-33,136,-45,234,-42v5,-71,-15,-118,-78,-118v-51,0,-105,13,-161,40r-31,-74v63,-23,128,-35,195,-35v98,0,166,48,165,146r0,183xm139,-124v0,48,41,67,92,67v47,0,82,-18,104,-54r0,-109v-108,0,-196,3,-196,96","w":501},"b":{"d":"280,-469v132,-2,186,105,186,238v1,133,-67,243,-199,243v-52,0,-93,-31,-113,-62r-16,50r-81,0v7,-57,11,-104,11,-140r0,-517r89,0r0,264v35,-51,76,-76,123,-76xm155,-124v16,37,52,66,100,67v79,0,119,-57,119,-172v0,-114,-35,-171,-106,-171v-62,0,-91,47,-113,93r0,183","w":511},"c":{"d":"261,-400v-98,2,-123,68,-124,175v0,112,41,168,123,168v36,0,77,-12,124,-36r31,74v-26,14,-117,31,-156,31v-141,1,-215,-95,-214,-237v0,-149,69,-245,217,-244v40,0,121,18,150,31r-31,74v-48,-24,-88,-36,-120,-36","w":451},"d":{"d":"45,-231v-1,-128,63,-240,188,-238v46,0,86,25,121,76r0,-264r89,0r0,517v0,36,4,83,11,140r-81,0r-16,-50v-21,32,-62,62,-113,62v-139,0,-199,-105,-199,-243xm137,-229v1,106,25,172,119,172v39,0,72,-22,100,-67r0,-183v-31,-62,-68,-93,-112,-93v-71,0,-107,57,-107,171","w":511},"e":{"d":"253,12v-164,0,-236,-155,-199,-320v21,-90,80,-162,194,-161v167,2,203,101,206,275r-314,0v7,93,47,139,121,139v41,0,87,-13,139,-39r29,70v-52,24,-111,36,-176,36xm367,-261v-3,-93,-42,-139,-118,-139v-70,0,-108,60,-110,139r228,0","w":501},"f":{"d":"309,-600v-92,10,-138,45,-138,105r0,38r104,0r0,69r-104,0r0,388r-89,0r0,-388r-69,0r0,-69r69,0v-9,-116,55,-175,138,-204v22,-8,44,-13,66,-14","w":309},"g":{"d":"61,-298v0,-112,75,-170,195,-171v27,0,52,3,77,10v75,-6,128,-10,157,-11r-25,63r-60,0v24,20,51,65,50,109v-3,108,-72,178,-197,174v-23,0,-84,-9,-98,-19v-28,25,-35,53,4,68v18,7,55,12,110,16v83,7,138,21,168,41v30,20,45,49,45,87v0,45,-22,76,-64,99v-76,43,-270,40,-333,-1v-34,-23,-52,-54,-52,-95v0,-41,28,-71,85,-90v-41,-18,-62,-45,-62,-82v0,-24,16,-50,49,-77v-33,-40,-49,-80,-49,-121xm259,-191v69,0,102,-45,103,-109v0,-67,-35,-101,-104,-101v-65,0,-104,39,-104,105v0,67,38,105,105,105xm184,8v-26,8,-52,32,-53,61v0,20,13,35,37,48v41,23,159,23,196,1v20,-11,30,-27,30,-49v0,-35,-70,-55,-210,-61","w":521},"h":{"d":"280,-470v118,0,161,67,161,179r0,291r-89,0r0,-287v-2,-72,-14,-113,-86,-113v-45,0,-82,30,-109,91r0,309r-89,0r0,-657r89,0r0,264v23,-35,65,-77,123,-77","w":509},"i":{"d":"162,-559r-96,0r0,-88r96,0r0,88xm159,0r-90,0r0,-457r90,0r0,457","w":228},"j":{"d":"158,-559r-97,0r0,-88r97,0r0,88xm-28,103v63,-15,93,-31,93,-100r0,-460r89,0r0,451v0,91,-51,152,-152,184","w":224},"k":{"d":"450,0r-104,0r-189,-234r0,234r-89,0r0,-657r89,0r0,384r172,-184r97,0r-186,198","w":464},"l":{"d":"157,0r-89,0r0,-657r89,0r0,657","w":225},"m":{"d":"422,-387v27,-42,74,-83,140,-83v107,0,160,59,160,178r0,292r-89,0r0,-290v-1,-69,-17,-109,-83,-110v-57,0,-97,51,-113,96r0,304r-89,0r0,-290v0,-72,-19,-108,-85,-110v-49,-1,-92,54,-106,90r0,310r-89,0r0,-352v1,-19,-9,-91,-11,-105r81,0r17,65v23,-33,69,-79,123,-78v83,1,111,29,144,83","w":790},"n":{"d":"279,-470v120,-3,162,65,162,182r0,288r-89,0r0,-289v-2,-70,-14,-111,-86,-111v-55,1,-89,50,-109,91r0,309r-89,0r0,-360v1,-21,-9,-81,-11,-97r81,0r16,64v30,-38,61,-76,125,-77","w":509},"o":{"d":"259,-470v149,0,213,95,213,239v0,144,-65,244,-213,244v-149,0,-214,-100,-214,-244v0,-139,68,-239,214,-239xm380,-231v0,-105,-25,-169,-121,-169v-81,0,-122,56,-122,169v0,116,41,174,122,174v81,0,121,-58,121,-174","w":517},"p":{"d":"274,-470v137,0,192,102,192,244v0,129,-59,241,-186,239v-52,0,-101,-29,-123,-62r0,229r-89,0r0,-499v0,-37,-4,-83,-11,-138r81,0r18,64v35,-51,74,-77,118,-77xm256,-400v-51,0,-83,48,-100,90r0,186v28,45,65,67,111,67v71,0,107,-57,107,-171v-1,-105,-25,-172,-118,-172","w":511},"q":{"d":"45,-226v0,-134,60,-246,192,-244v44,0,83,26,118,77r18,-64r81,0v-7,55,-11,101,-11,138r0,499r-89,0r0,-229v-24,33,-69,62,-122,62v-132,2,-187,-107,-187,-239xm356,-310v-17,-41,-51,-90,-102,-90v-78,0,-117,57,-117,172v0,114,36,171,107,171v47,0,84,-22,112,-67r0,-186","w":511},"r":{"d":"154,-377v21,-37,56,-92,108,-93v31,0,60,8,85,23r-32,75v-42,-24,-63,-40,-99,-20v-32,18,-45,66,-59,102r0,290r-89,0r0,-355v0,-12,-4,-46,-11,-102r81,0","w":360},"s":{"d":"349,-365v-45,-20,-66,-35,-122,-35v-59,0,-89,20,-89,60v0,23,26,39,42,46v44,17,138,48,157,64v32,27,51,61,51,106v2,158,-225,158,-348,106r31,-74v68,25,84,34,138,35v57,1,85,-17,87,-66v2,-37,-38,-49,-62,-59v-80,-33,-188,-43,-188,-155v0,-97,81,-134,183,-133v41,0,92,10,152,30","w":433},"t":{"d":"269,81v-97,-23,-182,-84,-182,-194r0,-275r-74,0r0,-70r74,0r0,-119r90,0r0,119r106,0r0,70r-106,0r0,277v0,57,41,94,123,111","w":312},"u":{"d":"434,-97v-1,21,9,81,11,97r-81,0r-16,-64v-27,35,-59,77,-121,77v-106,0,-159,-61,-159,-182r0,-288r89,0r0,289v-3,69,18,111,83,111v43,0,78,-30,105,-91r0,-309r89,0r0,360","w":502},"v":{"d":"475,-457r-176,457r-84,0r-177,-457r96,0r126,348r123,-348r92,0","w":513},"w":{"d":"720,-457r-153,457r-91,0r-97,-301r-105,301r-93,0r-147,-457r95,0r107,347r104,-305r86,0r98,304r106,-346r90,0","w":754},"x":{"d":"448,0r-103,0r-110,-169r-116,169r-95,0r165,-231r-154,-226r103,0r102,159r106,-159r94,0r-155,219","w":472},"y":{"d":"470,-457r-191,530v-30,82,-72,124,-157,154r-29,-75v47,-13,77,-34,88,-65r40,-106r-183,-438r96,0r131,335r113,-335r92,0","w":508},"z":{"d":"396,-383r-263,314r249,0r0,69r-320,0r-31,-74r264,-314r-236,0r0,-69r305,0","w":427},"{":{"d":"309,118v-117,0,-166,-67,-177,-172v-8,-77,-5,-170,-84,-176r0,-71v48,-1,69,-42,72,-90v3,-54,12,-118,28,-163v20,-55,81,-93,161,-93r0,71v-64,-1,-96,37,-101,92v-9,90,-8,190,-80,220v40,14,67,56,71,103v2,23,4,46,7,71v7,50,7,93,39,118v15,13,37,19,64,19r0,71","w":374},"|":{"d":"167,166r-77,0r0,-868r77,0r0,868","w":257},"}":{"d":"326,-230v-102,10,-67,153,-96,238v-23,69,-74,109,-166,110r0,-71v63,1,94,-40,100,-95v9,-89,6,-191,82,-216v-47,-19,-71,-78,-74,-137v-5,-89,-10,-178,-108,-175r0,-71v117,2,172,68,181,175v3,39,9,83,16,116v6,31,29,54,65,55r0,71","w":374},"~":{"d":"345,-227v48,-1,69,-23,69,-74r72,39v4,98,-118,144,-204,94v-36,-21,-77,-64,-115,-64v-49,0,-67,23,-67,75r-73,-38v0,-70,53,-115,126,-115v55,0,113,40,148,62v20,14,35,21,44,21"},"\u00a0":{"w":257},"\u00a1":{"d":"179,-550r-100,0r0,-97r100,0r0,97xm173,0r-89,0r0,-471r89,0r0,471","w":257},"\u00a2":{"d":"45,-225v0,-135,55,-226,174,-241r0,-93r74,0r0,93v36,5,72,14,109,28r-31,74v-30,-15,-56,-25,-78,-30r0,332v25,-6,52,-16,81,-31r31,74v-24,12,-61,21,-112,28r0,91r-74,0r0,-91v-114,-15,-174,-105,-174,-234xm219,-65r0,-329v-55,15,-82,71,-82,169v0,91,27,144,82,160","w":441},"\u00a3":{"d":"491,0r-438,0r0,-80r66,0r0,-235r-73,0r0,-71r73,0v-1,-125,39,-206,126,-245v55,-25,88,-30,156,-41r27,84v-63,6,-105,14,-126,23v-60,24,-86,87,-83,179r162,0r0,71r-162,0r0,235r272,0r0,80"},"\u00a4":{"d":"96,-299v1,-20,-2,-39,0,-57r-97,0r24,-77r83,0v28,-151,117,-226,266,-226v57,0,112,9,165,26r-26,84v-83,-39,-190,-52,-249,5v-26,25,-43,63,-53,111r268,0r-24,77r-254,0r0,57r238,0r-24,77r-207,0v10,119,95,189,224,154v25,-7,63,-24,85,-33r0,95v-48,16,-97,24,-148,24v-152,0,-240,-80,-264,-240r-104,0r24,-77r73,0"},"\u00a5":{"d":"511,-647r-187,328r120,0r0,70r-136,0r0,61r136,0r0,71r-136,0r0,117r-100,0r0,-117r-135,0r0,-71r135,0r0,-61r-135,0r0,-70r118,0r-188,-328r111,0r148,270r145,-270r104,0"},"\u00a6":{"d":"168,-359r-79,0r0,-234r79,0r0,234xm168,78r-79,0r0,-234r79,0r0,234","w":257},"\u00a7":{"d":"63,-526v-2,-98,85,-132,182,-133v37,0,84,10,139,30r-31,74v-31,-15,-60,-34,-107,-34v-60,0,-90,20,-90,60v0,39,51,53,89,63v78,22,161,52,162,151v0,46,-19,80,-58,101v26,21,39,52,39,93v2,96,-85,137,-182,137v-49,0,-100,-10,-153,-31r31,-75v37,14,71,36,124,36v57,0,87,-16,87,-66v0,-42,-48,-58,-87,-69v-76,-21,-161,-47,-161,-143v0,-51,21,-86,62,-106v-31,-23,-46,-52,-46,-88xm274,-256v51,-14,51,-87,10,-108v-27,-14,-61,-24,-93,-35v-35,8,-52,30,-52,65v0,34,34,46,59,54","w":454},"\u00a8":{"d":"233,-564r-84,0r0,-83r84,0r0,83xm78,-564r-84,0r0,-83r84,0r0,83","w":228},"\u00a9":{"d":"360,-658v186,0,335,149,335,334v0,184,-152,334,-335,334v-183,0,-335,-151,-335,-334v0,-184,152,-334,335,-334xm360,-43v148,0,276,-133,276,-281v0,-150,-125,-281,-276,-281v-152,0,-276,129,-276,281v0,148,128,281,276,281xm184,-322v1,-120,54,-203,178,-201v37,0,71,5,101,15r-20,53v-31,-13,-58,-20,-81,-20v-76,0,-114,51,-114,152v0,105,37,157,110,157v22,0,52,-8,90,-23r19,53v-35,12,-71,18,-108,18v-117,0,-175,-68,-175,-204","w":720},"\u00aa":{"d":"148,-630v77,-28,221,-38,221,61v1,81,-5,87,10,178r-55,0r-10,-28v-22,23,-47,35,-74,35v-57,0,-102,-20,-104,-73v-3,-68,71,-97,174,-92v2,-38,-8,-57,-47,-57v-34,0,-66,7,-97,21xm310,-508v-61,1,-112,-2,-114,49v0,21,17,32,52,32v26,0,47,-11,62,-33r0,-48"},"\u00ab":{"d":"361,-452r-97,180r96,180r-84,0r-93,-178r93,-182r85,0xm205,-452r-97,180r96,180r-83,0r-93,-178r93,-182r84,0","w":387},"\u00ac":{"d":"484,-98r-80,0r0,-176r-379,0r0,-71r459,0r0,247"},"\u00ad":{"d":"310,-196r-282,0r0,-76r282,0r0,76","w":338},"\u00ae":{"d":"360,-658v186,0,335,149,335,334v0,184,-152,334,-335,334v-183,0,-335,-151,-335,-334v0,-184,152,-334,335,-334xm360,-43v148,0,276,-133,276,-281v0,-150,-125,-281,-276,-281v-152,0,-276,129,-276,281v0,148,128,281,276,281xm364,-519v73,1,131,32,131,110v0,67,-35,104,-106,111r130,169r-75,0r-128,-167r-26,0r0,167r-62,0r0,-390r136,0xm432,-409v0,-40,-22,-60,-65,-60r-77,0r0,125r78,0v43,0,64,-22,64,-65","w":720},"\u00af":{"d":"237,-555r-246,0r0,-71r246,0r0,71","w":228},"\u00b0":{"d":"205,-615v85,0,159,71,159,157v0,86,-74,154,-160,154v-86,0,-157,-67,-157,-154v0,-86,73,-157,158,-157xm204,-365v49,0,95,-44,95,-93v0,-54,-40,-97,-94,-97v-54,0,-95,43,-95,97v0,50,44,93,94,93","w":410},"\u00b1":{"d":"470,-242r-173,0r0,122r-80,0r0,-122r-173,0r0,-71r173,0r0,-115r80,0r0,115r173,0r0,71xm474,-1r-434,0r0,-71r434,0r0,71"},"\u00b2":{"d":"167,-659v83,0,161,51,128,136v-29,73,-106,112,-168,158r176,0r0,47r-240,0r-18,-48r92,-68v34,-31,95,-63,98,-119v3,-46,-24,-58,-69,-59v-25,0,-55,9,-92,26r-18,-51v43,-15,80,-22,111,-22","w":349},"\u00b3":{"d":"208,-493v48,7,91,31,91,86v0,108,-162,110,-250,85r19,-51v29,12,59,18,89,18v40,0,76,-16,76,-53v0,-58,-50,-60,-116,-62r0,-45v61,-2,107,-1,107,-53v0,-37,-24,-43,-62,-44v-21,0,-50,8,-87,25r-19,-52v29,-13,64,-20,107,-20v71,0,126,25,127,90v1,47,-39,71,-82,76","w":349},"\u00b4":{"d":"209,-647r-125,117r-65,0r96,-117r94,0","w":228},"\u00b5":{"d":"440,-97v-1,21,9,81,11,97r-81,0r-16,-64v-27,35,-59,76,-121,77v-29,0,-52,-7,-70,-22r0,189r-89,0r0,-637r89,0r0,289v-3,69,18,111,83,111v39,0,74,-34,105,-101r0,-299r89,0r0,360"},"\u00b6":{"d":"60,-465v0,-117,65,-182,188,-182r252,0r0,835r-80,0r0,-764r-100,0v-67,0,-109,47,-109,118v0,58,51,105,98,117r0,529r-79,0r0,-472v-103,-12,-170,-73,-170,-181","w":540},"\u00b7":{"d":"177,-228r-97,0r0,-99r97,0r0,99","w":257},"\u00b8":{"d":"146,27v42,-2,71,33,71,70v1,64,-54,103,-118,102v-26,0,-58,-3,-97,-8r20,-65v43,5,67,8,72,8v32,0,48,-12,48,-35v0,-37,-29,-33,-80,-35r21,-79r73,0","w":228},"\u00b9":{"d":"228,-313r-65,0r0,-274r-66,52r-18,-46r89,-66r60,0r0,334","w":349},"\u00ba":{"d":"258,-659v87,0,130,49,130,131v0,81,-44,134,-130,134v-86,0,-131,-53,-131,-134v0,-79,46,-131,131,-131xm328,-528v0,-57,-16,-87,-70,-88v-48,0,-72,29,-72,88v0,61,24,92,72,92v47,0,70,-31,70,-92"},"\u00bb":{"d":"360,-270r-93,178r-84,0r96,-180r-97,-180r85,0xm204,-270r-93,178r-83,0r96,-180r-97,-180r84,0","w":387},"\u00bc":{"d":"680,-88r-53,0r0,88r-65,0r0,-88r-144,0r-21,-47r162,-199r68,0r0,199r53,0r0,47xm571,-629r-364,629r-79,0r363,-629r80,0xm214,-313r-66,0r0,-274r-65,52r-19,-46r90,-66r53,0xm562,-135r0,-137r-111,137r111,0","w":784},"\u00bd":{"d":"577,-341v73,0,134,29,134,104v0,42,-28,70,-49,92v-31,33,-85,69,-124,97r175,0r0,48r-240,0r-18,-50r92,-67v35,-31,94,-63,98,-119v3,-46,-24,-57,-69,-58v-24,0,-54,9,-91,26r-18,-51v43,-15,79,-22,110,-22xm568,-629r-363,629r-80,0r362,-629r81,0xm211,-313r-65,0r0,-274r-66,52r-18,-46r89,-66r60,0r0,334","w":784},"\u00be":{"d":"701,-88r-53,0r0,88r-65,0r0,-88r-144,0r-21,-47r162,-199r68,0r0,199r53,0r0,47xm602,-629r-363,629r-80,0r362,-629r81,0xm207,-493v48,7,90,31,90,86v0,109,-161,109,-249,85r18,-51v29,12,59,18,90,18v40,0,76,-16,76,-53v0,-58,-51,-60,-117,-62r0,-45v61,-2,108,-1,108,-53v0,-37,-24,-43,-63,-44v-21,0,-50,8,-87,25r-18,-52v29,-13,64,-20,107,-20v71,0,125,24,126,90v1,47,-38,71,-81,76xm583,-135r0,-137r-111,137r111,0","w":784},"\u00bf":{"d":"309,-550r-100,0r0,-97r100,0r0,97xm241,-67v40,0,117,-20,145,-35r18,82v-98,34,-205,42,-290,2v-54,-26,-84,-127,-46,-192v32,-55,92,-81,129,-130v25,-34,14,-84,17,-137r91,0v-2,59,5,119,-17,159v-30,55,-88,76,-124,123v-11,14,-17,29,-17,45v1,63,28,82,94,83","w":435},"\u00c0":{"d":"626,0r-110,0r-64,-183r-248,0r-68,183r-105,0r263,-647r88,0xm427,-258r-94,-273r-101,273r195,0xm433,-688r-66,0r-124,-117r90,0","w":657},"\u00c1":{"d":"626,0r-110,0r-64,-183r-248,0r-68,183r-105,0r263,-647r88,0xm427,-258r-94,-273r-101,273r195,0xm433,-804r-125,117r-65,0r96,-117r94,0","w":657},"\u00c2":{"d":"626,0r-110,0r-64,-183r-248,0r-68,183r-105,0r263,-647r88,0xm427,-258r-94,-273r-101,273r195,0xm462,-696r-69,0r-57,-68r-60,68r-68,0r94,-114r68,0","w":657},"\u00c3":{"d":"626,0r-110,0r-64,-183r-248,0r-68,183r-105,0r263,-647r88,0xm427,-258r-94,-273r-101,273r195,0xm387,-736v25,0,42,-24,48,-43r52,23v-13,40,-49,70,-98,74v-27,2,-77,-42,-98,-42v-25,0,-41,14,-49,41r-51,-24v23,-47,40,-65,101,-70v24,-2,76,41,95,41","w":657},"\u00c4":{"d":"626,0r-110,0r-64,-183r-248,0r-68,183r-105,0r263,-647r88,0xm427,-258r-94,-273r-101,273r195,0xm455,-683r-84,0r0,-83r84,0r0,83xm300,-683r-84,0r0,-83r84,0r0,83","w":657},"\u00c5":{"d":"626,0r-110,0r-64,-183r-248,0r-68,183r-105,0r263,-647r88,0xm427,-258r-94,-273r-101,273r195,0xm341,-835v46,0,83,36,83,82v0,45,-38,82,-83,82v-44,0,-83,-38,-83,-82v0,-45,38,-82,83,-82xm341,-709v27,0,44,-19,44,-45v0,-25,-18,-45,-44,-45v-25,0,-45,21,-45,45v0,23,21,45,45,45","w":657},"\u00c6":{"d":"861,0r-345,0r-30,-183r-242,0r-100,183r-113,0r367,-647r454,0r0,77r-337,0r35,197r281,0r0,77r-267,0r39,219r258,0r0,77xm475,-258r-44,-272r-147,272r191,0","w":944},"\u00c7":{"d":"164,-324v0,154,37,262,180,265v34,0,82,-13,145,-38r32,85v-56,20,-111,30,-166,31r-2,8v41,-2,73,33,73,70v1,64,-55,103,-119,102v-26,0,-58,-3,-97,-8r20,-65v37,5,61,7,72,7v32,0,48,-11,48,-34v0,-37,-29,-33,-80,-35r14,-51v-149,-23,-223,-135,-223,-336v0,-204,83,-336,289,-337v56,0,111,9,164,26r-32,85v-51,-22,-95,-33,-132,-33v-124,0,-186,86,-186,258","w":559},"\u00c8":{"d":"476,0r-380,0r0,-647r371,0r0,77r-271,0r0,197r250,0r0,77r-250,0r0,219r280,0r0,77xm364,-688r-66,0r-124,-117r94,0","w":559},"\u00c9":{"d":"476,0r-380,0r0,-647r371,0r0,77r-271,0r0,197r250,0r0,77r-250,0r0,219r280,0r0,77xm374,-794r-125,117r-65,0r96,-117r94,0","w":559},"\u00ca":{"d":"476,0r-380,0r0,-647r371,0r0,77r-271,0r0,197r250,0r0,77r-250,0r0,219r280,0r0,77xm409,-690r-69,0r-57,-68r-60,68r-68,0r94,-114r68,0","w":559},"\u00cb":{"d":"476,0r-380,0r0,-647r371,0r0,77r-271,0r0,197r250,0r0,77r-250,0r0,219r280,0r0,77xm408,-683r-84,0r0,-83r84,0r0,83xm253,-683r-84,0r0,-83r84,0r0,83","w":559},"\u00cc":{"d":"184,0r-100,0r0,-647r100,0r0,647xm212,-692r-66,0r-124,-117r94,0","w":268},"\u00cd":{"d":"185,0r-100,0r0,-647r100,0r0,647xm234,-809r-125,117r-65,0r96,-117r94,0","w":269},"\u00ce":{"d":"184,0r-100,0r0,-647r100,0r0,647xm261,-692r-69,0r-57,-68r-60,68r-68,0r94,-114r68,0","w":269},"\u00cf":{"d":"184,0r-100,0r0,-647r100,0r0,647xm254,-709r-84,0r0,-83r84,0r0,83xm99,-709r-84,0r0,-83r84,0r0,83","w":268},"\u00d0":{"d":"281,-647v225,3,309,91,309,321v0,230,-83,324,-309,326r-185,0r0,-329r-67,0r0,-70r67,0r0,-248r185,0xm290,-77v148,-4,197,-83,197,-248v0,-161,-47,-250,-206,-245r-85,0r0,171r125,0r0,70r-125,0r0,252r94,0","w":651},"\u00d1":{"d":"605,0r-148,0r-267,-529r0,529r-94,0r0,-647r146,0r265,529r0,-529r98,0r0,647xm393,-735v25,0,42,-24,48,-43r52,23v-13,40,-49,70,-98,74v-27,2,-77,-42,-98,-42v-25,0,-41,14,-49,41r-51,-24v23,-47,40,-65,101,-70v24,-2,76,41,95,41","w":701},"\u00d2":{"d":"61,-321v0,-203,87,-338,293,-338v192,0,288,113,288,338v0,204,-83,339,-289,339v-195,0,-292,-113,-292,-339xm353,-59v148,0,186,-105,186,-262v0,-160,-39,-261,-186,-261v-148,0,-189,101,-189,261v0,163,39,262,189,262xm413,-688r-66,0r-124,-117r94,0","w":703},"\u00d3":{"d":"61,-321v0,-203,87,-338,293,-338v192,0,288,113,288,338v0,204,-83,339,-289,339v-195,0,-292,-113,-292,-339xm353,-59v148,0,186,-105,186,-262v0,-160,-39,-261,-186,-261v-148,0,-189,101,-189,261v0,163,39,262,189,262xm463,-804r-125,117r-65,0r96,-117r94,0","w":703},"\u00d4":{"d":"61,-321v0,-203,87,-338,293,-338v192,0,288,113,288,338v0,204,-83,339,-289,339v-195,0,-292,-113,-292,-339xm353,-59v148,0,186,-105,186,-262v0,-160,-39,-261,-186,-261v-148,0,-189,101,-189,261v0,163,39,262,189,262xm478,-690r-69,0r-57,-68r-60,68r-68,0r94,-114r68,0","w":703},"\u00d5":{"d":"61,-321v0,-203,87,-338,293,-338v192,0,288,113,288,338v0,204,-83,339,-289,339v-195,0,-292,-113,-292,-339xm353,-59v148,0,186,-105,186,-262v0,-160,-39,-261,-186,-261v-148,0,-189,101,-189,261v0,163,39,262,189,262xm403,-735v25,0,42,-24,48,-43r52,23v-13,40,-49,70,-98,74v-27,2,-77,-42,-98,-42v-25,0,-41,14,-49,41r-51,-24v23,-47,40,-65,101,-70v24,-2,76,41,95,41","w":703},"\u00d6":{"d":"61,-321v0,-203,87,-338,293,-338v192,0,288,113,288,338v0,204,-83,339,-289,339v-195,0,-292,-113,-292,-339xm353,-59v148,0,186,-105,186,-262v0,-160,-39,-261,-186,-261v-148,0,-189,101,-189,261v0,163,39,262,189,262xm472,-682r-84,0r0,-83r84,0r0,83xm317,-682r-84,0r0,-83r84,0r0,83","w":703},"\u00d7":{"d":"469,-84r-56,56r-155,-155r-155,155r-56,-56r155,-155r-155,-155r56,-56r155,155r155,-155r56,56r-155,155"},"\u00d8":{"d":"61,-321v1,-203,87,-340,293,-338v75,0,135,17,180,52r76,-90r66,60r-82,96v32,55,48,128,48,220v-1,204,-83,341,-289,339v-78,0,-140,-19,-187,-57r-85,100r-65,-60r90,-106v-30,-53,-45,-125,-45,-216xm353,-582v-148,3,-188,101,-189,261v0,55,5,98,15,131r297,-349v-30,-29,-71,-43,-123,-43xm353,-59v148,-2,184,-105,186,-262v0,-55,-6,-100,-17,-135r-298,350v29,31,72,47,129,47","w":703},"\u00d9":{"d":"357,-59v111,0,148,-67,148,-190r0,-398r100,0r0,410v0,170,-83,255,-248,255v-179,0,-260,-80,-261,-257r0,-408r100,0r0,398v0,136,38,190,161,190xm417,-688r-66,0r-124,-117r94,0","w":701},"\u00da":{"d":"357,-59v111,0,148,-67,148,-190r0,-398r100,0r0,410v0,170,-83,255,-248,255v-179,0,-260,-80,-261,-257r0,-408r100,0r0,398v0,136,38,190,161,190xm466,-795r-125,117r-65,0r96,-117r94,0","w":701},"\u00db":{"d":"357,-59v111,0,148,-67,148,-190r0,-398r100,0r0,410v0,170,-83,255,-248,255v-179,0,-260,-80,-261,-257r0,-408r100,0r0,398v0,136,38,190,161,190xm477,-690r-69,0r-57,-68r-60,68r-68,0r94,-114r68,0","w":701},"\u00dc":{"d":"357,-59v111,0,148,-67,148,-190r0,-398r100,0r0,410v0,170,-83,255,-248,255v-179,0,-260,-80,-261,-257r0,-408r100,0r0,398v0,136,38,190,161,190xm475,-683r-84,0r0,-83r84,0r0,83xm320,-683r-84,0r0,-83r84,0r0,83","w":701},"\u00dd":{"d":"575,-647r-228,356r0,291r-100,0r0,-287r-232,-360r113,0r173,270r168,-270r106,0xm379,-809r-125,117r-65,0r96,-117r94,0","w":590},"\u00de":{"d":"526,-335v0,130,-71,195,-212,195r-118,0r0,140r-100,0r0,-647r100,0r0,123r107,0v149,0,223,63,223,189xm306,-217v80,-1,118,-34,118,-118v0,-87,-40,-112,-123,-112r-105,0r0,230r110,0","w":578},"\u00df":{"d":"285,-343v95,34,186,81,184,211v-2,152,-114,206,-267,209r30,-77v88,1,147,-47,146,-134v0,-60,-25,-99,-64,-123v-40,-25,-55,-30,-102,-44r0,-71v44,-31,104,-64,105,-138v2,-48,-37,-78,-82,-78v-61,0,-78,35,-78,106r0,482r-89,0r0,-471v0,-124,56,-186,167,-186v98,1,176,47,173,150v-3,90,-66,130,-123,164","w":516},"\u00e0":{"d":"424,-140v0,43,12,100,16,140r-83,0r-16,-50v-35,41,-77,62,-124,62v-98,0,-172,-39,-172,-132v0,-51,19,-90,55,-120v40,-33,136,-45,234,-42v5,-71,-15,-118,-78,-118v-51,0,-105,13,-161,40r-31,-74v63,-23,128,-35,195,-35v98,0,166,48,165,146r0,183xm139,-124v0,48,41,67,92,67v47,0,82,-18,104,-54r0,-109v-108,0,-196,3,-196,96xm300,-530r-66,0r-124,-117r94,0","w":501},"\u00e1":{"d":"424,-140v0,43,12,100,16,140r-83,0r-16,-50v-35,41,-77,62,-124,62v-98,0,-172,-39,-172,-132v0,-51,19,-90,55,-120v40,-33,136,-45,234,-42v5,-71,-15,-118,-78,-118v-51,0,-105,13,-161,40r-31,-74v63,-23,128,-35,195,-35v98,0,166,48,165,146r0,183xm139,-124v0,48,41,67,92,67v47,0,82,-18,104,-54r0,-109v-108,0,-196,3,-196,96xm352,-647r-125,117r-65,0r96,-117r94,0","w":501},"\u00e2":{"d":"424,-140v0,43,12,100,16,140r-83,0r-16,-50v-35,41,-77,62,-124,62v-98,0,-172,-39,-172,-132v0,-51,19,-90,55,-120v40,-33,136,-45,234,-42v5,-71,-15,-118,-78,-118v-51,0,-105,13,-161,40r-31,-74v63,-23,128,-35,195,-35v98,0,166,48,165,146r0,183xm139,-124v0,48,41,67,92,67v47,0,82,-18,104,-54r0,-109v-108,0,-196,3,-196,96xm361,-533r-69,0r-57,-68r-60,68r-68,0r94,-114r68,0","w":501},"\u00e3":{"d":"424,-140v0,43,12,100,16,140r-83,0r-16,-50v-35,41,-77,62,-124,62v-98,0,-172,-39,-172,-132v0,-51,19,-90,55,-120v40,-33,136,-45,234,-42v5,-71,-15,-118,-78,-118v-51,0,-105,13,-161,40r-31,-74v63,-23,128,-35,195,-35v98,0,166,48,165,146r0,183xm139,-124v0,48,41,67,92,67v47,0,82,-18,104,-54r0,-109v-108,0,-196,3,-196,96xm189,-621v24,-2,76,41,95,41v21,0,38,-14,51,-43r49,23v-13,40,-49,70,-98,74v-27,2,-77,-42,-98,-42v-25,0,-41,14,-49,41r-51,-24v23,-47,40,-65,101,-70","w":501},"\u00e4":{"d":"424,-140v0,43,12,100,16,140r-83,0r-16,-50v-35,41,-77,62,-124,62v-98,0,-172,-39,-172,-132v0,-51,19,-90,55,-120v40,-33,136,-45,234,-42v5,-71,-15,-118,-78,-118v-51,0,-105,13,-161,40r-31,-74v63,-23,128,-35,195,-35v98,0,166,48,165,146r0,183xm139,-124v0,48,41,67,92,67v47,0,82,-18,104,-54r0,-109v-108,0,-196,3,-196,96xm367,-535r-85,0r0,-89r85,0r0,89xm210,-535r-84,0r0,-89r84,0r0,89","w":501},"\u00e5":{"d":"424,-140v0,43,12,100,16,140r-83,0r-16,-50v-35,41,-77,62,-124,62v-98,0,-172,-39,-172,-132v0,-51,19,-90,55,-120v40,-33,136,-45,234,-42v5,-71,-15,-118,-78,-118v-51,0,-105,13,-161,40r-31,-74v63,-23,128,-35,195,-35v98,0,166,48,165,146r0,183xm139,-124v0,48,41,67,92,67v47,0,82,-18,104,-54r0,-109v-108,0,-196,3,-196,96xm240,-671v46,0,83,36,83,82v0,45,-38,82,-83,82v-44,0,-83,-38,-83,-82v0,-45,38,-82,83,-82xm240,-545v27,0,44,-19,44,-45v0,-25,-18,-45,-44,-45v-25,0,-45,21,-45,45v0,23,21,45,45,45","w":501},"\u00e6":{"d":"217,12v-98,0,-172,-39,-172,-132v0,-51,19,-90,55,-120v40,-33,137,-45,235,-42v5,-71,-16,-118,-79,-118v-51,0,-105,13,-161,40r-31,-74v63,-23,128,-35,195,-35v63,0,109,22,136,65v35,-43,81,-65,138,-65v166,1,205,102,207,275r-315,0v7,93,47,139,121,139v41,0,87,-13,139,-39r29,70v-52,24,-111,36,-176,36v-76,1,-138,-36,-161,-87v-45,58,-98,87,-160,87xm650,-261v-3,-93,-41,-139,-116,-139v-70,0,-106,59,-109,139r225,0xm231,-57v47,0,86,-34,105,-65r0,-94v-107,1,-197,-1,-197,92v0,48,41,67,92,67","w":787},"\u00e7":{"d":"137,-225v0,97,34,165,123,167v31,0,69,-12,114,-37r26,78v-30,13,-70,23,-120,28r-4,18v41,-2,70,32,71,68v1,62,-55,103,-117,102v-26,0,-58,-3,-97,-8r16,-62v37,5,63,7,76,7v26,0,53,-11,51,-37v-3,-36,-32,-33,-83,-35r15,-57v-105,-19,-163,-108,-163,-232v0,-147,71,-244,217,-243v42,0,87,9,135,28r-27,77v-41,-24,-77,-36,-109,-36v-97,2,-123,67,-124,174","w":441},"\u00e8":{"d":"253,12v-164,0,-236,-155,-199,-320v21,-90,80,-162,194,-161v167,2,203,101,206,275r-314,0v7,93,47,139,121,139v41,0,87,-13,139,-39r29,70v-52,24,-111,36,-176,36xm367,-261v-3,-93,-42,-139,-118,-139v-70,0,-108,60,-110,139r228,0xm313,-530r-66,0r-124,-117r94,0","w":501},"\u00e9":{"d":"253,12v-164,0,-236,-155,-199,-320v21,-90,80,-162,194,-161v167,2,203,101,206,275r-314,0v7,93,47,139,121,139v41,0,87,-13,139,-39r29,70v-52,24,-111,36,-176,36xm367,-261v-3,-93,-42,-139,-118,-139v-70,0,-108,60,-110,139r228,0xm366,-647r-125,117r-65,0r96,-117r94,0","w":501},"\u00ea":{"d":"253,12v-164,0,-236,-155,-199,-320v21,-90,80,-162,194,-161v167,2,203,101,206,275r-314,0v7,93,47,139,121,139v41,0,87,-13,139,-39r29,70v-52,24,-111,36,-176,36xm367,-261v-3,-93,-42,-139,-118,-139v-70,0,-108,60,-110,139r228,0xm381,-533r-69,0r-57,-68r-60,68r-68,0r94,-114r68,0","w":501},"\u00eb":{"d":"253,12v-164,0,-236,-155,-199,-320v21,-90,80,-162,194,-161v167,2,203,101,206,275r-314,0v7,93,47,139,121,139v41,0,87,-13,139,-39r29,70v-52,24,-111,36,-176,36xm367,-261v-3,-93,-42,-139,-118,-139v-70,0,-108,60,-110,139r228,0xm377,-544r-84,0r0,-83r84,0r0,83xm222,-544r-84,0r0,-83r84,0r0,83","w":501},"\u00ec":{"d":"199,-530r-66,0r-124,-117r94,0xm159,0r-90,0r0,-457r90,0r0,457","w":228},"\u00ed":{"d":"209,-647r-125,117r-65,0r96,-117r94,0xm159,0r-90,0r0,-457r90,0r0,457","w":228},"\u00ee":{"d":"158,0r-90,0r0,-457r90,0r0,457xm246,-533r-69,0r-57,-68r-60,68r-68,0r94,-114r68,0","w":228},"\u00ef":{"d":"233,-563r-84,0r0,-83r84,0r0,83xm78,-563r-84,0r0,-83r84,0r0,83xm159,0r-90,0r0,-457r90,0r0,457","w":228},"\u00f0":{"d":"242,-402v57,1,114,42,134,87v0,-109,-36,-184,-107,-225r-82,55r-66,-38r68,-47v-13,-3,-41,-7,-84,-12r-32,-85v78,5,144,19,197,42r69,-48r65,38r-67,46v88,61,132,163,132,306v0,199,-73,299,-220,299v-113,0,-204,-91,-204,-204v0,-133,66,-215,197,-214xm146,-188v0,74,36,129,102,129v96,0,119,-64,119,-180v-23,-59,-63,-88,-120,-88v-81,-1,-101,60,-101,139"},"\u00f1":{"d":"279,-470v120,-3,162,65,162,182r0,288r-89,0r0,-289v-2,-70,-14,-111,-86,-111v-55,1,-89,50,-109,91r0,309r-89,0r0,-360v1,-21,-9,-81,-11,-97r81,0r16,64v30,-38,61,-76,125,-77xm207,-621v24,-2,76,41,95,41v21,0,38,-14,50,-43r50,23v-13,40,-49,70,-98,74v-27,2,-77,-42,-98,-42v-25,0,-41,14,-49,41r-51,-24v23,-47,40,-65,101,-70","w":509},"\u00f2":{"d":"259,-470v149,0,213,95,213,239v0,144,-65,244,-213,244v-149,0,-214,-100,-214,-244v0,-139,68,-239,214,-239xm380,-231v0,-105,-25,-169,-121,-169v-81,0,-122,56,-122,169v0,116,41,174,122,174v81,0,121,-58,121,-174xm335,-530r-66,0r-124,-117r94,0","w":517},"\u00f3":{"d":"259,-470v149,0,213,95,213,239v0,144,-65,244,-213,244v-149,0,-214,-100,-214,-244v0,-139,68,-239,214,-239xm380,-231v0,-105,-25,-169,-121,-169v-81,0,-122,56,-122,169v0,116,41,174,122,174v81,0,121,-58,121,-174xm368,-647r-125,117r-65,0r96,-117r94,0","w":517},"\u00f4":{"d":"259,-470v149,0,213,95,213,239v0,144,-65,244,-213,244v-149,0,-214,-100,-214,-244v0,-139,68,-239,214,-239xm380,-231v0,-105,-25,-169,-121,-169v-81,0,-122,56,-122,169v0,116,41,174,122,174v81,0,121,-58,121,-174xm387,-533r-69,0r-57,-68r-60,68r-68,0r94,-114r68,0","w":517},"\u00f5":{"d":"259,-470v149,0,213,95,213,239v0,144,-65,244,-213,244v-149,0,-214,-100,-214,-244v0,-139,68,-239,214,-239xm380,-231v0,-105,-25,-169,-121,-169v-81,0,-122,56,-122,169v0,116,41,174,122,174v81,0,121,-58,121,-174xm298,-580v25,0,42,-24,48,-43r52,23v-13,40,-49,70,-98,74v-27,2,-77,-42,-98,-42v-25,0,-41,14,-49,41r-51,-24v23,-47,40,-65,101,-70v24,-2,76,41,95,41","w":517},"\u00f6":{"d":"259,-470v149,0,213,95,213,239v0,144,-65,244,-213,244v-149,0,-214,-100,-214,-244v0,-139,68,-239,214,-239xm380,-231v0,-105,-25,-169,-121,-169v-81,0,-122,56,-122,169v0,116,41,174,122,174v81,0,121,-58,121,-174xm378,-544r-84,0r0,-83r84,0r0,83xm223,-544r-84,0r0,-83r84,0r0,83","w":517},"\u00f7":{"d":"307,-336r-99,0r0,-96r99,0r0,96xm474,-187r-434,0r0,-65r434,0r0,65xm307,-12r-99,0r0,-96r99,0r0,96"},"\u00f8":{"d":"45,-231v1,-139,68,-239,214,-239v53,0,96,13,129,39r53,-58r61,59r-57,62v18,37,27,82,27,137v-1,144,-65,246,-213,244v-53,0,-96,-13,-130,-38r-54,58r-60,-59r59,-64v-19,-39,-29,-86,-29,-141xm335,-373v-18,-18,-43,-27,-76,-27v-81,0,-122,56,-122,169v0,25,2,47,7,65xm380,-231v0,-26,-2,-46,-5,-61r-192,208v19,18,45,27,76,27v81,0,121,-58,121,-174","w":517},"\u00f9":{"d":"322,-530r-66,0r-124,-117r94,0xm434,-97v-1,21,9,81,11,97r-81,0r-16,-64v-27,35,-59,77,-121,77v-106,0,-159,-61,-159,-182r0,-288r89,0r0,289v-3,69,18,111,83,111v43,0,78,-30,105,-91r0,-309r89,0r0,360","w":502},"\u00fa":{"d":"434,-97v-1,21,9,81,11,97r-81,0r-16,-64v-27,35,-59,77,-121,77v-106,0,-159,-61,-159,-182r0,-288r89,0r0,289v-3,69,18,111,83,111v43,0,78,-30,105,-91r0,-309r89,0r0,360xm359,-647r-125,117r-65,0r96,-117r94,0","w":502},"\u00fb":{"d":"434,-97v-1,21,9,81,11,97r-81,0r-16,-64v-27,35,-59,77,-121,77v-106,0,-159,-61,-159,-182r0,-288r89,0r0,289v-3,69,18,111,83,111v43,0,78,-30,105,-91r0,-309r89,0r0,360xm377,-533r-69,0r-57,-68r-60,68r-68,0r94,-114r68,0","w":502},"\u00fc":{"d":"434,-97v-1,21,9,81,11,97r-81,0r-16,-64v-27,35,-59,77,-121,77v-106,0,-159,-61,-159,-182r0,-288r89,0r0,289v-3,69,18,111,83,111v43,0,78,-30,105,-91r0,-309r89,0r0,360xm370,-544r-84,0r0,-83r78,0xm215,-544r-84,0r0,-83r84,0r0,83","w":502},"\u00fd":{"d":"470,-457r-191,530v-30,82,-72,124,-157,154r-29,-75v47,-13,77,-34,88,-65r40,-106r-183,-438r96,0r131,335r113,-335r92,0xm355,-647r-125,117r-65,0r96,-117r94,0","w":508},"\u00fe":{"d":"280,-469v132,-2,186,105,186,238v1,133,-67,243,-199,243v-52,0,-93,-31,-113,-62r-16,228r-81,0v19,-190,8,-595,11,-835r89,0r0,264v35,-51,76,-76,123,-76xm155,-124v16,37,52,66,100,67v79,0,119,-57,119,-172v0,-114,-35,-171,-106,-171v-62,0,-91,47,-113,93r0,183","w":511},"\u00ff":{"d":"470,-457r-191,530v-30,82,-72,124,-157,154r-29,-75v47,-13,77,-34,88,-65r40,-106r-183,-438r96,0r131,335r113,-335r92,0xm383,-547r-84,0r0,-83r84,0r0,83xm228,-547r-84,0r0,-83r84,0r0,83","w":508},"\u0152":{"d":"61,-321v0,-203,87,-340,293,-338v36,0,68,4,97,12r433,0r0,77r-318,0v37,41,58,107,64,197r233,0r0,77r-232,0v-2,96,-23,169,-64,219r326,0r0,77r-426,0v-33,12,-71,18,-114,18v-195,0,-292,-113,-292,-339xm353,-59v146,0,176,-104,176,-262v0,-161,-30,-261,-176,-261v-148,0,-189,101,-189,261v0,163,39,262,189,262","w":976},"\u0153":{"d":"45,-231v0,-139,68,-239,214,-239v78,0,134,28,167,83v33,-55,84,-82,153,-82v167,2,203,101,206,275r-314,0v7,93,47,139,121,139v41,0,87,-13,139,-39r29,70v-52,24,-111,36,-176,36v-71,0,-123,-28,-158,-84v-35,57,-90,85,-167,85v-149,0,-214,-100,-214,-244xm696,-261v-3,-93,-41,-139,-116,-139v-70,0,-108,60,-110,139r226,0xm380,-231v0,-105,-25,-169,-121,-169v-81,0,-122,56,-122,169v0,116,41,174,122,174v81,0,121,-58,121,-174","w":832},"\u0178":{"d":"575,-647r-228,356r0,291r-100,0r0,-287r-232,-360r113,0r173,270r168,-270r106,0xm421,-718r-82,0r0,-84r82,0r0,84xm269,-718r-83,0r0,-84r83,0r0,84","w":590},"\u02c6":{"d":"241,-533r-69,0r-57,-68r-60,68r-68,0r94,-114r68,0","w":228},"\u02dc":{"d":"162,-580v25,0,42,-24,48,-43r52,23v-13,40,-49,70,-98,74v-27,2,-77,-42,-98,-42v-25,0,-41,14,-49,41r-51,-24v23,-47,40,-65,101,-70v24,-2,76,41,95,41","w":228},"\u2013":{"d":"501,-203r-502,0r0,-72r502,0r0,72","w":500},"\u2014":{"d":"1001,-197r-1002,0r0,-78r1002,0r0,78","w":1000},"\u2018":{"d":"207,-648r-85,188r-77,0r99,-188r63,0","w":257},"\u2019":{"d":"208,-648r-97,188r-64,0r84,-188r77,0","w":257},"\u201a":{"d":"208,-100r-97,188r-64,0r84,-188r77,0","w":257},"\u201c":{"d":"347,-648r-85,188r-77,0r98,-188r64,0xm202,-648r-85,188r-77,0r99,-188r63,0","w":387},"\u201d":{"d":"347,-648r-99,188r-64,0r85,-188r78,0xm202,-648r-98,188r-64,0r85,-188r77,0","w":387},"\u201e":{"d":"347,-100r-99,188r-64,0r85,-188r78,0xm202,-100r-98,188r-64,0r85,-188r77,0","w":387},"\u2022":{"d":"257,-459v74,0,135,61,135,135v0,74,-61,136,-135,136v-76,0,-135,-60,-135,-136v0,-74,62,-135,135,-135"},"\u2026":{"d":"691,0r-98,0r0,-96r98,0r0,96xm435,0r-99,0r0,-96r99,0r0,96xm178,0r-99,0r0,-96r99,0r0,96","w":770},"\u2039":{"d":"219,-452r-97,180r96,180r-83,0r-93,-178r93,-182r84,0","w":257},"\u203a":{"d":"222,-270r-93,178r-83,0r96,-180r-97,-180r84,0","w":257},"\u2122":{"d":"820,-291r-59,0r0,-296r-121,296r-57,0r-121,-296r0,296r-58,0r0,-356r97,0r113,279r114,-279r92,0r0,356xm356,-602r-110,0r0,311r-61,0r0,-311r-110,0r0,-45r281,0r0,45","w":914}}});
